{"layer1": {"weights": [[-0.19285228236827034, -0.19906964328690246, 0.12074301636340723, 0.46150706097691896, 0.09073701620209851, -0.47590206270154367, 0.33397134346811463, 0.4732299235803148, -0.1461783831631559, -0.04510488393811107, 0.29856285051427867, -0.32143055276844346, 0.0820678928942209, -0.4359900787851171, 0.4288522673734174, -0.2195379439102666, -0.2521797427966741, 0.48594056736760505, 0.4753011895912074, 0.3746234499632449, 0.2191114575430524, -0.03426118802498468, 0.021718241174402242, 0.038523799009679505, 0.1370693325444955, 0.23217581858744407, 0.14101637291166114, 0.27570449981576717, -0.11184739744086969, -0.4990921665103525, 0.47573575653803857, 0.31362973779882974, -0.0768663495987737, -0.43548953984956185, -0.44708322695665215, 0.13158089279575236, -0.01760488694558071, 0.45494477513932985, 0.03919090894133914, 0.06643077011714832, 0.49236751236868237, -0.01543941499395724, -0.42014145515476325, -0.30069293481960624, 0.044978693102459305, -0.3717582069065383, 0.32357707004789693, 0.29179448104295214, 0.19866034676299504, -0.17850100983492867, 0.492572150186365, -0.28786428776235706, 0.16093823831386267, 0.3868924732318262, -0.47636369317727867, -0.1608128351109155, 0.23553552384256626, 0.4323506709246183, -0.23763887291697317, 0.1549842166953016, -0.4942386670194133, 0.3669206414920626, -0.1581901806273924, 0.2504384607739728, -0.2101878663181755, -0.49322396733517515, 0.3672993289455822, 0.21258470290616663, -0.11008471511072553, -0.37324845892707026, 0.43884866271488643, -0.3480963689068438, -0.05863867552826024, 0.11614400343298821, 0.23431457762691818, 0.3811902958385295, 0.28086495810166934, 0.13073325598536592, 0.17783159418865674, -0.02913216760051524, -0.1673599247694199, -0.40398808797621555, -0.24019791799860046, 0.06323398046993145, 0.11938771500953238, 0.24520708012293302, 0.42131364113967806, -0.045923994930992196, -0.03683757000232224, -0.060679542977813986, 0.2989765814422062, -0.17181968923246854, -0.4576033631713374, -0.04760592269981742, -0.36282514221764345, 0.25163849546589345, -0.35096384388762863, 0.13106847068348912, 0.16750013790168836, 0.24671623581904598, 0.27656653909864437, -0.4064392003403304, 0.5427273958405454, 0.08304108197510937, 0.004660699502193584, 0.2114685130303788, 0.031071853408895612, -0.04864219082347005, -0.3635001925588708, -0.20887709290553969, -0.22555209107049112, 0.4533983296552372, 0.08754027350903915, 0.3138312820868243, -0.2934636572747198, 0.18262790712413923, 0.20895786534506375, 0.09242417131949322, -0.4580797277081487, 0.18470356510103483, -0.17404926862399908, -0.052712462066828496, 0.10370238817604618, 0.3645546298478301, -0.29174422721376453, 0.01991496112177599, 0.18607759209822874, 0.05846554831674334, 0.39522893950797905, 0.47336471879010494, 0.17208235556684678, -0.2446422336657937, -0.38728205827283757, -0.4489734090051405, 0.45077045670521043, 0.3261276846954271, 0.47678995336779656, 0.3339781245394051, 0.36840122331585756, -0.12887785660529727, -0.10990316904226616, 0.08387433825674773, 0.493653171138534, 0.15545917941801857, 0.4341968409722015, 0.061486576099459, 0.46462629110798576, -0.07200269045720037, 0.2512920808667632, -0.17959132568851527, 0.16799963459371042, -0.3046098850119367, 0.6009755145165308, -0.09825868239600714, 0.29777353773174725, 0.4450322287474483, 0.3652029817340383, -0.0601457814194128, 0.6149418578546344, 0.24775354431259816, 0.3578416867329231, 0.3140625211824923, -0.5487120190385149, -0.3247214800986962, 0.39606561715202376, 0.36295319621250804, -0.47155919496913434, -0.443109419103912, 0.10720606146820089, 0.09940155204012913, 0.09854979038990563, 0.21300195065002503, -0.14649791175039048, -0.22582009366386377, 0.003529306234576591, 0.10970348661327883, 0.13461070701390399, -0.24982497353526048, 0.4104146224256961, 0.24294917876152608, 0.012604008815291752, 0.2893478324697189, 0.0821812563498657, 0.47285379249201215, 0.03407797214536199, 0.22796229441649424, 0.066716552123626, -0.44697087420413595, -0.08144641136606037, -0.0007478390681972817, 0.18973542079065028, 0.2983881497978224, 0.3653932385549231, -0.3934403661709055, 0.05268443758274917, -0.03615514393218596, 0.006058331541041295, 0.49707758742118835, -0.14151806467019368, -0.3330133612831896, -0.46014621333369443, 0.020147970140287984, -0.12238015632517346, 0.446158506880645, 0.026696869080311377, 0.016775831052428462, -0.2545527330391303, 0.1369694078673223, -0.1565725110878165, 0.23082892195543916, -0.09335159041150341, 0.3350118205761458, -0.35248392587048627, -0.1858117622867932, -0.13245148176757393, -0.33360692917751916, 0.40793904428307415, -0.5272138729677673, -0.46802243825878986, 0.037528784675114675, 0.03110439768639652, -0.3769490262626141, 0.18371739334083326, 0.2950717983423823, -0.06713183171730597, 0.317013684140495, 0.3673018745515776, -0.14244630216714643, 0.08575860465681111, 0.3460318648760271, 0.3109182996589054, 0.4359171969629817, 0.36855766739438006, -0.34338274557599413, -0.08691257048931501, 0.11478236482297424, -0.03746191282725666, -0.1502360608651963, 0.31633348719114807, 0.12675552127794568, 0.46782122844281326, 0.22323419990488239, 0.2206428594363508, 0.35841776992154456, -0.09078671348966516, 0.2968713246935517, -0.2952580771121334, -0.4972056210146234, 0.13431273697612342, 0.004428537172043525, 0.46121453371783033, 0.1496839245854864, -0.333183732528858, -0.13058786893889135, 0.16357322440632002, 0.30791710030926384, 0.005739664161118794, 0.37689275394326266, -0.14569950167462964, -0.224662351432251, 0.30981624836966043, 0.31860903912365546, 0.0008965819524923306, 0.5096627598069928, 0.641108420998994, -0.08764618010883009, 0.38060309082796023, -0.4320388785504077, 0.12995145298508978, -0.5250422112973903, 0.32071253426631663, 0.20935958374096708, 0.3287427074539963, 0.4893096807590929, -0.12419145121570636, -0.2829857985510541, -0.14065457740535486, 0.4652531491964736, -0.3050094540445057, 0.33345631149533583, 0.4303258176112612, -0.04332736339880994, 0.10652995555285617, -0.4464208475790068, 0.2948043770709127, 0.2726633668884956, -0.05396213926490823, -0.4564108415502559, 0.3501487080805294, -0.016027260451679376, -0.08807961097288465, -0.0953998773619845, -0.0431959537612487, -0.1597898634946238, 0.20959790765846142, 0.16231998752992652, -0.4166534300717509, 0.02901518051751379, -0.44664698425499977, 0.11582639726661692, 0.25848292547502716, 0.4805829718874102, -0.07163160095513993, 0.4530075910791772, -0.4093272768437965, -0.21654428735002393, -0.3807607657094495, -0.41487804966622505, 0.15372730069708318, 0.48984674726358546, -0.1588985168614405, -0.21823940953391444, 0.29749329761556803, -0.24827889894181357, 0.21651443981659502, 0.21681771478546688, 0.4117949495731231, -0.43318649041022766, -0.19610085815754952, 0.31960292382464617, -0.3378396182311419, -0.3625738656053069, -0.40888015391699506, -0.29369899636149793, 0.13545521324788745, -0.40727137054151424, 0.3835413940502024, -0.40291140290641236, 0.3775186683496279, 0.4993015036187398, -0.01611774407747911, -0.30908013335859175, 0.3912107534681143, 0.061287789773650236, 0.19807908300308463, 0.42963316705324, -0.1481541993099481, -0.2238719776621581, -0.3161187731677478, 0.007057374168098058, -0.3880414957888618, -0.515231689634698, 0.3763106569407242, -0.49598570233094486, -0.4781515882104542, 0.14582404868359322, 0.4515539050358399, -0.3212272537117258, -0.10496781264788804, -0.49237557044818026, -0.6129288587321491, -0.3898743661943964, -0.025503381137108476, -0.4223491284203128, -0.18833902906246053, 0.057046106379584245, -0.20872910815563278, -0.026893252088938432, 0.48609699673948326, 0.14918208033563143, 0.35677590242700336, -0.28561119772979404, -0.4289626615591594, -0.19040436351055823, -0.28091423625051426, -0.31702328579432826, -0.3463591671926922, -0.4840686747136177, -0.020691726369653628, 0.07309235741451059, -0.5398466821388653, -0.0660952566680594, -0.4831205344818015, -0.0025511130719958913, -0.21160708403047057, 0.038954587967100364, 0.23977726681720438, 0.07938151070465031, 0.08545528583583942, -0.2187853714014728, 0.24529965084167268, 0.1320741302984267, 0.08634781265499931, -0.031143194739894874, 0.21372778549852645, 0.1648681741417279, 0.5118495884485069, -0.27497040552615004, 0.12157555676556922, -0.1531877410509461, 0.3378020636933511, -0.49533136655844046, -0.24427373350288706, -0.41171592503989507, 0.1562875665393811, -0.23664318905729118, 0.38804837159466515, -0.0003543913825039933, -0.000762919618256851, 0.22417345855304427, 0.20312980421819596, 0.06342297437483646, 0.49100036064493413, 0.2384869927600162, 0.39747908195451, -0.5063017105557891, -0.26076068240356426, 0.32065497001034854, -0.31963777077437483, -0.4867459204233659, 0.2670944900432325, -0.37145747265387535, 0.2612462429630683, -0.11233914341703574, 0.3504895160907062, 0.1613124044037045, 0.15377541123886906, 0.1213843310012741, -0.37686402674820924, 0.14680171723068502, -0.3168427078451139, -0.3199344822446083, 0.3102844419419653, 0.19229353939445648, -0.03004552689290103, -0.09498057018503216, -0.3388057533483431, 0.5197842713876636, -0.16052878157396644, 0.24101398219983733, -0.21926684617116415, -0.25606721788604137, 0.42795220153495195, -0.14429896655266067, 0.280887225245466, -0.28678968043087816, 0.009969655731906316, 0.19546394508294412, 0.2120333820207566, -0.2279081385077109, 0.09069242876743656, 0.035659434693449454, -0.4059701569244421, 0.3192071820570443, 0.010643113067497477, -0.11337995415555809, -0.3774935679116866, -0.1533737978217139, 0.15092706060805372, -0.4575571882634005, -0.09852599717511333, 0.20220482648905153, -0.32794176851381984, 0.11351854652887719, -0.06570092647872629, -0.24237465953869505, -0.01905544433248527, 0.3763683218483796, 0.5831397096207425, 0.052598389816900196, -0.10484657872499879, -0.34546252422781903, 0.015090528877124181, 0.2583860772113702, -0.291148006534993, 0.22562331732547133, -0.360176017651129, -0.04954067284207889, -0.24913560885062278, 0.3845358917484568, 0.4671888557791406, -0.04903701557944163, 0.3683744943471461, -0.2307908798093273, 0.44865088854699336, -0.16057749442457536, 0.16188598692053524, 0.2759561924808963, 0.39912886220732574, -0.3420789650052444, -0.13076610244387019, 0.20088492670854477, 0.46625267092857514, 0.6262150875002691, -0.04132042047193987, -0.07814617410849453, 0.13422824592457352, 0.4882509881057537, 0.5127856765986629, 0.4318366324337772, -0.32728748818375114, -0.2914431440887944, -0.13910346232232015, -0.173743395462367, 0.045009848188661924, 0.42078919798835174, 0.11228972020174198, 0.29377860765889857, -0.13856931238327377, 0.41170015152259243, 0.18395867791500714, 0.19669337157155023, 0.42299392508119266, -0.009430752142468024, -0.03258716637015269, -0.14541245903186473, 0.07306263532980588, -0.3900298469774336, 0.16184878108171716, -0.2761229188706883, 0.4828477738517375, -0.014343694830285074, 0.05957294118425929, 0.7964485358842401, 0.31843378916399007, 0.838455426463164, 0.1936166187999388, -0.1782567830097392, 0.1068317596467941, -0.12323043674628384, 0.4342088565758254, 0.35628800018623236, 0.40427967069983145, -0.2520524294346294, -0.15918129024539818, -0.02477768029908591, 0.21582373302376331, -0.26843237637355083, -0.2971527749474328, 0.3391290625049554, -0.4766167733808414, 0.0024084195984177548, -0.40568448212958463, 0.09219330936143078, 0.22621389915840667, -0.4404010336023431, 0.040041525817661634, 0.24095822018644836, -0.38450896219125946, 0.6187345611166101, -0.24165055774275926, -0.033566582232926495, 0.43424333429820766, 0.034876382824098835, -0.006981708674865126, 0.7456756594696137, 0.6887633827127965, -0.19777444869611488, -0.057704992192054945, -0.060126578130865374, 0.061015100103756395, -0.02095978075566912, 0.35765905443133184, -0.2015539215168046, -0.27595614702428434, -0.2422393039933181, 0.05022964587617121, -0.21563496607016008, 0.3900531145900925, -0.04549787515530512, 0.030701884022366177, -0.37551377841413924, 0.11458325356084112, 0.24499340902587086, 0.062257109867101576, -0.3232342058293703, -0.22554685591010765, 0.3439092692656285, 0.23758297044234036, 0.5550085601190049, 0.5957594345080984, -0.11354997786221402, 0.41938063301249573, 0.12625917990299057, 0.0616864964586584, 0.10338675062896621, 0.018624690741935075, 0.21518506842921317, 0.4715733834853065, -0.03199867771087607, -0.15851486530080075, 0.4782575634439177, -0.2875056033276552, 0.21920424302895983, -0.01842497770898139, 0.0952698036663492, -0.4151068355238759, -0.055042263824556015, -0.4224791811786026, -0.4528651847223655, -0.34788691737580346, -0.28969267116382746, -0.030403873392017066, 0.42801979625744063, 0.25741983862135026, 0.4975916657043629, -0.2554778630427478, 0.11150659779525511, 0.33090594378537286, 0.2861953460644561, -0.00750294228925825, 0.5028858679363336, 0.4933867735077113, 0.32841396624148383, 0.42426251346288224, -0.22599974145466617, 0.2994947700428334, -0.0025615627359903016, -0.40963532988214313, 0.06833852899570575, 0.5060772592242981, 0.2770532206815074, 0.1233436290628657, 0.42698759866969815, -0.4861802776422915, 0.41078065519293594, 0.149563626808625, -0.31508243429431415, -0.3125667694385628, 0.05895945718311655, -0.45181614059944264, 0.19911651806228564, 0.30900474805520184, -0.316804545452418, 0.1932294291492938, 0.025878697383027692, 0.23530802741975443, -0.07303409655776556, -0.18690815320427498, 0.37362838917665187, -0.40081466899760093, -0.06317130167625593, 0.06112836641389814, -0.32285242141682874, -0.25669505446002244, 0.14377987551813246, 0.2323003062506242, 0.26248663830572444, -0.08593307890923696, 0.14959277416050004, -0.2738858798602015, 0.2573520983679331, 0.039452121260733386, 0.00353139967293592, -0.39809779554975655, 0.3636441311416295, 0.46774362842055084, 0.39636671571758764, 0.15226570112784357, 0.34545315250661107, 0.016434653321848784, -0.2233486019901494, -0.043850590423274015, -0.09357716245799211, 0.20541109045956107, 0.15038314010135095, 0.09573932329011171, -0.22905311868188552, 0.1597269518817249, 0.17793018951560796, 0.4065306034171534, -0.5094201687612505, -0.38277022760686424, 0.24990874406872518, 0.06566683256697019, 0.052298993077498475, 0.13572910805868005, 0.4110276561933752, 0.1328290517911399, -0.4218043872100315, 0.009707591441239338, 0.47651901221835136, 0.1547735399476109, 0.068293825934155, -0.49126021182508683, 0.03450624588700874, -0.21486692391702586, 0.12619822813617035, -0.29563011774209913, 0.3153633569892755, -0.2930417995731164, -0.27775770676593636, -0.20221432032022615, 0.295045314689089, -0.37880858393229494, -0.2573677713280899, -0.18062811377623347, -0.4089587601936805, 0.27345526261697056, 0.10378053752666938, -0.061396672114454334, -0.45434914590986303, -0.40770850372605827, 0.23347770366746332, 0.1061056485348306, -0.14581876806034075, 0.3965331191185677, -0.4963736103617407, 0.33338867771998204, 0.2968119126099843, -0.22910397958138795, 0.07282088248164098, 0.14687084747334223, 0.07640928084922327, -0.3815180073959205, -0.4317536388648013, -0.4589103731455488, -0.4855736825077094, -0.12218404436559603, 0.22298669637130417, -0.05789857257770721, -0.1698050126053101, 0.35403694207736724, 0.23792585469801508, -0.3160535470922033, -0.00043794755001756204, -0.3215260105772932, -0.2567685061660496, -0.09173718354851045, -0.17598464753395787, 0.2903119521532787, -0.0901393020077714, -0.3959083706547872, 0.4618830350212703, -0.1288215436606333, 0.2669984419290129, 0.061183221034263435, 0.31237182078014036, 0.2556018343449835, -0.36252324668169433, 0.11778615558195049, -0.37308952617297875, -0.46399195819604755, -0.20357562253535047, 0.4900976601500277, 0.11338035351704867, -0.20050876670906442, 0.48256595034132543, -0.09713633283037874, 0.3091510582841215, 0.18833768853409114, 0.4650054605507052, -0.110837818529524, 0.35862869495115096, -0.08562188221489152, -0.2548751660485161, -0.21226347708948706, 0.02830814911976573, 0.2231346192965999, -0.10512891452552037, -0.17026053054109908, 0.083530263000291, 0.304422449489681, -0.2898332685258219, 0.2945751042080613, -0.0937649984468194, 0.16601674073272354, -0.07987337011773932, 0.31327985955111126, 0.11668248171027873, -0.25286482929212784, 0.37635128284037356, 0.0234067412293415, -0.4229539810136449, -0.4320565141399369, -0.006408483440479963, 0.24118057044266125, -0.2900536459583079, 0.25895663364042304, -0.14671894174912692, 0.38070507259464204, 0.16776685924296816, -0.031577629162593664, 0.42998249608520495, -0.1995631963258011, 0.3841791923481431, 0.24989134068886876, 0.049500638090146265, 0.16887826183197152, -0.029465443705392724, -0.28798249849269186, -0.29813249545158793, 0.42860557572614333, 0.11240542365679651], [0.3499986386506714, -0.07463658316403976, 0.036608952412183426, 0.020136301158844128, 0.16552249915862738, -0.28929691832693083, -0.4813983490011571, -0.33878613153203163, -0.4127493458266822, 0.35331138669742823, 0.19153505693285955, -0.12586837627835423, -0.37389985912882495, 0.1340559954097157, 0.4175872034851641, 0.42746180860096705, -0.2670259689708514, 0.27666068474614924, 0.11467769895134006, 0.16186795173751534, 0.05257981200663686, 0.2739342474342933, -0.4504224161123078, 0.3659834033564062, -0.4361676853166371, -0.092024798399019, -0.3993422291543708, 0.09430070347371633, 0.4429240337892616, -0.1382407304174228, 0.19951910445695786, -0.16841127759877905, 0.0430328395637124, 0.11327676354484773, -0.29185345709768606, -0.3160728913195552, -0.0020514858275146874, 0.12787394705646116, -0.47193792218438735, -0.03498879936034986, -0.3358389683975901, -0.019613656883508152, 0.40729840862485195, -0.2423013553108519, -0.29822914302432785, -0.21833197563214923, -0.1343410065028452, -0.3359951427791136, 0.42601138309664255, 0.015518412896259992, -0.04790652083788005, 0.35769413358581514, -0.15313776288728298, 0.4786432670898768, 0.2746332248916673, 0.32775179227654416, -0.11494502521682326, 0.43358500645277176, 0.07988483782199673, -0.3529604716742426, 0.46281120440665424, -0.06557733853682123, -0.47641543510186823, -0.12597893536230476, -0.24192392110915836, -0.25386184260108285, 0.4331387426684284, 0.39646967530591465, -0.458847428194666, 0.15372033668569668, -0.3792834028463279, -0.2464058041916913, 0.13296324057385825, 0.08617350013112389, 0.3304367940681617, -0.16902999230550525, 0.3987713536055408, -0.15267035959486466, 0.2555092764506321, 0.4064297654583804, 0.2603228354162618, -0.3345156384733018, -0.25891011704914924, 0.035358847514456504, 0.18237480872076794, 0.27534023415356124, -0.2982382161292184, -0.4781824663401144, 0.28653410703775106, -0.19419521419630462, 0.4459563211199409, 0.06670454922117332, -0.40599474823310044, 0.06315562561318905, -0.1416842268992288, 0.0863029249383538, -0.12920916474729102, 0.1569198926886043, -0.026754967768397538, -0.5216581346698075, -0.2438653070210225, 0.052660839630607574, 0.17131748035474875, -0.4288024831433998, -0.42719282995121244, -0.2509765988554188, -0.3464449469278491, -0.2811561811373134, -0.30929278351971645, -0.4015598751822599, 0.15506463285222472, -0.4691581375351602, 0.18481102806075966, 0.04694482719223547, 0.2984363575936618, -0.22996525573437232, 0.15911027026774452, -0.09773966464915762, 0.0706185891578538, 0.4058052294039263, 0.390937256523702, -0.3525994391697281, 0.3168911526839444, -0.43552204060511285, -0.5509227301157458, -0.08765418028354412, -0.04267876484860552, -0.1718572075417747, 0.3337336468430204, 0.0041449626902524085, 0.20525354980857033, -0.044293916715978814, -0.35097384116962943, -0.05781156179100108, 0.3283158075920119, 0.1951099182325597, -0.30005916174761826, -0.29783819937291933, -0.41311549172887363, -0.08063677255978063, 0.12686294536189657, -0.26355668194252224, 0.14342142422852178, 0.2902351639919102, -0.35884186703797377, 0.3678311877092419, -0.19844816722439373, -0.07435017882449885, 0.3831372886790793, -0.19763508632692667, 0.035561360516141255, 0.18500779978624338, -0.162356709819488, -0.45207291404790867, 0.2009835754754745, -0.2619525623099571, 0.4665994835984562, -0.32684517369519284, -0.049922845516180384, 0.2593429618569988, 0.34356834088304533, -0.1865183995751555, 0.07922161232059877, 0.3992966881824185, 0.13783673860747497, -0.3576023540301087, -0.15482050609909564, 0.3168016307441708, 0.13037541963254873, 0.3521001644589852, -0.05704688875070474, -0.21943542498302704, -0.3060232589849596, -0.4537696181248014, -0.07144962987971559, 0.41347927622557196, -0.40529274283322336, -0.4773726679989789, -0.5104000659618867, 0.36312714280662306, 0.001072710961612727, 0.008263570646971578, 0.10023102718339146, -0.20078690620816286, -0.04673898226064125, 0.0742571896245759, -0.09750863891029533, 0.3779497136531236, -0.4369266928609364, -0.047535514338681244, -0.2397732057249726, -0.18246423513979604, -0.3326866579233274, 0.044606085669334286, -0.32585347667754433, 0.3531576973922418, -0.42624572179289366, -0.2693909994781081, 0.4478800638770482, 0.25886430494069396, -0.10379363788573508, -0.3423649202447974, -0.41914854378209426, 0.12270587536079454, 0.15317579037095372, -0.3263757839819331, -0.17500165901997794, -0.055718075617181714, -0.2880255003121307, 0.2918262388941373, -0.2706836708977045, 0.41280142866336944, 0.01806744297624395, 0.06339804805715026, -0.14649325379520206, 0.05636867179882486, 0.3274987249871578, 0.43414604998638695, -0.3432159628397069, 0.03256568572951286, 0.41198203347063406, -0.33484245260458806, 0.17636387882657914, 0.2813959839033232, 0.35839110355144244, 0.0630252546721838, 0.41260238116612713, 0.0035688867483401354, -0.22969765128531683, -0.3197121656637931, -0.45427992716698296, -0.3003911268786397, 0.4003802952182995, -0.04831517681168851, 0.09007503631485224, 0.20923129962050932, 0.25637527014941386, 0.24277536528762136, 0.18697862383835928, -0.054086486989385896, -0.2848867923799677, 0.305806694627766, -0.11260728041106541, -0.15176406171021847, 0.5190555325644483, -0.039925269955550735, -0.19190809084339713, 0.2830317277110815, 0.030749824512459296, 0.33926153923810093, 0.4498801324891691, 0.19624565893838053, 0.4256231067204096, 0.44870523382856436, -0.362438500024416, 0.374837276422813, 0.3752878121030058, -0.012577543937615454, 0.2172593118731138, 0.39502667530166063, 0.49337438064816713, -0.33562464026783895, -0.17452602842643508, 0.3622455413625777, 0.3573126350283803, -0.3309873159995787, 0.23262531292687913, 0.13981442000172417, -0.32873291404349353, 0.22127532148757528, 0.3589609739927394, 0.40678270971228303, -0.2540927830774861, 0.16369692917589188, 0.07274616805845571, -0.18819287022565523, -0.4859738521847909, -0.251769043949028, 0.023755349361912516, 0.17578941298818584, 0.0693266540794043, 0.2008032163251481, -0.2166858010316255, 0.15248092617136083, -0.47638507182381135, -0.42382875902532696, 0.2614342454449438, -0.13036955780644227, 0.11794405078287937, 0.09985060688088679, -0.1808296855885091, -0.08654505017160893, -0.4295989273434674, 0.2754823672579371, 0.34399138059128453, 0.5556053730247945, -0.3788784751684949, 0.1576686088111961, 0.14421204869459575, 0.24388969006624386, -0.263445772128254, 0.44456220965900384, 0.2594890165410703, 0.11937834208600004, -0.1990295439373439, -0.17576258781283208, 0.13325869246064923, 0.4131695980049106, 0.06940507104341553, -0.3174278925790382, 0.4930090293772328, -0.28568696804877713, 0.40717981017174065, -0.39153517551519224, -0.3352154616375974, -0.17131820020189165, 0.5348599147796606, -0.3246090532366071, -0.1563061820213883, 0.23115947510480114, -0.09653736067152745, -0.17707808052123405, -0.16148918378115565, -0.07341643841505345, -0.02391391249056811, -0.028378685905103573, 0.29580065269382166, -0.3006735566580625, 0.12487112889810212, 0.38326179472086225, -0.2798695647189622, -0.07730273923889093, 0.33884884987645675, 0.28574435171267937, 0.027024254251725218, 0.12437988007684658, 0.1587229920043688, 0.42531190041280903, 0.27241820882254186, 0.14260330437114432, -0.39599184230303386, -0.20812615500765363, 0.39087475926366416, -0.016701186637503945, -0.34113241168594466, 0.20177928622557337, -0.01846132482411876, 0.04347898069872193, -0.17385528168206954, -0.29409487117350935, 0.18730461974731516, 0.3720171015383427, 0.30121408686242224, 0.015036409944712784, 0.48419443906883436, -0.1552022390053318, 0.11052953359032504, 0.25023831912162964, -0.02882240924787733, 0.049450000202056026, -0.4429112054138844, -0.02667921851569459, 0.3862856256452622, -0.335477333669181, 0.023002643772400022, -0.2886436837838639, 0.21443943518517944, 0.37523070365791644, -0.023565691219561553, -0.352688897217869, -0.3199180809051196, 0.207891982952388, 0.33020062401245626, 0.3202145181974978, -0.6800033657908542, 0.2554317217857388, 0.32917264123370915, 0.5896219182485708, 0.31163030100730155, 0.4192989047735781, 0.3478116524190238, 0.1470764966022969, 0.39216083253273276, 0.45448228456127504, 0.32361238657631036, -0.15809164298142828, -0.16999412806332975, 0.18806375951752188, -0.08916657250210318, -0.10777475807638516, -0.37205869579788003, 0.24574186756607586, 0.12626277890261972, 0.479315782176557, -0.03689669672348016, -0.0766200749736505, 0.38344027196296254, 0.36458250244010554, -0.4371427215915973, 0.15203225491901914, -0.38645906225958826, 0.06828859089505927, 0.23231293696398034, -0.09560298342066816, 0.24788292114436908, -0.05415247279306173, 0.4895962558726265, 0.08583636081083187, -0.3378182072425316, -0.3305265044429124, -0.09713424364649335, 0.1377677671097502, -0.22329349047458025, 0.3683658451452094, 0.14536722002449065, 0.2827129937385281, 0.17336850055701136, -0.453645909806586, -0.09475864228421514, 0.41806002896855055, -0.013751431329911079, 0.25859487242530266, 0.4358852134030524, -0.08260366156208736, -0.3771752871854614, 0.4505195664320997, -0.01357441505777036, -0.28530022458871285, -0.48797325343862746, -0.5169902774331488, -0.437845515780081, 0.1571305012000903, -0.07609158879210418, 0.8256498807198034, 0.11367769735689566, 0.5871912681789971, 0.07952698006391684, -0.29490842611103857, 0.20248342111298445, -0.17589445383556065, -0.09565467592437073, 0.11407342544420791, 0.05049352483635896, -0.32219400942397075, -0.3876260954382385, 0.4738447608763108, 0.39230390522752484, -0.27811182664573775, 0.3750131979726977, -0.4983837394374536, 0.39671439142995985, -0.33457256857560314, 0.32409879496892935, 0.24932779187132179, -0.5159825070745833, -0.1963668778667696, -0.4634905727597477, -0.04167318091949974, -0.10891959893154682, -0.17144700130571144, 0.1247938845648377, 0.4288386991172273, -0.074052442406223, 0.40056522593341054, -0.03800291411467127, -0.46210745137536074, -0.1566627472652228, 0.15436119250708924, 0.006549363167205854, -0.39886995223204036, -0.22210051326048758, -0.30371906673616783, 0.40055537022878496, -0.16329941764848102, 0.26097574422393954, -0.4995445217078448, 0.07686211308556401, -0.447851285774742, -0.27706929420031096, -0.0846082950687405, -0.22570353745677463, 0.04614423742105883, -0.31848925870682376, 0.14960382126860763, 0.12455985112258491, 0.036886616297479115, 0.5607979095491923, 0.31360017353550246, 0.5175627775946254, 0.23291793055701535, 0.0732378435059159, 0.3410776368726735, -0.2854244799306734, 0.07102438519755101, -0.2973644751563721, -0.31181886273176657, 0.10006374076723012, -0.3747587309341301, 0.015752500793244414, 0.4472720349548431, -0.12964738446284668, 0.029987701827789422, 0.0616871619196352, 0.19812563160438867, 0.42011829595641104, -0.36495044165241675, -0.14585289560165737, 0.38294047160471173, 0.3298273618105919, 0.04408928968528965, -0.5101370771310668, -0.2027435956506674, 0.4338228350948015, -0.3359090623558401, -0.437545125778349, 0.3670385420171131, 0.5934725820590008, 0.07466426400632037, -0.26806835822753, -0.37195553717298113, -0.48212595186019047, -0.38792682032554904, -0.17727374588615044, 0.25769447891596015, 0.06849598399572533, -0.3481661636569313, 0.4294669058372899, -0.42315323040202435, -0.29142617865815856, 0.33627485549136804, 0.13689341567827246, 0.2934566504777497, 0.31305848941739034, 0.016811922230516974, -0.41948777116499714, -0.18466490528639493, -0.11022625144832081, -0.2562179087021594, -0.6230396147811398, 0.2576145667768958, -0.3176337846805333, -0.041255453590197014, 0.17977041117393006, -0.32608659394348416, -0.2025558750672932, 0.525666601095561, 0.4126881250366366, -0.12646276364482453, 0.13894102882384446, -0.031900260587879835, -0.23959030435063333, -0.4175196840744369, -0.31142306885014537, -0.4887039207441685, -0.2744178523890923, 0.3287912187998222, 0.09557685002618896, 0.05744566598936805, 0.2097279653632776, -0.11078675112432634, -0.26361967717343393, -0.29643028272227756, 0.28086428358977616, -0.27335778705489727, 0.2500667123137741, 0.3590969172051643, -0.29293416713498543, 0.23483227739131662, 0.1346681413809768, 0.29463560463644306, -0.07623515151301613, 0.3318475434062252, -0.40781071375290495, -0.3918543298900358, 0.08002893279643744, -0.04036279965634953, -0.6784082383968119, -0.5097504510805775, -0.4489960877064632, 0.3156629913417728, -0.1755151046550779, 0.3348513312891046, -0.0043399685343466195, 0.08663226809737437, 0.16039500341294138, -0.4491519093339132, 0.19432228615568553, -0.01792796599878954, 0.34940047645217476, 0.059118487173036915, 0.2032911702180822, 0.08334221394445762, -0.28574786957566645, -0.34862782953982124, 0.2297031914958899, -0.3203565612580639, 0.29750882778514753, -0.26746487867735647, -0.49482023653745544, 0.078061507609992, -0.26614174391062817, 0.07805728409772321, 0.3868064228177138, -0.43620600460514325, 0.2307331500533882, -0.5231848491463154, 0.24125647139133158, -0.16898903157536532, -0.08906509139432013, -0.09078986812967445, 0.4262894424731457, -0.1805164213519416, 0.4549038826431981, 0.14121524857801068, 0.309296323757764, 0.2644402012027993, 0.3408049769633553, 0.4951124087215738, -0.23640008729017142, -0.23290347181929244, -0.09686571962006449, 0.1377127643583231, -0.4978158972903142, 0.3798740881991594, 0.14318598826245027, -0.08926854518141279, 0.12558317438695618, 0.4144001749321272, 0.36606696686159057, 0.20066954070746063, -0.3916901776130417, 0.3745992159037911, 0.1372896826990661, -0.45258561568199257, 0.3681052864387699, 0.01424882610078257, -0.2987245003239081, -0.47944301588031013, 0.20732438628175656, -0.38914607908136256, -0.07111092559218375, 0.08407267441360324, 0.47792482630822164, -0.20538546066525765, -0.21213150396690506, -0.02343408159481064, 0.3010146663283072, 0.22740130278542658, 0.132932319302255, 0.03544302366101113, 0.04088377668627343, 0.2722942851905197, -0.3170421918243304, -0.04508149683862844, 0.18885296351995717, 0.482654567557018, -0.05167378437574934, 0.4818757330815766, 0.6025728850263422, 0.32192880030425153, -0.2386320334707332, 0.4980269773607616, -0.18587060363823002, 0.21036762137998674, -0.013320295445282038, 0.17809943539148362, 0.18773989930846718, -0.22900254445569568, 0.07075775815473326, 0.26352568034273816, -0.00023568558344999602, -0.49128260756782516, 0.3028432670573995, 0.1248730853621075, 0.27627916850733447, -0.3048472689880189, 0.40048405290448486, -0.4296233099418616, 0.06355389242585097, -0.26591638422639374, 0.21970494271348864, -0.09316671007687533, 0.036086915668857585, -0.33065921636896545, 0.20548307003109792, 0.48372271957533736, 0.2200637457993374, -0.17453969580016995, 0.5585443262836132, -0.11673728291973882, 0.3947713934307834, -0.39033855439259696, 0.40774848130955227, 0.04707846448091517, 0.10359260079083063, 0.20478713271443652, -0.33957546056679, -0.1027932538311082, 0.051009794117016644, 0.31446352607013206, 0.11895091203158548, -0.46834386387212357, 0.24301741518952535, 0.45365803433646645, 0.059333806575350014, 0.3815675950858045, -0.37214779682006777, 0.4343153719671123, 0.2955259609669623, -0.22118179856247064, 0.20544244275694418, -0.2840746327006982, 0.506640443421319, -0.21514228642300934, -0.14580096892577488, 0.14645367835543588, -0.03590770995375806, 0.4843865583111478, -0.3708889511517004, 0.05220682749525463, -0.2759840768238127, -0.14355879920039144, 0.06500576760484003, 0.3713478601192726, -0.20267647069290004, 0.22667043794353625, 0.35252463419175006, -0.27983373188533534, 0.08737184721473379, -0.03780442276333407, 0.15110571618788848, 0.4841898676161077, -0.07078462242035866, -0.4558475428027949, -0.06075931565568477, 0.04095703796669635, -0.18746992917336996, -0.3561069279805323, 0.43872500327403996, 0.10183193312024498, -0.10765364193796914, 0.05298660574294238, 0.08258639980284718, -0.12334970784380662, -0.3022636535223915, -0.1453382284554203, 0.47704976954706535, 0.4213226751657142, 0.08998896233368021, -0.4264945775720015, -0.40151744526557526, 0.4619811080704962, -0.2712191265573167, 0.37062650213499815, 0.04788956313453707, -0.4531580988497167, 0.27326547719941696, -0.09231664998474298, -0.28618361034846795, 0.4748533514489427, 0.11623551116516562, -0.3093154945430685, 0.12009844763895017, 0.12782787266032136, -0.4073262761604571, -0.40882352195138966, -0.36460093671401506, 0.07602068053457801, 0.3470941232376398, -0.29922402136559995, 0.07450968919442046, 0.4359894915946426, -0.3364287742030348, 0.18946801737196464, 0.18241105036304783, -0.12161883143910748, -0.3952053717492977, -0.2323145409594265, -0.4046478509694197, 0.36935672165814426, -0.2529199658669543, 0.03549855953749392, 0.06625780130042047, -0.49797411113095225], [0.3383846345911643, 0.4642601148185014, -0.033363375660671823, 0.3166091359036487, -0.36317847694066085, 0.006792763184905848, 0.40941983859859943, -0.38743385538722275, -0.4467781216123047, 0.28966790950213606, 0.44489254074674145, 0.4232439996863995, 0.0712248464536015, -0.1140009598118632, 0.3115349083251666, 0.3672113282616547, 0.42854076970649, 0.27599143585973795, 0.11510284610993904, -0.44164336123308423, -0.4316219583028641, -0.19131036372267274, 0.04191898725955634, 0.31805936986201977, -0.06769164881836032, -0.0848992822823097, 0.1691237620700381, 0.01937847187656938, -0.2895689905460025, 0.19205165797394452, 0.17158411484338998, 0.43128479198324654, -0.41657759636243297, -0.031410604406634235, 0.24695694240688204, 0.41432185290453594, -0.16199797525938864, -0.10104613047032318, -0.478813140978268, 0.02392123844461691, 0.05027542710588884, 0.39805046246490616, -0.336724175560165, -0.15363554360417175, 0.21744523318160836, -0.4885634958772097, 0.39184814744818985, 0.23882362526222856, 0.028242867994635157, -0.4029260619084438, -0.18194127626772583, -0.116640616604891, -0.14124061902205798, 0.38952111007300727, 0.3141379240177917, 0.013388178970290987, 0.3887282725667389, -0.27660178798510626, 0.1631547113423526, -0.13040266750808382, -0.3241256290441362, -0.3635169629830681, -0.16012651007916145, 0.02663782619608146, -0.09641492801361007, -0.2590922872107593, -0.32718422681843207, -0.032213045287104, 0.027632629070807983, 0.3038802139523177, 0.40495289938918266, -0.2360796161286686, 0.24165239635982788, -0.176502906684397, 0.29153568151884607, 0.026213262594539512, 0.19102777267836915, -0.28436176916016176, 0.190790240003764, -0.4363904635643674, 0.36498063370988076, 0.0026571777189607904, 0.03931364145162264, -0.3549883743640714, -0.41628456034954897, 0.4492442985362789, -0.21137579939082396, -0.017192649560431095, -0.1626902228855116, -0.25742368772838753, 0.2467442043106911, 0.4977863768578905, -0.1446732741386989, 0.1530127827256601, -0.3434935351706172, -0.2851426049234233, -0.453070977113748, -0.0035854849248770746, -0.35284061781076886, 0.2866462184403634, 0.44149034526511916, -0.40440365816194407, 0.1412778273387366, -0.43674110481644424, 0.1045830706657343, -0.2957365018926099, 0.033778770076511866, 0.36287373920101107, -0.44857238425047674, -0.11975052370165695, 0.10426808948718447, 0.34367951902199334, -0.12670993925772311, -0.09767071455094567, 0.00010386718023769337, -0.39400696336624763, -0.39847034260963654, -0.21664273103341114, -0.42104419383305525, 0.0014512756438258556, -0.24281413969974508, 0.1958653262983392, 0.4966973414675723, -0.4449474447701, 0.2942476295762213, -0.010288114231162365, -0.16244659271980313, -0.420944196796998, 0.3546537363087668, 0.2708299796938176, 0.4124467047721216, 0.24451168153033853, 0.4160742461815696, 0.005109513021344628, 0.34316715339576576, 0.3513888274041611, -0.28066428385133113, -0.3156669999264754, -0.20337738140535422, -0.30857658011973665, -0.47978849284507885, 0.4688225838814273, -0.23061981125423414, 0.4921479059302233, -0.052126863081020325, -0.19368523279955818, -0.40068488836319827, -0.4060535156420836, 0.03821749510577837, -0.02472219801763643, -0.4896106418720947, 0.0018285164765957267, 0.4510669132065633, -0.25142069429562025, -0.38277615920921854, -0.316200871148242, -0.303992647483559, -0.05814966812035269, 0.4601194827404291, 0.029889866564790507, -0.11712314671202374, -0.3153875466056488, -0.49366905268425243, 0.18118604488150647, -0.25025903794360127, 0.2571620809438625, 0.174274378292525, -0.0991789923303954, -0.4810456515669491, 0.30093020363721235, -0.41994054790975577, 0.09369787787784345, 0.34169887046715564, -0.01057941820163561, -0.00047971963752413416, 0.4434579524263973, -0.4029341557268214, 0.3593193339888268, -0.14260098943549843, -0.15091808993265132, 0.10977554593643261, 0.09087947818961728, -0.07392514968742367, -0.04324931856023272, -0.32011104894151116, -0.1387046389162271, 0.3125767751545121, -0.36738086039832274, 0.39896543365457643, 0.41576288234886755, 0.34906891954278785, -0.37301008612615305, 0.41460870694971663, -0.270064666740538, -0.298881125526808, -0.2596765343374676, -0.05008913608974597, -0.3169646094568296, 0.197141617892878, 0.4039807946038545, 0.46718318262293373, -0.4686559016550418, -0.02247113700147186, -0.23021142328957683, -0.11766377660217775, 0.49661802446913744, -0.2863890980362587, -0.3778719655589904, -0.23719360061140965, -0.22424560055909715, -0.28496585236404526, -0.42468709066613686, -0.48922758652115855, 0.42549952259615087, 0.2295833859922256, -0.24480616538396374, -0.307693543295144, -0.4617269936116791, 0.04692077402141351, 0.21088965563411027, -0.34258887452225883, 0.36439975156418025, -0.23052862560366127, 0.03338208858629543, -0.4794867886027583, 0.2828710850873354, -0.1341391377174732, 0.40258229269173, 0.24583945469090568, -0.05271589924689356, -0.3135993572834896, -0.2855518831832414, 0.12868007316875762, 0.27541451166119896, 0.05999662661057825, 0.2869846262776689, -0.2617567813570992, 0.08621118821933876, 0.20453157167917493, -0.39265289050402963, -0.07181893675767595, -0.3276672486984714, -0.42611351212206633, -0.4504475059204939, 0.22446567623543123, -0.14806099366006187, -0.2969055538574154, -0.12789339557661986, 0.14460631962723716, 0.23918514147475445, -0.4167148689494308, 0.038744819384217255, 0.07425015724147288, -0.04868595953957506, 0.4307813783259022, 0.39762387802300775, 0.46620162596212533, 0.4121607559864769, 0.12264984816113753, 0.33961151917047244, 0.3475260354446308, 0.2728610625008551, -0.46444292280158306, -0.33867017890230344, -0.07308386563955006, 0.3593769125664043, -0.42161294847500974, -0.2636530298464526, 0.4609283525318449, -0.3615847103468326, -0.3644699172480919, -0.2522480994267905, 0.3739295383638834, -0.15299998364332773, -0.09030779272361117, -0.46587939973629, 0.16281824079226204, -0.07471542297408351, -0.16425395784546015, -0.4631749075285214, 0.2484388139533844, 0.16875076363322458, 0.30420206993118537, -0.06635470833904332, 0.15920895117538725, 0.4402147928203869, 0.15451464827703887, 0.3304937342748751, 0.2562667203157393, 0.13544294160475276, -0.23753562112557647, 0.13765099591353838, 0.33492949079599993, 0.42184366896471737, -0.11797104341574381, -0.2158602316835393, -0.31534704692446563, 0.33297893773793463, -0.2251459681034714, 0.04588902106795075, -0.32662375368262114, 0.12590129559548152, 0.08140819408812904, -0.08295548031753186, -0.0687830373572903, -0.08494590488373166, -0.400184526478239, 0.2264975520407727, 0.3008001817296705, 0.1171438716420404, 0.06666035116325567, 0.4508681361423677, 0.17597325376568507, 0.2158444322257336, -0.4296589955927168, 0.07982401226066799, 0.10024135059040121, -0.3781189244486109, -0.025088915641654712, 0.1660917814725883, 0.1498563939235263, 0.3787194083913457, -0.19548596338868884, -0.3128036261931213, -0.46974390466955657, 0.20672608206025278, 0.3214256549728675, -0.47985246317768343, 0.10276169501519895, -0.4290427089867951, -0.03007887654510151, 0.3824492222000466, 0.4393338649126217, 0.09420225741872545, 0.20769270786156158, -0.040657447723748796, -0.25832465639331514, -0.2644210301625648, 0.26984632245338996, 0.2464243630873278, 0.4946171366093363, 0.2816468309751072, -0.354209826609682, 0.2536247387936848, 0.09810601112693858, -0.4733460052398051, 0.03451785577504592, 0.167767721563311, -0.275939908971808, 0.054056201737636436, -0.4900549085928885, -0.4397775584234523, -0.3379431783615817, -0.06403714294739873, 0.3987834265840097, 0.4177934618876488, 0.3325103886314669, -0.35584071782218724, -0.05962828791880802, -0.32492740934075137, 0.25010444701825674, -0.13283835714592263, 0.14284218783514446, -0.30007917404128515, -0.45490633796684776, -0.03942714274043512, -0.011877438690304014, 0.21576486751675591, 0.08007532528483852, -0.2516726475670123, 0.031805816233994665, -0.1857313868992609, -0.45978612461378177, 0.21574884239862338, -0.21545085653002186, 0.23984155935092952, 0.4762427803348049, -0.06561285522894166, -0.4542023179792826, -0.013915302447770759, 0.15917140209930336, -0.016410426602908906, -0.3673177859950868, -0.37091720255744615, 0.2895716886879265, 0.10050627733046165, 0.11509452105231559, 0.3617481013032242, -0.07823979528103364, -0.08209269486737658, 0.4651880159632188, 0.26625525004013384, 0.19947201905559753, -0.1394080133711627, -0.3106892254095014, 0.3308676328240538, -0.320972995744893, 0.15631294410495067, -0.2536218375414766, -0.12385889087812171, -0.03723028436190225, -0.26551715488770666, 0.08807730613975306, -0.1282262173919242, -0.2789971985305121, -0.02651467168490961, 0.444940059263439, 0.45420495729787286, -0.4301203852845017, -0.37259672421800283, 0.156362676965986, -0.14473278527641964, 0.17611470426389503, 0.277838693130808, 0.08867912661139699, -0.04667034151575486, -0.23198209602455755, -0.1061586876555266, 0.01645349924834394, 0.12834969801282048, 0.38432921202876336, -0.23793189398183912, 0.4042482280825771, 0.375106927322312, -0.0717495926372291, 0.2569150663807133, -0.06416633995325863, -0.3824022209408479, 0.05429351734830693, -0.44849973415538164, 0.09758267065453213, -0.3509526831832025, 0.43154047769129894, 0.4894447900670149, 0.38036866945634257, -0.14062874560215113, -0.44092235212131775, -0.435920395596818, -0.005690787623727131, -0.17855577597100367, 0.23100704754838663, 0.19237822886519043, -0.18277064718783162, -0.06558710710660579, 0.0981767362165326, 0.07300897856522037, 0.1453809632233778, -0.0480198420747977, 0.24447047029481794, 0.3293118121115024, 0.055704279975255844, -0.18991152613734186, 0.17417334388022823, -0.4685259633737163, 0.33489785951238527, -0.3284232609507153, -0.4226998732927452, 0.2733137027295113, 0.4532773693295879, 0.33842825796851095, -0.20588559800024744, -0.4896060664941008, -0.05467406534533839, 0.2848130225547213, -0.39460335479252295, 0.3418884199534225, 0.43114987416053285, -0.05252353546879227, 0.015386625445838435, 0.45641001054858843, -0.49348277287583625, 0.4898895718497146, -0.12052126940742766, 0.26577683208104097, -0.10955019096123209, 0.34246229325918376, 0.25595994344587536, 0.4959877964539132, 0.38818518572803484, -0.4398657724289329, 0.48711712417250674, -0.1860823332458099, 0.4933731458999369, -0.12383155536885347, 0.1665604441392469, -0.3719404106121541, 0.4203578906558661, -0.1786772507421563, -0.4792251846825822, -0.3077498387716224, -0.12468091985656599, -0.322055362239537, -0.45252032704618905, -0.22447435072682556, -0.1379281567185133, 0.21120126868080774, -0.48154045174419385, -0.38984245150483277, -0.03820740342523447, -0.07056175321247254, 0.4005989557019481, 0.29687318907188154, -0.24951128062533912, -0.08463517915677132, -0.35703233080527097, 0.0026320980629171986, -0.22171855393351803, -0.34559302259810243, -0.47584052881131034, -0.012078005027800223, -0.2816602258602888, 0.4110637902584481, -0.28269693269102003, -0.1932365028975236, -0.4009307736080866, 0.038118080836851115, 0.46419273546817835, 0.3069657730241203, 0.2549923894171186, -0.2633136999031994, 0.4186981461923596, -0.16207449799246626, -0.28421703243046453, -0.20238098237341026, -0.3750540917275637, 0.32798960428804347, -0.44722632009090163, 0.33858939785046094, 0.3675045055683489, -0.4224024340530196, 0.09402432813078654, -0.3023348317963783, -0.4480874501121872, -0.1528159539082754, 0.1681112362720042, -0.36618483166481386, 0.4255304016249406, 0.07863608550569827, -0.05073828058232691, 0.3968980217626797, 0.02659308544222316, 0.11094337186259272, -0.38176389449934045, 0.23110594076783408, 0.01581094709601367, 0.4838065497900344, 0.31260044797550635, -0.35575150572114494, 0.17546822404389312, 0.38597839323139316, 0.40210671631647893, 0.35092841554374593, -0.16275669359281708, -0.21522017321371012, 0.014773520808532226, 0.4063707070661412, 0.08144469617093031, -0.1276942410878108, 0.38665439686020575, 0.08363137857982039, 0.47019577118910383, 0.30543789955313383, -0.11879720139424332, -0.007841245822241882, 0.21325332497049065, 0.02333786482621232, 0.14713133398487363, -0.07200176751191414, -0.3906909098528893, 0.39009025879143416, -0.3803857392657775, -0.13662295302113261, -0.4513012947215002, -0.48290360053294096, 0.4151182378471063, -0.2514680973981421, -0.04876803875240206, -0.35965012805457186, 0.357938746951326, -0.016765595961572, -0.010754869879935583, 0.011849840394936787, 0.19786852613186212, -0.31758798610005434, -0.3223953252009326, -0.455181261014002, -0.0164746936090584, 0.19583562991550552, 0.11264614694245523, 0.39935133071649853, 0.34827548918755136, -0.022021814802199113, 0.3155252520973564, -0.10251378779691538, -0.4168260034681747, 0.2572861993346688, -0.26636265948595234, -0.22723702586612124, 0.14061904463518352, -0.33193595174615914, 0.10823962343140718, -0.3365012548092645, 0.46910962540027173, -0.2143044362244182, -0.3718227806454662, -0.2262381735236573, -0.4304511139067843, 0.39098807708972844, 0.15388283281822904, -0.32211241462416157, -0.47632905985004526, 0.4231598932292171, -0.45907086288500476, 0.22764108324761112, -0.44111382819920186, 0.33502079072451163, -0.3209040853116475, 0.06283495501177006, -0.47058900666452197, 0.4069860130189148, 0.4612001068957905, -0.3732060884556914, 0.3502716710816652, -0.1592800699862498, 0.0325083081483382, 0.12218374362007772, 0.4304939705135059, 0.26419832006717986, -0.15864662189838802, -0.24725442085674823, -0.15504528125123976, -0.3697197918749991, 0.3553310385377508, -0.3238119487644578, 0.16217494142993086, -0.3647884833615584, -0.04286447419855016, -0.461673780401139, -0.4006688251060273, 0.20482570300388026, -0.13320187601603628, -0.11296962818729828, -0.4468938540603955, -0.13177353092933852, 0.13964741826422877, 0.2447021320633016, 0.06017466223996126, -0.1739511135699945, -0.009789093157342443, 0.3537081643856762, 0.28755580222431165, -0.3827071496416863, 0.0662713071436708, -0.26131047127029033, -0.01279724888067112, -0.17041539966592517, 0.21468036114658232, -0.23067128964885755, -0.2723858197443898, 0.003972995365413356, -0.264620175516662, 0.10837794008469875, 0.3078165335264178, 0.18189988688164133, 0.4842983734206376, -0.4177014820035068, -0.1489294200717326, 0.2612009315105055, -0.11007710525888048, -0.238877110446312, -0.23514004731027738, 0.49319063999704504, -0.3737237821331386, 0.3798437627559953, -0.2627210752481469, -0.03651031597408405, 0.4927470114888941, 0.18987850459967015, -0.2035637065164433, 0.136092886805119, -0.17028156656237114, -0.21356147214699328, 0.24970795076830288, -0.0758637402216842, -0.33959115416674945, -0.0018586846873977349, 0.06049635009800447, 0.3642471086726432, -0.007378864674212818, 0.3747989952271803, 0.1802164222491607, -0.3505780131673625, 0.10106026823022043, -0.33431749158313817, -0.33515872603507846, -0.16094713317631326, 0.20148127624601941, -0.18307728715763083, -0.4642743334568463, -0.4505716775429677, -0.15459645518149, -0.32879055717194017, -0.1529295927820793, -0.40548754320688407, 0.18444453905849734, -0.2687090846212281, 0.37384145031842264, 0.24352920616724483, 0.0257170426919765, -0.40072605777498527, 0.45922923104340263, 0.4557397167719156, 0.020427755165490835, 0.11086272311181493, 0.3272946769072684, -0.023520482903870314, -0.22864386331706876, 0.32924061206352845, 0.3215524534109049, -0.3967758024319744, 0.0154410098427141, 0.07927637096893148, 0.18546763431947766, 0.19549222610473393, -0.10062331110781564, 0.19038365177092575, 0.14480215239067484, 0.07667123461292902, -0.2736936257674475, 0.35835824044431663, 0.006057603741993378, 0.17308403454150134, 0.0567318829461364, -0.22754319917846932, 0.46403140508787055, 0.43937907534968224, -0.08773513478747175, -0.24296675879644145, 0.40328636721592037, -0.15751883988426404, -0.07372213583989673, -0.15263578611219927, -0.3495361297151091, 0.4232169537260002, 0.018038965134815194, -0.034131405737013364, -0.35852148072688556, -0.05317393410274874, -0.09363665201272142, 0.41172349472864533, -0.39167845360277886, -0.17245308589167496, 0.0438517708911228, -0.054823008962168185, -0.09319070634806292, 0.10109941371018927, -0.2247662743075136, -0.16451677606710902, 0.4348054281377193, -0.07002794793439415, 0.018766872365190146, 0.20684877553646963, 0.4558581215985342, -0.1325787409472664, -0.13289881675525406, 0.41433684731848797, -0.17440778910057106, -0.03345622686906258, -0.26984022401644425, -0.1938859117293016, 0.4420941120245306, 0.3840979414647402, -0.3985612821245447, 0.033126126813603364, 0.1499703412622787, -0.17395709644039042, 0.26920520042381657, -0.024072076720824453, -0.4856054460021033, -0.20458489374835354, -0.3353515775475796, 0.2719006633166241, -0.0982614636250625, -0.477888371268647], [-0.19746951387075873, 0.3933591023528522, 0.35715930160511944, -0.41275959506852067, -0.13771759414127327, -0.26562856413427305, 0.4011831943660039, 0.4655807054844986, 0.153892433771031, -0.096822641369403, 0.3832757864234815, 0.26883117567007475, 0.4610022220403238, 0.2887464994299085, 0.05611002014026989, 0.3603719441946436, 0.04658335944038461, -0.13286749853483415, 0.03967458172573346, -0.4923377144832658, -0.18776273213056194, -0.1444490333802959, -0.267912521229807, 0.12481366639686275, -0.09785637642741196, -0.4565756778480399, 0.3168317466314793, -0.24336360448506444, -0.4052671135875736, -0.35713717107216725, -0.004615687936565416, -0.1123203711706875, 0.08605804394536398, -0.4321126459836093, 0.07126411606491667, -0.35031917710796556, 0.4220120318685183, 0.4532045327417339, 0.43589994437497737, 0.2444565168590098, 0.3744822980445356, -0.16085892031072774, 0.45910606542369514, 0.016173911280066462, -0.3760490941226942, -0.49160119708909755, -0.17389127725290776, -0.3467161111826006, -0.43708612814064207, 0.49369394491327223, 0.08473884768487983, 0.10932349183397716, 0.4016743467586641, -0.4422624467808348, 0.2450778046233063, -0.10812049597701745, 0.01111678089256607, 0.129139270103787, -0.20109673221791968, -0.37175168874983777, 0.433348757035109, 0.17870173905624245, 0.35034471886976853, 0.22066138050619158, 0.3123873965448542, 0.4225205880563075, 0.18782103249534673, -0.24243826056807283, 0.33335257026344645, -0.17830810166989666, 0.30273794037828416, -0.21351858288290373, -0.3563940044846435, 0.4919438230300752, -0.19526641932480254, 0.4093827358087237, 0.040224575668505125, -0.10642735346118964, 0.34549615440816284, 0.028553010450715677, 0.03192264105732401, 0.1975714037619143, -0.3887902364501321, 0.40720623585886084, 0.17875033239346927, -0.21932037284390782, 0.1274052506792428, 0.46490921909107563, 0.18904666259472802, 0.3484554660633406, -0.16001464635758655, -0.02522542115402547, 0.4929392602233248, 0.09972126482993883, -0.026249493339917423, -0.19168940086665592, 0.26686543071535246, -0.22722236803490162, -0.3729146354571911, -0.13660373826378477, -0.1601245542267821, 0.08877596186968008, 0.34022084256473484, -0.03131996741317144, 0.24948028146503093, -0.03011712471542028, -0.4554224036362873, 0.4238343018095588, -0.15112653964308798, -0.25925895531886245, 0.2804136155647019, 0.011341003193473642, 0.4820628927081786, 0.42739784704573436, -0.057677590471265305, 0.3273631885786743, -0.23059041095691427, 0.012887224678940714, -0.09182787197262503, 0.321098753998225, -0.4608421055226413, -0.48288231475426524, 0.14848661760127346, 0.35419066247291314, -0.4444281339888628, 0.11492673910265364, 0.03264873364884456, 0.04262043318344917, -0.3641853630897891, -0.19940939176577654, -0.3149522408318862, -0.25332534889270186, 0.05981569488590753, 0.2646572418310321, -0.4669515283617468, -0.06137365804718462, 0.3324609455287905, 0.39782723481962623, 0.07485589512708524, 0.2288983418875612, 0.13633440368458938, 0.24238216819397984, -0.002991045750924126, -0.03414732978050872, -0.13278851926001692, -0.02233499146828653, 0.006990208824236484, 0.3981899520139779, -0.19883646239662667, 0.43231620662309833, 0.36881627444649806, -0.08388564735086546, 0.08221763443638185, 0.19249005202221148, -0.18960839298985038, 0.09441027934579485, -0.1720437575014231, -0.37655440441847937, 0.40355705885748583, -0.39111465792848293, 0.09208610647221076, -0.38767143192596787, 0.2895813233970934, -0.19360977722831035, -0.20108144424539334, 0.1138983945771719, -0.30336143336119337, 0.05439735837265758, 0.08432677339166716, 0.3859066093676494, 0.35162568795505145, -0.007537451224049432, 0.2813166663602042, 0.20332018472424598, -0.3934280560843329, 0.3075392707189512, -0.15246722934403453, -0.07732558478276208, -0.0878107097869938, -0.16195202442318374, -0.35109009475834374, -0.18969835066371638, -0.10241861914588071, -0.025485646022776816, 0.03696807717200523, -0.3007931089746648, -0.34967912456644623, 0.3877068974646969, 0.029518684706814714, 0.04613133356659652, 0.03728425813514265, -0.18037404892761597, -0.09550203800649561, 0.33173485050056156, 0.33276841869114776, 0.18419623202170343, 0.14360681331464964, 0.3000814355939869, 0.49735315083932474, -0.13883115343276028, -0.30183585487293346, 0.10601223223563778, 0.3679546099300957, -0.1425814576701341, -0.38898255800475967, 0.33963317984549773, 0.07560775002813065, 0.3518851766511253, 0.23843270615108209, 0.005307749499354003, 0.37815994624834903, -0.42171022390976015, -0.14732254508642403, -0.17631715264984815, 0.464928364476216, -0.06032637458393743, 0.39345744615251566, -0.23235314264929932, -0.3758537386148881, 0.008600982569235163, 0.20284802869612445, 0.2656615987537864, 0.1279492661866468, 0.234782887008811, -0.30762545517936557, 0.4879948911594923, 0.09350534386208474, 0.4988657021901177, -0.18186848371333625, 0.40279734664949024, 0.02950195200157025, 0.11027557792885932, 0.2746336753967946, -0.21761826861128084, 0.32337692213075847, -0.3940668751608158, -0.45851371817412934, -0.11735920601964162, -0.2892444252147938, -0.44810763696835404, 0.35333776907410924, -0.2646793104643748, -0.15764087245031813, -0.5085151819802088, 0.06186377701798397, -0.38351148479377967, -0.2510238344583608, 0.4597728424432027, 0.1584303564487669, -0.46768252708836555, -0.28947889145559375, 0.34502733726076207, -0.4010718110196049, -0.11000475379776184, -0.2725910876984648, 0.024496823781558517, 0.06792236210080486, 0.2740938451303063, 0.3017512644479364, -0.33042696239262875, 0.48682641692141565, 0.4664346239088423, 0.43415753691950887, 0.12715165581517066, -0.13531196271488252, 0.40336314609035656, 0.14413503245645737, -0.360228066507817, 0.3418704216012908, -0.37378857500378543, 0.2464814238998302, -0.032173818480189936, -0.06580476946106426, 0.002317578353524455, 0.25881637994897416, 0.05896434018318919, -0.02286317935974496, -0.3048903274647703, 0.10761927610142047, -0.3897844303664718, 0.2939244231499206, -0.1289176589150651, -0.2712428904195027, -0.43100631852556753, -0.0005726460816746362, 0.35175880622493894, 0.4752610905250785, 0.24821579317861486, -0.0540623390393557, 0.09881011766741093, 0.4952850069753311, -0.359671163726326, 0.1826704610553696, 0.26150095162979414, 0.41692201433762677, -0.2853591492350125, 0.38253393412077974, -0.10818457409693963, -0.4279168862750746, 0.25483315455039657, -0.061305456469972854, 0.025395549729581923, 0.255021766780165, -0.32610815839968493, -0.028274860604267447, 0.3639602334927476, -0.49432207766318675, 0.4026066789920872, 0.3374669532446438, -0.4364871179490765, -0.2659954569005483, -0.3328477974806908, -0.2535767091942933, 0.26301904179433244, 0.08115624107455828, -0.4041806791675967, 0.40921327858635237, 0.35550759026301254, 0.27755423253204536, 0.042305398682165075, -0.31378267558205103, 0.2349202502274425, 0.06992097216185951, 0.3590937898600299, 0.15398838095706277, -0.31715811164556446, 0.26191840782407627, -0.15791656828009315, -0.05134710239214354, -0.2474334425711751, -0.29675132216888883, -0.3125541556254928, 0.2518786264089337, -0.06668930877559388, 0.42318234610215344, -0.42517197449306116, 0.06056692763491911, -0.2140103884702376, 0.29277918746962694, -0.11149295944298895, -0.5001786953308109, 0.4256066373775328, 0.11176182393916646, 0.4098042540434076, 0.24005348573831023, 0.21309455155463405, -0.2218018010984337, 0.18966602383204062, -0.38036418027285596, 0.23473476525657813, 0.148886871296324, -0.1721312829417186, 0.17609426178840074, -0.5280226991342027, 0.09523426938143394, -0.3434201387299419, 0.25731845779463514, 0.12184633561454446, 0.47296671101604676, -0.4259946816407074, -0.4369858353860802, 0.4770033367800792, -0.10960771145965043, 0.36453559411608005, 0.04719355293442229, -0.4476593169071226, 0.3443831426638855, 0.3618906545482866, 0.10970492243250762, 0.4202394170199861, 0.4155655763680309, -0.30257111845057305, 0.16344045295489237, -0.38218554275267697, 0.18562976795359476, 0.2562948287996618, -0.18954090978067714, 0.15545115117897101, -0.49391243113783456, -0.04664125203630199, 0.17970108835356352, 0.007945293229339803, 0.25254001616842636, -0.4464545065834844, 0.20137031747616618, -0.3537123509283191, -0.22650901175170962, -0.3212170861277933, 0.46087081245189687, -0.02627788439850134, 0.31716823041639675, -0.20387217177496364, -0.3139758642550713, -0.20364736934993655, 0.025096360145416188, -0.12443520712675615, -0.15750985212997132, 0.36244706412522976, 0.024985554467081447, -0.4438512824287734, -0.32138050046284666, 0.3998256087035092, -0.04332820926011118, 0.0101798873877695, 0.3052072416921316, -0.5578275794988421, -0.3861255565290119, 0.18313425980819845, 0.13855283548485006, 0.0873561303148693, -0.3643737932127612, 0.3320283906702325, -0.11394881386431714, -0.22889584392450127, 0.23216708100874617, -0.27470976252831153, 0.41098576053719654, -0.33041381206424164, -0.27676338071211637, -0.24127995550322945, -0.08377630408369807, 0.0077888734175196594, 0.008778285109453875, 0.31658009205028564, 0.4212089893351379, 0.21249439134946452, -0.3291730180899505, 0.23743145310798702, -0.2572189159044292, -0.39141679261045687, -0.45506655122881445, 0.1709649246057751, 0.07898912555796078, -0.5046723244803243, -0.14458925129295006, 0.426710609845291, -0.06128925102160188, 0.43880128645400274, -0.4157780247606757, -0.4656312844835752, -0.11009033522904346, 0.337119487631043, -0.25918028260404286, -0.22278924345384582, 0.3735568760050586, -0.2263364141815493, -0.4434388348805153, 0.06253857866128965, 0.45267183737223804, 0.11458607908944551, 0.1939693577360652, 0.14076158580624207, 0.3565209459421287, -0.47175609409104236, -0.03784566496745304, 0.2142087082549092, -0.17663015336496773, 0.26177276139689726, 0.16511835942307257, 0.1894457789632927, -0.36771248118571015, -0.34175306174263104, -0.40858227529286667, 0.2556558158038519, -0.49078926464537137, 0.024921912912746216, -0.4699977356386154, -0.2007546479577012, 0.4003450722592652, -0.08453594712699623, -0.3884410857946519, -0.2937420581927143, -0.2598664395883781, -0.2441319845643788, -0.33730497721793257, 0.48394699515611617, 0.22297821003304463, -0.2342504796595276, 0.39971488952547124, 0.04545968880869288, 0.07431253855929716, 0.15543444093374842, 0.17404695464439054, -0.4031412306379921, 0.3074835177577041, 0.24470084379084783, 0.08061663024689594, 0.3847974836568743, -0.27988596626905454, -0.4649128754960306, 0.4385491981973217, -0.11715691697055156, -0.13523156841038902, -0.08259538901208052, 0.043419080585582664, -0.2994992196982629, 0.00035750132194913915, -0.14270946302343468, -0.017919744594150137, -0.022251362669061768, 0.31693294652587906, 0.4094681278008062, 0.07479987313483463, -0.1921347111299374, -0.09815314889407711, 0.31710691301051663, 0.35675584008057504, -0.5003862888861349, 0.38064979787190034, 0.3797298811396174, -0.21534310724219577, -0.030700237045293063, -0.05813428575627179, -0.2966523655389728, 0.2509504603487743, -0.27583091095846934, -0.46977250516620755, 0.47125219653205874, -0.0971657382290543, -0.44412176126612735, -0.21020053941327546, -0.08638486988282121, 0.1226530722412551, 0.009711303104631504, 0.15407969428031468, 0.07190670754461834, 0.006918499161380197, -0.21638682276501622, 0.41341312040594735, 0.052001215565613275, 0.3860157055794255, -0.32719872109764625, 0.4779023037221324, 0.13104442735769417, 0.11343492280662715, 0.03276450837162919, -0.27071906445605914, -0.17669172314253292, 0.17952063242996866, -0.26250431590791434, 0.2788424313069392, 0.46253578748796687, -0.11443909783595316, -0.3456870955870376, 0.4648155413154511, 0.47339829746067075, -0.11208064057626871, 0.4938680982051659, -0.36148323775979685, -0.059083919523079995, -0.29686003392653426, -0.3354972168550441, 0.45224241344621774, 0.4122614174337443, 0.418683790549017, 0.3667731664307763, 0.35195070218001046, 0.43529582636917563, 0.5006675362829067, 0.48630758858294454, -0.01710428461274438, -0.04186771927251853, 0.4369849220231029, -0.3455836830425053, -0.03517952390672854, 0.07693475944844223, 0.29270159318312367, 0.11549888412600143, 0.4822879374252526, 0.025491620577956432, -0.12164800660795122, -0.2822519758130499, 0.2154475971081686, 0.3467936979307256, -0.2955922816162695, 0.2165721689019583, -0.1021102575692356, 0.18272321335236102, 0.09702615437572834, 0.24387323202577577, -0.41268940946160393, -0.4711079692544907, -0.2313339913087604, -0.2942837178733991, 0.27482790643061517, -0.14479794710196184, 0.41057548090512946, 0.08715915880528691, -0.47991224094842855, 0.0737174721468361, 0.1906617646641, 0.4849034552982697, -0.24477573105804157, -0.2190757591322347, -0.39504935723152157, -0.08755625786420056, -0.3767358802986504, -0.05847187337576129, 0.24249464736988344, 0.05201435348935046, -0.47720428995086867, -0.18768932090974777, -0.22267011403408507, -0.33605206165991136, 0.3019513095965805, -0.26837670958266924, -0.05880278620148243, -0.4512748471818042, 0.4213261232342212, 0.21546590514674183, 0.07549465570022222, -0.028389036745025596, -0.2786850127134475, 0.1800430206956063, -0.0989805511327823, 0.01288206233170719, -0.2311514311111974, 0.10412576426011322, 0.3096750057116206, -0.42877898627715566, 0.2758338588775468, -0.20938043356497485, -0.35119787644910877, -0.4341172350966152, -0.40643019781311207, -0.37799894848044163, -0.04996746244500751, -0.22980400296624467, -0.10703195004431991, 0.09976109984208892, -0.1574970965605374, -0.06166237322572269, 0.32535175128121585, -0.4692664317137212, 0.2858317353341469, -0.4491153034323441, 0.11622091806196908, 0.2786012325008305, 0.03200997578399389, 0.3482971172496822, 0.3540120684423523, 0.19644972042108366, 0.21061632925322993, 0.2986746359620356, 0.00041055014914093135, 0.32865118710448604, 0.43380233595092593, -0.4789257703607851, 0.07582777120245175, 0.16707967445715335, 0.3852924273310617, 0.5107151074266086, 0.18459835884595424, 0.5011965191329663, 0.3923214250072818, 0.4098233721879931, -0.19220009788010253, -0.11185479014696614, 0.452453210973482, -0.27066465441426535, -0.33400784698906494, -0.05657147702560158, 0.3748876754344595, -0.18762558108820615, -0.5011277560209333, -0.0547923301572276, -0.15042264097739008, 0.3900068331616555, -0.008562784521000849, -0.0035440249384142723, -0.16207736851854737, -0.10371182628064612, 0.4738765215764661, -0.21002147342167443, 0.16349250384431324, 0.3639046760691199, -0.23277924155375831, -0.12676084025583004, 0.08239935087138299, -0.3119060459422989, -0.3204977769622072, 0.2784521088722644, -0.3505238893296094, -0.2762802198475779, -0.21063164791385638, -0.12797504702453785, 0.12907359628760204, 0.16924602633552166, 0.40494611467239455, -0.29734597431829, 0.07883617914916156, 0.42027351285544123, -0.0795399284791524, 0.23106645329346892, 0.1065314260668093, -0.02345210918805961, 0.15645372581502598, 0.29191798593515766, -0.12146894501326932, -0.09371458293679813, -0.17772822888020723, -0.29778621749618794, 0.06212169999975459, 0.3146019366584798, -0.050922819445288606, -0.22835721475085785, -0.1727365946478323, -0.05559935578064896, -0.2254672019776375, 0.3594926416275608, 0.015961562474801187, 0.16196800799283073, 0.28087025254579223, 0.3641076899101084, 0.04451122241330589, -0.44081702982659887, -0.30295359539768446, 0.20490422482500797, -0.42403578630344424, -0.015486733001181365, 0.33225264536209803, -0.5070417110724709, -0.4177933424677117, 0.3586386130465359, 0.05612759011227045, 0.0972254673160321, -0.011974290713879676, 0.25347929865540575, -0.3515256825508244, 0.12945874566270454, -0.11384136264400158, 0.09887549086793446, -0.04952640682326147, 0.21687370285162827, -0.07444640353382669, -0.2985238912385707, -0.18121559702553808, 0.5073612534903078, -0.15917897711662127, -0.05911573344499162, -0.17970902492022733, -0.14973747487242767, -0.31161232312186116, -0.33876659856391345, 0.03276792471929768, 0.38356026690342254, 0.1351273151303943, -0.429434991747395, 0.12380483146874598, -0.24056228267615293, -0.17049136926117361, 0.25301247263455373, -0.29550848077048275, -0.027280343562932297, -0.26059655067837373, -0.3192528996912284, 0.011247516848726824, 0.019585229742329346, 0.15361629390217968, -0.22109161401465494, 0.07072961275823475, 0.27390384112493504, 0.3155622107910696, -0.07311393324955417, 0.2819746520197091, -0.2829623929832966, 0.3972696795573185, -0.1732983248836023, 0.47150146587372244, 0.08967883443665967, -0.16588700859296943, -0.4190867172386485, -0.2422608093395821, 0.02183070092743235, -0.11953122388605199, 0.1884734420187595, 0.35245340100742384, 0.2254485944826864, 0.45305932856946474, 0.36872838184600043, -0.3931374212258819, 0.008836760602590643, -0.08137345608263213, 0.4830289115503008], [0.06246860077470662, -0.423536439579991, 0.41432914150467515, 0.41161378122267145, 0.05104282343973765, 0.03567975338003715, -0.30852549621611125, -0.009412527583105845, -0.40018998453823695, 0.32770126072620565, 0.0988649393706107, -0.43657114806321373, 0.02934395110510679, 0.05291213947303863, -0.09995108394361074, 0.05714462017835176, -0.436591305014173, -0.09288375437148577, -0.05285067660591192, -0.296280075840774, 0.4741293455592045, -0.474680656195986, 0.13718578302875906, 0.4315809251899777, -0.037342061756509115, 0.37538370851623837, 0.29430497432354485, -0.023462994037951157, -0.15241487311421387, -0.3746448681444523, -0.43778166242553473, -0.3895427764019471, -0.4722179136824396, -0.463897485111454, 0.3482658160301316, 0.4167705555185469, -0.03963179580336784, 0.06123284032636567, 0.42588958563187185, -0.3028545435505308, 0.22444754030017458, -0.40728676940829717, 0.3852885098438304, -0.06901058447795795, 0.43206143367558797, 0.30849632745071875, -0.2091012830935015, -0.07878002624573777, -0.3082987452105417, -0.30330594402493616, -0.3407240847310967, -0.04603289737962657, -0.20355668298713825, -0.4635039068755382, -0.3199226917062514, 0.42197040675308284, 0.448571997745151, 0.26434084882036935, -0.12288203770592265, 0.4674808197371063, 0.42010696298381667, 0.27805885384243617, -0.13426307607778057, 0.3869168282915892, -0.014912779751275971, -0.03525127744116782, 0.1531103054142096, 0.35415015907565234, 0.037566042777384005, 0.33821548371708826, 0.35122574724082745, -0.30490355325394636, 0.12267087734465144, 0.20182704122919204, -0.31467328251843957, -0.24469022327228718, 0.22972285920167557, -0.07416663320027865, 0.1762085794120828, 0.3050500969292954, -0.42739156441899484, -0.08508190234445023, 0.14906146941479514, 0.2814322057415318, -0.16726751354270464, -0.2324464976494136, -0.23361708700893946, -0.1899581462683262, -0.39278934114281605, -0.13444031510695603, -0.3254175866768384, 0.3624889655307675, -0.30350167979657827, -0.01293361588941789, -0.4470579505554675, 0.40352262851106413, -0.5173621184679659, -0.0692853399520629, -0.27765998446498424, 0.26432543785614393, 0.3473002308097205, -0.27896232714288677, 0.30437374291743674, 0.4832067296920386, 0.1678792700691031, 0.24731321484168664, 0.06846942268723785, 0.4926805112095642, -0.1393933874788792, -0.2236781720034613, 0.10399399349737459, 0.10728466619706001, -0.07606397904203144, -0.4580689604514129, -0.46897022012846135, 0.46965777097327543, 0.3823234606847809, -0.27110557736655033, 0.4404430090938864, 0.17335440098239324, -0.24442805041858387, 0.3331627451890448, -0.33659420936932544, -0.43206953880837645, 0.3598999738355218, 0.365238151435073, -0.418416675890131, 0.46301621781641417, -0.36823443561922287, -0.14251999148486846, 0.12493895500410725, -0.4683793651046149, 0.0036660965208756826, -0.2625629624984331, 0.04191214487752573, -0.3996037250435887, -0.24859063193411532, -0.1558201421144626, -0.26363127720158774, 0.32621913974920913, -0.2016499367836414, -0.10296691950067915, -0.004608180093981784, 0.09485977796958889, -0.340338146763443, 0.24779500541783211, 0.3976586032528043, 0.33470867927631953, 0.0801059859538538, 0.3886828515807564, -0.3075418800827476, -0.3561223855343656, 0.19163485740251165, -0.3522848002510925, 0.18981812490194774, -0.28284830737835714, -0.05495498396016172, -0.35268488937263953, 0.10242615439792394, -0.22685983776355334, 0.5651738397891116, -0.19852483798263573, -0.16896533690186563, 0.4768702364057617, 0.1343517221299193, 0.41282896656000856, -0.14631593545067784, -0.18484113907251787, -0.1541450537570752, -0.2990735698928251, -0.32839030660914825, 0.4736004427708753, 0.22520293406259895, -0.10571437547449475, 0.18662732223494619, -0.20511931634185931, -0.40959438491565, -0.050860985923323, 0.1762747494789553, 0.42988208948480694, -0.1348439122267655, 0.21895386606500722, -0.507025086490449, 0.39232049858729706, -0.3819628054125451, 0.39898022964295643, -0.4214722739607004, 0.2798963332713279, -0.08988545741494589, 0.5233224682358939, 0.478208183981934, -0.13128911441429522, -0.1324315804278448, 0.02318441530612521, -0.1253811577255533, 0.4981647450698913, 0.0714295499600337, 0.12755463406818157, -0.1567682005031964, -0.10613416643591841, -0.3195323770508551, 0.15097142233294344, 0.4631647429090483, 0.04153475924642065, -0.056529876534914224, -0.20163722272105594, 0.1047448850172482, -0.20443889642952004, -0.5933267839883987, -0.20550477441114984, -0.3711193430342499, -0.22911764487976857, 0.2232734961601883, -0.10111042131929557, -0.21027229454100416, 0.22597469450158678, -0.3585214569031804, -0.021076708338313918, -0.44882857091606293, 0.4290648409573906, -0.45973965583648346, -0.18565988037648043, -0.24302375505307502, 0.2035972329757172, -0.4051987558850769, 0.4032573086062773, -0.2844740736698005, -0.3983298595875233, 0.2377483217059525, 0.47587545121648395, -0.46177940766323106, 0.11221874878213815, -0.19955209862398418, -0.07514244825836987, -0.013903150176012726, 0.12320436212282358, -0.3466032412073068, -0.3995985975950162, 0.18920601850125765, -0.5993011580716014, 0.07433195305872216, 0.1878504443563761, -0.24584558736257836, 0.30904056672335234, 0.4296302360344346, 0.0827448308782564, 0.4531684019651863, -0.27318122113467314, 0.22487878410769055, -0.23449149584054732, -0.2472153671878823, -0.28051212176728224, -0.051816638516374525, 0.1192005110984159, 0.008605673992949314, -0.3243552978077988, -0.08041192859786618, -0.30553267711674115, 0.04037539217641843, -0.3537170576107686, 0.3677217075312026, 0.30152059172563106, 0.0376278632995463, -0.0035580718172303076, -0.15289344554686257, -0.32228391046957866, -0.47077364229387525, -0.44593567145926344, -0.3298499682471424, -0.0050260665886046095, -0.07841541180594525, 0.4803567935959454, 0.040716345928545776, -0.2954896428333138, -0.23633221185908443, -0.14421196990869256, 0.17858156309017728, 0.10882717906023619, -0.29614383373225034, -0.3276514038886389, -0.1859446125346207, -0.4741439509504132, 0.36586115131584485, 0.43854671869154127, -0.23100530339872824, 0.05012641984827872, 0.19219993296323573, 0.13831335615029466, -0.07566490173632495, -0.42346364041447165, 0.26479233038285777, -0.35785854672491574, -0.3336920245034708, 0.34891536043596344, -0.18983919645221717, -0.2094012385273328, -0.3209473935291123, 0.56183502164214, -0.10981651291646766, 0.30489817498597244, -0.08884756245170398, -0.39120255772944995, 0.37912222597673034, 0.3813123751825663, 0.33112331008988577, 0.20003666648420515, 0.40435011774039076, -0.47927104390475295, 0.25191914671006277, -0.42810683507993863, -0.099021514386475, 0.29691106410631307, 0.15394503813847657, -0.17370938605458527, -0.2893486580357239, -0.00900748554427489, 0.16208910882616281, -0.09613165853331627, 0.2875150174639138, -0.15635496437578214, 0.0975959417238398, 0.09085615050677746, 0.1590932518578435, -0.4700425216391435, 0.343502213894276, 0.4361037708138764, -0.41816580249171814, -0.12382289406923483, -0.33040452665340087, -0.3144395458715034, 0.37921361544181836, 0.12328307287360984, 0.417804702376053, 0.47744657062365853, -0.3671601796860142, 0.27024609076722905, 0.02677983754040636, -0.028768673343396722, -0.27170155631654624, 0.14587048559691662, -0.10164393696048017, -0.10472905001728354, 0.03691989999174423, 0.29967426048360857, -0.029369050101832064, -0.15903102562689952, 0.08140531025922176, 0.06255773688311331, 0.41440078529149654, -0.046619463981528886, -0.183695975783063, 0.3774410282578146, 0.3801103426677358, -0.11465487658726899, 0.4657347718720037, -0.4367317189189445, 0.313736021614006, 0.3423806376850697, -0.2061059694108927, 0.43228404745716503, -0.14061919248165086, 0.25139609013904163, 0.1887710499299682, 0.25660476706560587, -0.17129514228716547, -0.16928144972621562, 0.2804841623057194, -0.14578487712976346, -0.16236236156182174, 0.005694854978591718, 0.45067253379579225, -0.3684509304736673, 0.5010799094735678, -0.04007876716999821, 0.16862879480809068, 0.32760823215134427, 0.34156783763069637, -0.42144612344560606, 0.1727568643862047, -0.29996462078643665, -0.15686425212287214, -0.10927366387462244, 0.09761222600008093, -0.2273494048815251, -0.27593629566436256, -0.3253385932995869, 0.2495916369168862, -0.3872999815907778, 0.41514563530382115, -0.3005828372601626, -0.2231247404795823, 0.4273828797968712, -0.4464349978484359, 0.42626762702229803, 0.48471923875688033, -0.3172164322479429, -0.019937133177404847, -0.4226624425402155, 0.417673259541947, -0.017760275188802528, 0.445431485724753, 0.467525809887509, -0.23294605464425983, 0.005831556512150548, -0.1979021750618405, 0.05208485976033942, -0.5205327908243944, 0.08992220451852813, -0.03581151719496056, -0.11500339678407819, 0.05725160196814682, -0.10815414921074099, 0.08518649848214782, 0.27308609509314513, 0.4322707426022912, -0.05942709497393807, -0.3846584245516344, -0.0276138355262228, 0.25526596158951664, 0.32877353312992097, 0.4562772291643151, -0.008599985006643496, -0.08233140619182437, 0.01872515207204689, -0.037049016371225464, -0.3524307757625072, -0.24788232449919997, 0.017189824878749815, 0.24208161331591826, 0.19962069892713133, 0.37995534786614116, -0.12739733907917575, 0.26566410872505125, -0.033775893712468114, 0.24801660715327725, 0.2684297752925072, 0.18740520996929422, -0.0145937499060093, 0.4231293831938997, 0.44682036438534656, 0.4444173847093222, -0.40926358425206283, -0.019306731697515775, -0.018842609710749247, -0.20640890620562838, -0.11414611532972826, -0.06804895636040953, -0.03633034232598065, 0.06206601308055604, -0.45932556558573645, -0.008759611901126294, -0.44179062350867937, -0.41471491039366015, 0.4742615263690127, 0.15685053207285418, 0.41562575597026463, 0.4386516018675992, 0.09535540568948878, 0.3729974620894557, -0.28720407363397366, 0.2890338857636036, 0.3828886126559547, 0.4316026240553372, -0.013242818017091635, 0.448067265602425, 0.03628330239564466, -0.15358230150544822, 0.21948116010838503, 0.1755869976950154, -0.34682364899092244, -0.2653797172772827, 0.17403189077498085, -0.444615210825997, 0.2361970929797789, 0.08260110222533967, -0.20728451370612644, -0.043373015463387565, 0.04710775602119288, 0.1255840633858949, -0.1579372970220952, -0.036304325320476345, -0.30327888470022485, -0.0888192696740082, -0.035963357845314674, 0.03793869843877565, -0.25945627075950145, 0.5270799345550059, -0.0474159078979791, 0.19896628267273708, -0.26979410303971135, -0.1549121599358189, 0.24818011090565456, -0.23884375337303454, -0.2500160137326238, 0.022230764035292103, -0.4165484892504553, -0.048149723915216984, 0.4873105131027065, -0.26443989544307833, -0.19936250324953145, -0.34682029294078015, 0.392337611404336, 0.2892416529241879, -0.2254153418902023, 0.14041643520783398, 0.04226197080264815, 0.1860252484987172, 0.2429252473551267, -0.19062650879490015, -0.43978156117692097, -0.05072238643504232, -0.14743004600003343, 0.10693352601806495, -0.25607337573772787, 0.18086508638926876, 0.33336777388743727, 0.0899460225518992, -0.4002944636029045, -0.21503819650497819, 0.09784241996929212, -0.2691056966394422, 0.1081509086631406, -0.16678993489098462, -0.10209556949144076, 0.07033400516547077, 0.0036989590622923817, 0.275545949652, 0.13394316297170047, -0.4556195923214024, 0.13600788316053414, 0.11547180246334533, -0.43676852752469053, -0.36894433133751203, -0.32011869191705544, -0.4970359442403797, -0.060311066304077614, 0.31790818929204046, 0.48548719835556076, -0.44420804225689847, 0.1403508930104363, 0.12860249777441557, -0.26921374169461215, -0.1212326293489861, -0.251578239375104, -0.44285307141608204, 0.38663038684423295, 0.1816930348985, 0.11576486203318499, 0.5306519944939646, 0.17481318532493315, -0.21772403607187518, 0.2335091115114129, -0.32526014268091347, -0.23061749285808017, -0.39145046843576803, -0.1287451575139334, 0.09087923950127397, 0.11946104674180126, -0.3269095922318891, -0.1169941625948937, 0.44873717547509195, -0.1525107487438232, -0.04769784501372498, 0.06781997303527915, 0.168937472371946, 0.14808173953731293, 0.14829767964888058, -0.04770685990756447, 0.31090413546067197, -0.5211943770727429, -0.4232791060995857, -0.09071838332890159, -0.3039725708822891, -0.09462713325573589, -0.025450384208762035, 0.15331222112211745, -0.3857003269454022, 0.39552456478141584, 0.1686738714139975, 0.37043734556330754, -0.5123610875563807, 0.30541009659167156, -0.23177769640148105, 0.3490645971314682, -0.016349613497538187, 0.23991312564765951, 0.1238701120226795, 0.3994282232820927, -0.31262791606878704, 0.4702984454732425, -0.49962885395836754, -0.3353466202408196, 0.184677431884272, 0.34542640773085576, 0.02018611582882026, -0.11448588645155361, -0.299805448436459, 0.08711449088382343, 0.3850041518092385, -0.05409042181102825, 0.16379753002524516, 0.34235556875276796, 0.3009086552368905, -0.38413470517244913, -0.41148759874149277, 0.04257068361978952, -0.41941087123923515, 0.10544131166327601, -0.4586130110997703, 0.0902337712059922, -0.3135397946544657, 0.13485496637175143, -0.3207360066458917, -0.22542183098985744, 0.27063224218030846, 0.25040758538097585, 0.15506205164727171, -0.025184955264993092, 0.239507993235943, 0.4964101554360101, -0.2836678672556207, -0.444868659145585, -0.011928498252132382, -0.35749853178523355, -0.09598330605565668, -0.38092825373916367, -0.38946868059498607, -0.003467687593828317, -0.04932519774200683, -0.27001592091346127, 0.3396764922363373, 0.23789445021276037, -0.39581021540133354, -0.1283467135564032, -0.051489607672530927, 0.11613941718564015, 0.45088368160034353, 0.2749530768591296, 0.0959799454717487, 0.31037673514421593, 0.4165301539768676, 0.3101618809006162, -0.2893978055027905, -0.22346385629863763, -0.19086317000088615, 0.30565167814437944, 0.1546060732133796, -0.3186273037593287, 0.2505433910635702, -0.313861794803601, -0.25860027747494035, -0.4671782918822217, 0.4123650911166935, 0.06635902867685776, -0.11985835078767466, 0.04093149059522171, -0.2981039318502015, -0.10323871674379624, -0.36335623670662326, 0.026473599534324817, -0.07411676962867234, -0.3380393705956734, -0.015430351928830943, 0.20321883713571698, -0.10032395353356967, -0.2252370868946228, 0.05473948136018299, -0.18352976490212464, 0.38585942309806986, 0.4527268582152802, 0.4989294463650029, 0.1846786033789548, 0.28237048405577947, 0.010127084507492112, -0.34664353798361147, 0.354505839193191, 0.38015484994611914, -0.48126011561391313, -0.1893510052200263, -0.5010855488737833, -0.32568236023629316, -0.32283914076604203, 0.3698278212382467, -0.00924147783875238, -0.26976727560969554, -0.4225383593492101, -0.1238170640098806, 0.35937657894096897, 0.03267073748694493, 0.17789935146249028, -0.03069742620176553, -0.2641264928030976, -0.41635738076821094, 0.36201297915016817, 0.03545413387067014, -0.07009580410121424, 0.41842225479314005, -0.4561698627163307, -0.34942817335441967, -0.27329658954068137, -0.30754522575037857, 0.09783837181615918, 0.48585467602386945, 0.14715184655888913, 0.2898540396057082, -0.131281934774627, -0.41497401781351967, 0.4421891490740372, -0.2525489553550901, -0.38588192944971694, 0.08543473753376894, -0.0877958096091693, -0.013544938649551854, -0.5002615302518475, -0.4613184235265402, -0.38112821405919844, -0.17626078274753762, -0.1726864643206382, 0.026464700036120233, -0.42544542672060454, -0.4621828869596817, -0.008376109507094285, -0.27903953534225623, -0.4771977312684276, 0.0647969874198373, -0.4266504359224068, -0.3373077791288096, 0.38708636191359513, -0.011507575537569537, -0.34616820082446387, -0.0652978265831573, -0.03975254902473957, 0.22062142676520125, 0.05185473448199576, -0.03791581983519247, 0.12105050075768761, 0.24607919531235886, 0.40273099310861016, -0.2504246920367758, 0.04701731317170256, -0.18268381543629245, -0.1587451256362299, -0.004810199192044759, 0.22096056730406435, -0.450349789651762, 0.08605046999416985, -0.2451212809793614, -0.11166734914063578, -0.06981680984639511, 0.3547995990639261, 0.04562535838840328, 0.49540665406051154, 0.3851090888341946, -0.2996737960657312, -0.12944676751305473, 0.41386105849013255, 0.07062587539100995, 0.38342544358268515, 0.1756567620728099, -0.3205745939176362, 0.2548388755217226, -0.04520805590662147, -0.4435527986837836, -0.3819810591808288, -0.1431993676345551, -0.0219297544428572, -0.4214622324817778, -0.4421080540806458, 0.047175228309594086, 0.0007412749169120048, 0.4258404369977161, 0.1965696857788998, -0.4272464706731308, -0.20003872510100584, -0.2729635849331683, -0.44700714986700774, -0.31591874935302033, -0.4362063228130838, -0.23771687645063644, -0.36321436881712066, 0.07644848142919936, -0.17623217730335694, 0.4449793383194883, 0.21274771707374052], [0.07808446251203183, 0.18333657157147532, 0.4480064054341536, -0.45856642985924234, 0.2827591560257052, -0.13299367266839346, 0.42676058284673535, -0.10016543952121815, -0.2737765305848153, -0.3450780557939659, 0.4476482562277263, -0.38413285198845604, 0.24819871294351192, 0.2969247995211787, 0.15620229542002328, -0.11698299015918634, -0.3282346731212168, -0.4837656518774539, 0.08751208080452189, 0.3445564524240057, -0.28852032712305664, -0.17690622975674497, 0.178245856584467, -0.2356005082442737, -0.4114050772592882, 0.4675880720068749, -0.444235065479084, -0.4257628133021768, 0.13551192448931604, -0.024860705057267785, -0.36115742169079434, 0.03953017397088732, 0.3919434333009394, -0.2772288179820239, -0.42615479923643584, 0.0170142298757312, 0.18308793711891547, -0.440229437316769, -0.2373650572650451, 0.09961479348041558, -0.3352877988971051, -0.23512797391790993, 0.17390911168474266, -0.2936151687160791, 0.16519534241706915, -0.26472213892870317, -0.3419661989808098, -0.23270047189487664, -0.16102746397394208, -0.4536306368519173, 0.06020221118930302, 0.33720921629391043, 0.18640882338275844, -0.2393784073204056, 0.2903315653756694, -0.4837469751333534, 0.341882425256576, 0.04127349008675818, 0.42559144862168274, -0.42990012421209844, 0.14534927481596938, -0.011071716038942523, 0.11732798222203566, 0.497939086809093, -0.07289515507258486, 0.04914433244391061, 0.24151570611130743, -0.32987441265174167, -0.3864958328238151, 0.23868123642081118, -0.3101158583561965, -0.06472616873007792, 0.15892358531292403, -0.43277396337751245, -0.0029089251203877017, -0.011049911211128655, -0.1183742042069337, -0.0037110928698716613, 0.4985889412529599, 0.20880398961136729, 0.3888638056562943, 0.03565965561844142, -0.10372959210256438, -0.1494999845343884, 0.2075415997849861, -0.06524964530794297, 0.31921326575057984, 0.2025485888619004, -0.037912697180035204, 0.3078391534494254, -0.2542417193999941, -0.029977129964411205, -0.47082251753894555, -0.19424384260628227, 0.24173542772987938, 0.4155304284752992, -0.4499451021980995, -0.14328073757169113, -0.4476987018990658, -0.006966633297216627, 0.1548376344219383, -0.09292492301202995, 0.5147682459617205, 0.24830163138636382, -0.2742663141653304, -0.15687824213728993, 0.41417607008723567, 0.2425899580196616, 0.3701020437230307, 0.18191380751223285, -0.0840426676965117, 0.29710831435980967, -0.39614235439313206, 0.01569335366623359, 0.13677595658881947, 0.3376026250827774, -0.2018176277770237, -0.2812437166337435, -0.3687327221905154, -0.13458868959464498, -0.2327946718581458, -0.2721567802394734, -0.4621439889310444, -0.3964657797206645, 0.2767749646201034, 0.03767953391950592, -0.3183924857068243, -0.0637035471727275, 0.1861814989690921, -0.4153818791010274, -0.2578710907224037, 0.22620839426928654, 0.00029432751749188207, 0.3682141490366184, 0.20833058401833737, 0.14985200129644413, 0.33278065809733676, 0.21567479892514616, 0.2575056387473289, 0.14760507941336443, 0.2555345591446704, 0.07997007067547524, -0.1886035304700937, 0.47984227925358014, -0.2728044069525327, -0.2610225009565539, 0.4917159753993368, 0.4712959265445607, 0.20344514789293486, 0.2585572874695406, 0.08885040188264506, -0.28123107918767937, 0.14453647862228458, -0.139626058557749, -0.208828467771455, -0.16476135472877143, 0.18772286907256708, -0.10943464065517905, 0.04132504211480125, -0.2067414696973642, 0.325101924769487, -0.04488322876888972, -0.2767707310239404, -0.11820266300718255, -0.025486529374081517, 0.4531908622970522, 0.16326851174295015, 0.26807660475258965, -0.06441795838892439, -0.016204093805745057, 0.4404746191322665, -0.3640017427012792, 0.35357712532314195, 0.4150783159046428, -0.06266599206881965, -0.21717506108930193, -0.36735561224631325, -0.25562720256430216, 0.055829422913186585, 0.3097681943648072, -0.13018440806551154, 0.00998748779457561, 0.24077094224972984, -0.37727225094145406, 0.2875496751352927, 0.4303448434479185, -0.37616653031579944, -0.322259790390114, 0.14238398050444973, 0.0870221801567256, -0.07185620507022893, -0.40413974210054754, -0.046198507426203426, -0.44252142453147847, 0.12164790759709213, -0.3567933445486622, -0.024809077987284267, 0.008907207854171761, -0.48542106639513, 0.19350316271350526, -0.23527101650079088, -0.06684568039222041, 0.4564507799212141, -0.2793191931424102, 0.014709507271043653, -0.005109916310141538, 0.1396969834740723, 0.04458205321966766, -0.05195386083780015, -0.2952510384501497, 0.16989133004161708, 0.105066858325491, -0.25118324451602675, -0.10857001048321771, 0.19690651231406953, 0.24097336709140996, -0.4911340369975843, 0.316927186648646, 0.026242565747630446, 0.33530026785864103, 0.32577721771256535, 0.3211682008023616, -0.18138399160175658, 0.14493602202395928, 0.1806929380552994, -0.4928400525571614, 0.20434347950690487, -0.05299389705849758, -0.11366098691103929, 0.32798981599256427, -0.31196295426217013, 0.2818769395581992, 0.29193884667657155, -0.21244375228524373, -0.27220431441428444, -0.293553464699793, 0.26380268955648234, 0.05844315496097278, -0.40255811392497887, -0.5065614562091355, -0.027908466855316432, -0.3332074137210565, -0.31510942181133, -0.4367756830243918, 0.33232134416905684, 0.275241373144493, -0.23721181403716554, 0.40521871776713114, 0.49508897645952255, -0.45254910592334796, -0.13509811174873798, -0.3388966070169842, -0.011317528725551806, 0.043058514213403565, 0.4298527161449845, -0.4852005568884804, -0.14445308655732722, -0.4010613422078346, 0.06610516262128668, -0.2608731463481531, 0.07457197236216324, 0.39796894302183644, 0.12050291177720666, 0.4676040333324881, 0.3392710758912641, -0.3642749872783993, -0.42967614314433655, -0.12343238474514787, -0.5038397738305126, -0.062073284964108584, -0.26065258149439563, 0.2921473328390237, 0.3050731633565682, 0.2306093904011064, -0.12054723235509077, -0.4779849348947227, -0.48662342066739156, -0.2527356861018285, 0.41869587247939266, -0.0013354630206746654, -0.3083144562797785, -0.18382729010330695, -0.31533448582404683, 0.12219781564780946, 0.02903321990426411, -0.4117037790696793, -0.18409630165985905, 0.13044134680218425, 0.3876674815135736, 0.09102010301852456, -0.20581713921897965, 0.05278289255500958, 0.4020699659014865, -0.4157199035645393, -0.0632692866890718, -0.5602656620521204, -0.2629224542549224, -0.16280224062035212, -0.3165912228844193, 0.1444538598159405, -0.29934776264899693, 0.14210684899770495, -0.27454132953724825, 0.3884175854676481, -0.38565325030876635, 0.47920687958504365, 0.3155518923479589, -0.4492476522633044, -0.3405592849789284, -0.47192865992033894, 0.47097509558522493, -0.219621156323513, 0.5209002784835447, -0.0913746756822336, 0.0784160644797547, 0.4466516695975304, 0.4251415994916071, 0.2869779170854845, 0.17467330748860227, 0.410848490264385, 0.22182402661532907, 0.29650676923264957, 0.16366855998293492, -0.14139353409380587, -0.1583123313149784, -0.2534729294870429, -0.06670846561726126, 0.08524469440916715, 0.41273235634455674, 0.15997662642907381, 0.0017983477583955534, -0.05057366987074908, 0.30765082200882016, -0.2525453627215363, 0.4314015955616164, 0.20947603394117045, -0.23442392632216935, -0.13418537566637073, -0.454761715482828, -0.20077359663462813, -0.15977660463010085, 0.3449907220989052, 0.01697467004239655, 0.5713787424270608, 0.20017812802999319, 0.061151718243309575, 0.6895053219921765, -0.032082950965759936, -0.060563199746078294, -0.07635183163899902, -0.1918657534280173, 0.21937077845232605, -0.09794583784046242, 0.1344245685399862, 0.23887464610828887, -0.12539228249964576, -0.20585277720791473, -0.2246024755202199, -0.22823594919030993, 0.004226129410387119, -0.23617849624734671, -0.4564603135220127, -0.0688859239726082, 0.08084151520848859, -0.1581143682793733, -0.19598725953894947, -0.091853134854699, -0.3215351519948729, -0.14324336257156345, -0.05467569335319154, 0.43392843886890414, 0.301294003570137, -0.1170740068087831, 0.35033723284648166, 0.24972436512404145, 0.7104458137810704, -0.10428695467485949, 0.25559674258103743, 0.21144092818189203, 0.18807208894879707, 0.5058393473586138, 0.45515894015593145, 0.3857072534722101, 0.2497095724637605, -0.037976497904378806, -0.07583452734769854, 0.2017490755839385, -0.13699864173514484, 0.0054220052613171464, 0.29459912090645685, 0.2900118777370057, -0.06157575512443836, 0.16405371521122314, -0.09694098604765855, -0.11534686181615307, -0.3948582326250322, 0.4280960669888812, -0.22567040168511507, -0.25149488828499833, 0.06674732265923995, -0.2382928271015252, 0.5901138882595801, 0.15213136298947882, 0.8131289220688622, 0.6266088592225859, -0.0074583812885106035, 0.03307623502691084, 0.5226752474090988, 0.19892066944591905, 0.2187495350564989, -0.28912975117185225, 0.24952896308905906, 0.5046927967314055, 0.5322622946225566, -0.23885946528688926, -0.44242607254333877, -0.02118519530498515, -0.31311416174414103, -0.0006005905457751649, 0.051260272110012606, -0.23490178319275212, 0.16696592359413576, 0.10435956214322226, 0.07273807479867271, 0.2906443393971739, -0.21953427902683073, -0.16464604770535327, -0.18230773170930742, 0.2758914208180042, 0.15653986754381896, 0.029287229564543278, 0.30653202450421324, -0.009948195695102047, 0.15237749612076165, 0.020747396788693234, -0.18087612493350524, 0.6715952454878127, 0.5360355723428052, 0.4733933593588688, -0.2954818434182455, -0.13318108752791444, 0.27085319056923096, -0.4438145886836319, 0.06594150814091286, -0.18213800541209144, 0.1616813706839153, -0.1345048112829509, -0.3157107537235885, -0.4076823029828248, -0.31336138505759514, 0.42157346403370666, -0.44140567056299745, 0.1754128786826191, -0.27291885926244014, -0.15408512195168736, 0.5571962067160852, 0.23104632322098925, 0.41969936345550274, 0.0718230419180167, 0.06290007516964731, -0.13872537311960792, 0.3379914146863016, -0.0214579409605524, 0.355556916542568, 0.2731145727300481, 0.44039460189121277, 0.1781116762443747, 0.3733206979489415, 0.47188424270211665, -0.45410718231781977, 0.18823576302898762, 0.3354266154530643, -0.15333439594964582, -0.36941502492782213, -0.3470564125747581, 0.4105735246453789, 0.2952518612129844, 0.40385631964568025, 0.47021650996662057, 0.49317559117969817, 0.4171986997618355, 0.18418457582752065, 0.3453764626446949, 0.2960317913960869, 0.014299112039605604, 0.04772285512112603, 0.2114767600243426, -0.014048404927522408, 0.17786208609481802, -0.332464473971242, 0.2789797323429064, -0.15697542896518166, 0.04303475597255372, -0.012580069681612247, -0.2754784185234074, 0.01943860786540839, 0.3194140760064368, 0.2752145008155137, 0.009151936908830649, -0.01443210260583717, -0.19193104340538814, -0.07256712140891948, -0.003374529476350411, 0.22977119697163728, 0.0016303537090952558, 0.3175132874422485, -0.2312546966215854, 0.11951781452836739, 0.24744473466011016, -0.04269680516904084, 0.1651960956253486, 0.02589393710611492, 0.14055539216417753, 0.05994278703448564, -0.22418805073573334, -0.1545767072846987, 0.30593180757831895, -0.12734887300041156, 0.4621411924458671, 0.3392925812265197, -0.36093179910200895, 0.08225311074594897, -0.30050811418194706, 0.3662991055809451, -0.39181197721291716, -0.4744331299457474, 0.04513925735914514, -0.5498004631021327, 0.21350725612972915, -0.18939709128559848, 0.26781535649333355, 0.11802307189261119, 0.12359428860583732, -0.42113937581190874, -0.021795502084454216, 0.28262195288935205, -0.3196588646087648, 0.101508202609026, 0.12727981742242622, 0.298235655652016, -0.5616861442128109, 0.15411460388728707, -0.2131737636338325, -0.4002998283449135, 0.016927428986731684, -0.317731684708454, 0.344163186037376, 0.1532204862708743, 0.176914421098674, 0.20326459400262642, 0.2074908512506611, 0.28809640091993444, 0.2835998833475686, 0.025418011064404864, 0.18693006313269653, -0.2866373366279999, 0.3006736764118813, -0.2583358981572261, 0.10438305756458183, -0.11506104681847329, 0.31111242043488896, 0.4438155054396157, 0.11591570903493265, 0.026815635366512835, 0.04305407249765743, -0.14060154303684583, -0.44994896919580973, -0.6001211072761932, -0.41447969439572646, -0.39385609158144547, 0.17264384165404867, 0.5304459572418804, 0.060771049806280855, -0.0028178919933186186, -0.06228815064466856, 0.4994644126536195, 0.4691738865356016, 0.32945483527787095, 0.4048649617496805, -0.27901496970647016, -0.35843768340557125, 0.4331303355490554, 0.18434019137252775, -0.5568256336649019, 0.23404110817990478, -0.035752526758859475, -0.10863505002317847, -0.20999378761881848, 0.10963874218779135, -0.07321578719098942, -0.4441874791432184, -0.5078365839434394, 0.028901291829512663, 0.2113200189402197, -0.04041748338328833, 0.3364957604697753, 0.08174628266243375, 0.35727437715719357, -0.37201762708345126, 0.13998043758527018, -0.33761097291242753, -0.045084437015445664, 0.37624087144120555, -0.3399417422780953, 0.4050370210367707, -0.18083337398640245, -0.335382760645357, 0.27434908823233145, -0.14981329561222023, 0.05642554909479041, 0.04601889653026626, -0.14094384051850944, -0.02907340545761137, 0.3371214696653717, 0.2839989032939152, -0.36990427921719393, -0.32756058324621373, 0.4156432097974423, 0.04610604085340619, -0.23822055296400282, 0.42008265035096304, -0.15976877138827716, -0.3194996241055824, 0.10692733142842871, -0.3718636528956439, -0.5302766216746988, 0.15804374701090199, -0.41060859923819965, 0.19413922531547168, 0.41510186024948154, -0.25735574128664596, 0.40264052231152503, -0.25820462697233193, -0.35965805830328607, -0.2955771207119953, 0.3492495963376362, -0.030637729645554782, 0.026699304338453824, -0.2667667925263216, 0.43041865301694, -0.12650337691144015, -0.18431105320392902, 0.4676834345812828, -0.38951422424501403, -0.4056749702722332, -0.45929568843559, -0.24360010012359046, 0.057149311976850206, -0.2893083965610583, -0.14534318532991353, -0.2478388867053337, -0.2958455653283831, 0.27406310697710257, 0.20471620627682433, 0.0008687887152530714, -0.06170315255723899, -0.3791287560801346, -0.10130829436968794, -0.33840565677104206, 0.027083594758007683, -0.39297899853852364, -0.20341948229448548, 0.563854593237078, -0.28649338690978327, -0.047379154052427215, 0.4714023308030085, 0.42583987493918496, -0.34138940377503013, -0.07368031315619324, -0.3229473316228178, -0.17361755518577826, 0.008669845352517691, -0.04201230762934305, -0.09106591366831707, 0.29167891760583975, -0.3861990196915101, 0.16529717156964244, -0.34625551282378936, 0.16947197661598298, 0.15043560041612353, -0.297429593295151, -0.3160191558902637, 0.11911397208586767, 0.1597004232995425, 0.30654205036797233, 0.11741113115896572, -0.44694224019622647, -0.4186894050831482, -0.3112198960246714, 0.42494082440028236, -0.4002266839473241, 0.5007128446888756, -0.2043635169947909, 0.38111800975093685, 0.38144866887990597, -0.4705372480953227, 0.054615189353222744, 0.44403179205657284, -0.2725286017353876, -0.02021417135645287, -0.32134636144775985, 0.33639527463156627, 0.38409776521919314, 0.35954951664149226, 0.4528744271472792, 0.29598032061216706, 0.3584859719738037, 0.05256952870336475, -0.28639940592725993, 0.4169745448641953, -0.4508075086331046, 0.20986635567064962, 0.03342991109989148, 0.14782595164319146, 0.2886361913055754, -0.3935743383142177, -0.35031227104047197, 0.22927107000651759, 0.10490124228610394, -0.06209834296552367, 0.501491729769563, 0.06403779240601748, -0.12842756658290094, -0.3575254668361745, -0.4446010452866317, -0.21774502330316592, -0.4487268871145821, 0.03460988282876454, 0.36424621905281973, -0.20023926940200576, -0.41178728647053076, 0.029948804302071586, 0.2074181235239903, -0.36162074622915696, -0.101143316931462, 0.29625728953015906, 0.24249820697744465, -0.16072115953067137, -0.04136548280252323, -0.2127714885070524, -0.0992393200437868, 0.08156362206878098, 0.10317201523468561, -0.08878209402265115, 0.1462974306880621, -0.3145740886974526, 0.14187092618807887, 0.014825663475526156, -0.1180134992686852, 0.3573778120692933, -0.04406423495885238, 0.03259994602697617, -0.054589239479775786, 0.28419191040777647, -0.4325930544360478, -0.12698103981210507, 0.3034524745315206, -0.3813659036993011, 0.16990706443666526, 0.3352209255895082, 0.03951013636424028, 0.10746335302136256, 0.3171131554052007, 0.4439840615598267, -0.09394278501884422, -0.42897498979526594, 0.2787804410639122, 0.480561849838093, -0.05787199250999899, 0.15732720213213447, -0.04954543365111518, -0.03853026368670107, 0.37641234497823367, 0.37408205060980193, 0.4751369866026971, 0.2841202364857209, -0.19237626882632353, 0.017983013820073945, -0.3425185990015537, 0.15623310581042948, -0.09099417887650463, 0.24737953821473868, 0.0058244198722794405, 0.29552168791081757], [0.14744181215989216, -0.38069059837504793, 0.2516209230982951, -0.34890008565325625, 0.27206884265898224, 0.4999542569120258, -0.11931487634196847, -0.4354630581214083, -0.07887091083471665, 0.3556014335759793, 0.23457735576839667, 0.4952296304725117, 0.20272596464825332, 0.22948558917920459, -0.04078717856996261, -0.3312016939160136, -0.0568175335226796, 0.3394561762186362, -0.41804062885835036, -0.16476506016106418, -0.47928004484703135, 0.3688356611833019, 