{"layer1": {"weights": [[0.4818018890132608, -0.2065799615414029, 0.35389123530805544, -0.03926838062674487, -0.45568095535440833, 0.33304615655306247, 0.37582814989352575, -0.14806506458929092, 0.2564204283702709, -0.24921685680604577, 0.05268757695064308, 0.17337016877289468, 0.11655287347241172, -0.4648043657954939, 0.33382213049170095, -0.25138710572177214, -0.12031625221392817, -0.045821207702800626, -0.36721686327269865, 0.31507902184960546, -0.3542255282108171, 0.3748870730176683, 0.09845258675355151, -0.3776075630603881, 0.1967764104608717, 0.18369399242798656, 0.3348231061425524, 0.304984836888776, -0.09046883797540084, -0.33441083763335666, 0.3726234708062347, -0.47304993249802973, 0.15956655078859106, -0.2814408174006361, 0.13165077070342313, -0.14377341980515035, -0.2151444657671051, -0.27386591140906336, -0.15615503324149438, -0.07335575590960064, 0.4763788409663633, 0.3614473245877141, 0.028835603399903986, 0.3405277260477565, 0.3094754294785039, 0.023322906015771805, -0.30861642487223395, 0.4989167153360905, -0.20161534862813124, 0.0369876353947029, -0.15047367718597993, 0.10800901159166709, 0.2628667330191121, -0.46737756912682105, -0.13183308889587841, -0.4533993549428983, 0.31455640551522035, 0.035828240336713835, 0.3986429460841663, 0.05431467846555482, -0.4296148153176901, 0.012763652236333245, -0.24337843152513894, -0.4057102140098381, -0.305570420147784, -0.36331881382894665, -0.40231308547746647, 0.1435271531182374, -0.23658246593739868, -0.08079341350754765, -0.18550068364858677, -0.4448709196590878, 0.31764702538106315, -0.17597674174227612, 0.08480701939239534, 0.05194727779023452, -0.022203100358269848, 0.22115320631251986, -0.33242818627870196, -0.4557571575237007, 0.41200225638003135, 0.4517719543303661, 0.20308152327375617, 0.12351428282289234, 0.2560138631387576, 0.4591063609335245, -0.36093923192519406, -0.3092922420239289, -0.1305826862011733, 0.18575299496389208, 0.33561799364825534, -0.1599998838541214, 0.4698291933744201, 0.2921738876001312, -0.45253481885383384, 0.28399169369186983, -0.47521376747628524, 0.31493428883405983, 0.33142749102637914, -0.09963532288991271, 0.044531581141519276, 0.23017963498840524, -0.12324306172532686, -0.45294180246446736, 0.16364369181071736, 0.45331637076276776, -0.3347225915331489, 0.14977157077766046, -0.06570977069003682, 0.4537406479922253, 0.32436975103241705, -0.07269666615126846, -0.4506362769905369, -0.10163785562094663, -0.10295921179562972, -0.32617137743284397, 0.1328709371173338, 0.16720843120848666, 0.02887181061050361, 0.0043659834005427825, -0.2493534385935662, -0.05953116331286129, 0.2584301112623215, 0.19630897919976298, 0.2761380695206555, -0.11687032182033259, -0.32661593747988377, 0.21016542580373151, -0.026225580852167852, 0.38240855853637, -0.3114620102355035, 0.3110361229917174, 0.2063345691794538, -0.06399357921684196, 0.14278591990659642, 0.1617065052324576, 0.20977977607630274, 0.2780178781712077, 0.31758830123448256, 0.37760852844251347, 0.11766124259110489, 0.4557476712644426, -0.30312421952326896, 0.0441463148253837, 0.10814548948279544, -0.16146673077794094, -0.4374784250108664, -0.3493320617116355, -0.43147070519084524, -0.3213605149417055, 0.27686660712549704, -0.1130799599549615, 0.4221645487626526, -0.13925472886092055, 0.28095928006350995, -0.5109375083140958, -0.03864818256481777, -0.37717691265760456, -0.39809814661963655, 0.2135578172431972, -0.14831743726946622, 0.41076169785997624, 0.3396574916407977, -0.0363247529572944, 0.06070381036541711, -0.43949095809754746, 0.4513800139351133, -0.40220677631264934, 0.10014200259203121, -0.0644741339285202, -0.3256923368911965, -0.20080125894746792, 0.18135542290506673, 0.33877853873204844, -0.08586936161637829, 0.34823730532470404, -0.05669912004850236, -0.295070074164911, 0.29922402614076565, 0.031214150033829026, -0.4729569951140912, -0.3250346256222373, -0.2494973093559819, 0.13515910107292275, 0.2816706437678025, 0.02012200635639781, 0.36888533847921623, 0.05336068088051089, 0.35486900128887783, -0.22804641436948106, 0.26073679875125116, 0.48419678601739446, -0.1563360391049592, -0.3484779757555142, -0.3390932250956237, -0.40093308530399485, 0.32890347978778556, 0.05534796421479404, -0.019402890536107886, 0.00553519916556422, 0.45557907887742316, -0.3671428370996069, -0.43148437427907677, -0.15386038500558333, 0.1114765416924481, 0.08594011475339434, -0.4678223877186584, 0.044130319007110515, 0.37511501265433667, 0.13711401520152058, 0.3485211096103487, 0.026123783348598613, -0.4343386027674788, -0.04591349330602675, -0.5204453722298361, -0.36842420315371316, -0.5369434709437801, 0.05294687128548519, 0.4671144035990625, -0.033779868961381604, 0.13038333116947318, 0.422402885507223, -0.48323029157973146, -0.38819354692896557, -0.08003568262792515, 0.3231144849772126, 0.16238992958091714, -0.3805314950618487, 0.48272519140476106, 0.053345732160577634, -0.05083911812870397, 0.23624643710213086, 0.42661011197210663, -0.012220814730839037, -0.46186582898752143, 0.4305027304444459, -0.4367083505314592, -0.048832905680298924, 0.1442752053929751, 0.19779521265494282, -0.1648180011158062, 0.2958155968140674, -0.5243723353799328, -0.056584277971797256, 0.15495187839378444, 0.4520731616027649, -0.4178784703423679, 0.264722099598312, -0.43949341051747937, -0.38450999329838126, -0.10313996151736812, 0.2675281299088488, 0.3338035988726612, 0.04406483168376085, 0.427424396711957, -0.1603619122914607, 0.02734176598761613, -0.11657989672572494, -0.3698359121392647, -0.04692788908286564, 0.15827276781010677, -0.18805713765517762, 0.13258389051087904, 0.18623273524242015, 0.37432908982863017, 0.47903193060371424, 0.039474716390327756, -0.09215102482089417, 0.22838441608491875, -0.4460418785132192, -0.45021135442113913, -0.2324388268419645, 0.4612143648045644, 0.1547352500153891, -0.20554401777813552, -0.27861733366798563, 0.01309695002810641, 0.24408989086386568, -0.3541032396775685, 0.4919879945181232, 0.011916135799632355, 0.36492547372265116, 0.4278654323936525, -0.36114307939645635, -0.3795421907639549, -0.17058347666087278, -0.4370934618137083, -0.3185422697763156, 0.11774606100430676, -0.31413332051857185, -0.07216488890744069, 0.06201720179355831, -0.2891386937019615, -0.2202669209794118, 0.17116771251267118, 0.05151651335525811, 0.4638444642619769, -0.40521061900736605, -0.3103384017839364, -0.017873262357292755, 0.3730531565306648, 0.4762103912201827, 0.055952917387314574, -0.43573550801957567, 0.4534429455883664, 0.16816674121388148, 0.33268837991399647, -0.49756500169863976, -0.3062976093087302, 0.25634411194483153, 0.11898532351705882, 0.43635264304490906, 0.110094578553603, 0.3570426212784487, -0.147201180545585, 0.02905986091309808, 0.19948176697574987, -0.44518309683437096, -0.30734539247417464, -0.4955549884805803, -0.40859288175186437, -0.14967639971346153, 0.15640233831274086, 0.212713030643191, 0.4029665373532567, 0.37377623995617953, 0.16052724543273608, 0.004843624031345197, -0.20375595024051157, -0.47815232260694074, 0.028187768577287952, -0.1801651457764192, 0.1876418660716783, -0.47560252668118996, -0.22759386092974954, 0.06747077417042435, 0.32746914024413754, -0.3894393037400887, 0.0007098682289675695, -0.456593588021985, 0.16510359662363966, 0.3225290837207976, -0.3642816956777714, -0.08643376127852777, -0.20401366471382915, 0.23116118768991664, -0.29917263957014145, -0.10468281787664321, 0.34442222465542144, 0.16554764290196725, -0.08244980414151541, 0.09816021896971652, -0.13227739787464582, -0.38778817333966975, -0.03386659172044953, -0.4109385982858269, -0.23330720150098314, 0.3496284680096576, -0.48214218786328056, -0.06222381076063072, -0.02689018406623307, 0.39226116858007104, 0.027904019997577346, 0.13870469319133194, 0.2673706785012341, -0.3751219461738393, -0.08766862079827398, 0.241705442345968, 0.1761165264476879, 0.11456587679410801, -0.42379156895206616, -0.27057213898400934, -0.07758056119645931, 0.25678539227122404, -0.14397429312021048, 0.20983510161442212, 0.4862303589155278, 0.19792435353541918, -0.41810440964133894, -0.3610349378642568, 0.45393574634562395, 0.2511517565012149, -0.22035258668512972, 0.43755479320067053, 0.1801452181147975, 0.053048826642246374, 0.3215129063433244, 0.2648689198228474, 0.06814400670430056, -0.038957129516218145, 0.44000792961704704, -0.43374699676560224, -0.20968517489029737, 0.1850297187982871, 0.06349634869586485, -0.014310684020092048, -0.08528313270857689, -0.07751588764084079, -0.11586050044316502, -0.42132973604871976, -0.07837079682729364, 0.42809091428326956, -0.07339972037548384, -0.2868205113005909, -0.42819076777282905, -0.3024186736891298, 0.12987341209413394, 0.13111717799416123, 0.15874398947972512, -0.06281546267658307, 0.3579371732123667, -0.03740122288642814, -0.2150312368941928, -0.3123844250824917, -0.31056091051282175, -0.47198884174590194, -0.46027076399238115, -0.31820453669412013, 0.4089026286212266, 0.19901344593034587, -0.4344457092198625, -0.33108700431330096, 0.1486033028654139, 0.19296600690777843, 0.08518831283382715, 0.2229618487167817, -0.48656265800436016, -0.25198776282189506, 0.14405613301106246, 0.4864452680945992, 0.014081809141350144, -0.15555854822699108, 0.18658126042672335, 0.16220016106256485, 0.11666546478182363, -0.020218146709217948, -0.4817477908568083, -0.16935737504010814, 0.28261867280657627, -0.1349903380997618, 0.12162974433817064, -0.1612198862665787, -0.027793688423306196, 0.03423020253646596, -0.30895424071532285, 0.031808613622659694, -0.4895889612418355, 0.0889551373563231, 0.17783830710959403, -0.035045446620662446, 0.3005054330278085, 0.42705559606726257, 0.07584555904586034, 0.39791868039457273, -0.16421214872551396, -0.12223525057989362, -0.43855270005646235, 0.35349537847338214, -0.4724605131714766, 0.4220809893236944, 0.1917367267578317, 0.3423518738771227, -0.23831478305471895, 0.0645163582352181, -0.3214245083572891, 0.09365119744560985, -0.4437633914635538, -0.3345767609727856, -0.1038930253313944, -0.12843260589752561, 0.23794752475970693, -0.2527067258970769, -0.1653493459393794, 0.15821286327824086, 0.26254809419784597, 0.3115049764936433, -0.2210748555981068, -0.441276149102258, 0.10889380774893168, 0.3171705175979541, 0.06342946718266787, -0.24070448420265853, -0.4789417635048976, 0.28281660583265883, 0.11805854645870274, 0.08189210457149265, -0.09058421410860283, 0.34976658041032327, 0.12118125508650747, -0.2824183889032491, -0.29679077306530416, -0.3722788420176799, -0.0868171327713036, -0.4344347020529171, -0.2698796142276117, -0.26908818632295084, -0.34150593150067865, -0.34601315167768765, 0.05331426816859754, -0.34286816240719803, 0.12996930850094093, -0.3514244935171161, 0.23446897956394008, -0.17222780075344313, 0.44592765438658255, -0.40984350407109893, -0.13144027989089052, 0.21067022645706177, -0.13030767384424435, 0.3348629019460683, 0.250958000552133, 0.23386011887513483, -0.07609090481198041, 0.4311936890387404, 0.25631625556435955, -0.14643353426260258, -0.23671941683157438, -0.20777542448441455, 0.32395793929063843, 0.017092419403850086, 0.4731827302122108, 0.1885317376880007, 0.1997057822236885, -0.29769313353192106, 0.19539373198492682, -0.3759678604467236, -0.05464752219066737, -0.26200433795913775, 0.054576330430114076, -0.3957500026452033, -0.05616747265860411, 0.13864912217573577, 0.4278767095696101, -0.45471101891961785, 0.2734304648298375, 0.3995656585504809, 0.4261720495174008, -0.36291433234218656, 0.35545660124921696, 0.1214208225062078, -0.5280533119188687, 0.11986105217076655, -0.4049764553873991, -0.04734140645652375, -0.15913506429136914, -0.31797285091301336, -0.4289026780326205, -0.1595864390370456, -0.25834931384230075, 0.3007334710530851, -0.47162798345293694, -0.2165870944401706, -0.11623657883298075, 0.28638389769034883, -0.3832786241888135, -0.12492514079829135, 0.07423308395087755, 0.27347240692518643, 0.47759520482647266, -0.10785566244627554, 0.022028771093605237, -0.4981294262015803, 0.3126637919629747, 0.38510272102035487, -0.28864605684710964, -0.15787041843398197, 0.2643372383688431, 0.3492877713139667, -0.11092586688261195, 0.20939090212586037, -0.3329320370586934, -0.024807085467464615, -0.025945165608289546, -0.1454779112389782, 0.11456401033413902, -0.13231979870045796, -0.36218802546158263, 0.47485916933971484, -0.07638008218637478, -0.20581997315381778, -0.2207199691549804, 0.031151518858961454, 0.2955144423757345, -0.4886731053904274, -0.12282541332147258, -0.011865241857933117, -0.4415753182038352, 0.32794958396343965, -0.3623664864894387, -0.0003359525847793643, -0.35529515957308644, 0.06121579681145815, -0.044846456142142756, 0.05806986766456362, 0.3369479279491, -0.44219633783297607, -0.3379216241282339, 0.34300107419092046, 0.3412996451984114, -0.5006591304069467, -0.4912172200471346, 0.14853235965336586, 0.3354377693429741, -0.28205102068800697, -0.09818844708664715, 0.040966477089342694, 0.33451533569252057, -0.2397565723623328, -0.0573314253415585, -0.38028796800602493, 0.08993347312971688, -0.47381232539388624, -0.17327285132343076, -0.044772396010840786, 0.3999509696838769, -0.09341053196091209, -0.29030206368801936, -0.22187626215138512, -0.011760402997695096, 0.4021175738641245, -0.23956261629089012, -0.22264841597111537, 0.058303192001739924, 0.29745864023073176, 0.2889260064035656, 0.4484894737845418, -0.0821844861630824, -0.2258770862464648, -0.24449089119163003, -0.3177558636503308, 0.17945017113537778, -0.25547334519647874, 0.21393938231736961, -0.05720719169898032, 0.3935856987817067, -0.04692790603286225, -0.337624135187285, -0.34458602167072566, -0.18855015178699533, 0.4938465185599813, 0.42740548088970776, -0.17934380535887295, -0.43102698742482914, 0.26878322290040857, 0.127712918930723, 0.20242377403014267, -0.27977408836201334, -0.41426017196360465, -0.31669472237868107, -0.000296022900420512, 0.24798943926256511, 0.07976540550938613, -0.15430320931500346, 0.0932089473575979, -0.20485562486942197, 0.17396806862573427, 0.3691405904212895, -0.28616355580947916, -0.06078133679951179, 0.11184412145016132, -0.02457662310745941, -0.44308762336552004, 0.038009725937376594, -0.3575808254471059, 0.06688152179187316, -0.14144838868164075, 0.15647675313933063, 0.11339052757079084, -0.09430993266420112, -0.2664974386385576, -0.4948835282661981, 0.09870454812312202, -0.28662668153210824, -0.2618111414197084, 0.3925905777917088, 0.14636546230144343, 0.34282681106452323, -0.33080142866972345, 0.29554324900266293, -0.32257823839597183, -0.38200183166036517, -0.3814270048760777, -0.19934606559561988, 0.14958732379336778, 0.30337034166790927, 0.08749847316133465, -0.3765449276525428, -0.2581646572401718, -0.12616411058902322, 0.2963365124273574, -0.44487905216338547, -0.05721272900048042, 0.11549601827773051, 0.2662796421026073, 0.03224758565571695, -0.041546343388284605, 0.33944496756457476, -0.07662716272216073, -0.3716220119648093, -0.42577583470085767, 0.2375638342765145, -0.25459150793230545, -0.2415908918233971, -0.27831125682867996, 0.0006094161655654013, 0.04941005538338579, -0.45549493319515466, 0.039990371379838574, 0.0022668231988266264, -0.3456073741341887, 0.4290022459546759, -0.37984986031927476, -0.08246307344083745, 0.2125460643206491, 0.4078396191493977, -0.47552059873155605, -0.07800717556670808, 0.3889884761697605, -0.24948292746132864, 0.39920649167114264, -0.33238495084937786, 0.08181556924371401, -0.04280830748640563, 0.049313815147199125, 0.13189524237198708, -0.45034402437146887, -0.2815681838194263, 0.252076352333103, 0.40409274031273335, -0.3252531059786551, 0.1206059072425163, -0.13861900834042018, -0.05949063260978127, 0.23731348873228209, -0.02030342411779118, -0.02329282340371841, -0.13364865948451343, -0.19713413185741946, -0.06599492449325384, -0.3521960956862898, -0.24666908206220015, 0.19307130520094268, 0.3277462989663215, -0.05054938700109359, -0.22962257236091788, -0.4829465215269854, 0.051027860738873214, 0.2298384867096937, -0.04537365533364246, -0.019886974715185857, 0.21207268614179453, 0.08758803917152591, -0.4426165359903962, -0.19762484135373082, 0.3591576105613503, -0.33711655715812405, -0.07702300441365573, 0.4620393934319279, -0.3744571510814293, 0.04380851554012577, -0.32638589748968605, -0.3592914668856624, 0.36238747342556943, 0.44813255485979797, 0.02255990884813619, -0.23991518940909962, 0.22990956487666536, -0.4809121050006684, 0.09675445684780976, -0.43234359991480736, 0.27299604073539957, -0.2958516163509314, -0.30745365958617366, -0.10181103475872255, -0.4627196959301413, 0.3121633407545217, -0.05907083079387809, -0.15980901012292403, -0.13296389763909144, 0.05777334519926902, 0.013144698958133305, 0.4461537117727564, 0.25576180660947434, -0.10340384781752576], [-0.27545646999899653, -0.12774576668331805, -0.4946579724088256, -0.21488460754643712, 0.26756739653034056, 0.15512497370724532, 0.05980304589277008, -0.4602879591633958, 0.35608554110215584, -0.22901732315231538, -0.46800405044853255, -0.036879022833481656, -0.06100111105293238, -0.1608705608899893, 0.253438829847068, -0.3255219349710121, -0.06397589868417786, 0.48343561045417127, -0.031865877213789306, 0.03694575465996175, -0.4008635298280566, -0.14294397042735207, -0.4434885423654281, -0.3989572199045428, -0.47704934857592574, -0.0963738737804033, -0.3392712628730795, 0.2897265280346414, 0.11965546140753247, 0.34893583388380667, 0.12851323657476132, -0.25175684787258623, 0.3656283620493227, 0.3003125409489573, -0.2861553312990568, 0.14792387688008446, -0.13080685378662127, 0.038105715079721936, 0.44526955524910605, -0.326086275044424, -0.19852859562363984, 0.10437664736675521, -0.03583853846766063, 0.13950020546939912, 0.44733209085896175, -0.04415740633966687, 0.2883209358246133, 0.1116841371743625, 0.43623516964007747, 0.03740627676308472, 0.1671331204182137, -0.49099724268510947, 0.443282493858959, 0.14009008811642043, -0.2880242883022318, 0.05409203040976729, -0.17721022380247353, -0.4626576663025742, -0.4977779943430116, -0.06063287435866438, 0.05848674000935383, 0.16000803685323983, -0.45299308583916087, 0.0703353280049157, 0.33723093728100917, -0.24542506805728134, -0.46722232935500513, -0.4738152968181083, -0.007716676702220719, 0.259875541391056, 0.17295894322582786, -0.12305091828876268, -0.02324058684656968, 0.18487168039654095, -0.3053293120387569, -0.48557564675998305, -0.18765479728703174, 0.23388972259265084, 0.0910580272060414, -0.1344025759084685, -0.10716946779391186, 0.19737284451553627, 0.2085394922541315, -0.2240124304172556, -0.29870143064732024, 0.1184438051302038, 0.2976975442162977, 0.026335066956986175, 0.27779512113760785, 0.1830475873437426, 0.4318543566331794, 0.31004076504428724, 0.26762460232756136, -0.027462042990660313, 0.4714536601813787, -0.3497251165324395, -0.2787118481689556, -0.04771922813947924, 0.13709526938731398, -0.12552787583802646, 0.4331356303889522, -0.18734890553431904, 0.21929377296419142, 0.11974208642238922, -0.1566489360885801, -0.08343655998127929, -0.4896860950673793, -0.1372214344951116, -0.46324974609650565, -0.4571253841645997, 0.20830814369662998, -0.030519378257927943, -0.2101906833145467, 0.46919461565906284, 0.3214719271688731, 0.15081056418597216, 0.23892201202755853, 0.4270496563734678, -0.27554685316354766, -0.2814311254223235, -0.34165807212042154, 0.17698481754401732, 0.19661871959810676, 0.3509007926356486, -0.4167711608748808, 0.21797514437357846, -0.029930345154010152, -0.29943744657306137, -0.24678989645669472, -0.3964483578326377, -0.2826131617653817, -0.3480325143763806, 0.04819884758889884, -0.06953822198148044, -0.4627468730591848, 0.33477641486304366, 0.1997882530503084, -0.3267217403661974, -0.33932607692590955, 0.10895529298232531, 0.06419850645867187, 0.01001343658629561, -0.21211790619912174, 0.3355135353225713, 0.013465018613549122, 0.49706973865488113, -0.38025536388592673, -0.02726408157720101, -0.2846975923573311, 0.45825695753820533, -0.30543384897876363, 0.23409289328834545, 0.3754018059521012, -0.39231459595480167, 0.30271263281149047, -0.017321801438798058, -0.1172056581024993, -0.17287134919215116, 0.42769533045483876, 0.3573866058058965, -0.21795964406897775, 0.37364021111986234, -0.422449739822943, -0.1577026893417285, -0.35877475477371407, 0.29587220300710904, 0.37696789346180226, -0.46538222892664105, -0.47448180774229654, -0.37548919841050465, 0.2691422880212026, 0.15321269774584342, 0.41606656969950917, -0.25015273747844985, 0.5038789753845511, -0.40561165291430484, 0.02290299577146555, -0.21348010864095907, 0.26847925759308405, 0.23734585356545762, -0.4278596641550327, 0.2634804891203134, 0.28572851383832, -0.05107943730639117, 0.46748953923377745, 0.026595540002657098, 0.27195704259768877, -0.5198620466075067, -0.1631033260578695, -0.5560733198655577, 0.16370480779919322, -0.16958884098480997, -0.05571589580955242, 0.4858544900659827, -0.4682576294067824, 0.4090059164129233, 0.4753321587811764, 0.20764702815598463, 0.42898374954254787, 0.24907640947047074, -0.3209677540556431, 0.32344988226737476, -0.16283984409201446, -0.23867136595785854, -0.3756387559356357, -0.47766103218471234, -0.22674276780204705, -0.46474298972098377, 0.3262526672390315, -0.36759866023655674, 0.0380643925800715, 0.33873706740215326, 0.39849715258307594, 0.1833823292771996, -0.18197258856799528, 0.09979445799335862, -0.5336681949857481, 0.12074900595771536, 0.20444123758076027, -0.2086668712550588, -0.5260570560466552, -0.4135886371046151, 0.3079321816603146, -0.29962598705962307, -0.11734292770264798, 0.15600989386638198, -0.16032178998803012, 0.274012933239877, -0.39921212991346794, 0.33356188915419366, 0.24312905200042903, -0.0016081664732906843, 0.14518669240069698, 0.45440568412248494, 0.3603818118437781, -0.016247343466305762, -0.4283375878587127, 0.44245629593451336, 0.5047991425962691, -0.05280934142867176, 0.2680317235085031, 0.5340109786311082, 0.4873245640744405, 0.04133253755986727, -0.22828625309637252, 0.043289814767304154, 0.17549878823762327, -0.3125505630805619, -0.16960991189458421, -0.03195563444781195, -0.2369113854324241, 0.37438508137049087, -0.10379008670062717, 0.26595041955337295, 0.10752840144333856, 0.042110559932502414, 0.06087887634507556, -0.20676323556432796, -0.4752047704512812, -0.2822123083178958, -0.3825268884776789, -0.10643864686142937, -0.2247122971902084, -0.35998430160009504, 0.3165339816089138, -0.3217004534486027, -0.2159454743400328, -0.08593625674678315, 0.27544719518337424, 0.3395182792631477, 0.3451070342128039, 0.017160968003403866, -0.5218647225672951, 0.14538966536516373, 0.0991544760082845, 0.08617513139158658, -0.302600048088698, 0.21028335395519493, -0.3073680973820377, -0.13237188009544787, -0.2050697217443499, 0.45598456468932164, 0.054169476248873534, 0.4369068534247125, -0.39052535129050836, 0.4704369693988761, 0.22888951468654792, 0.049474029023756645, -0.08326780146561584, 0.28091834325114057, -0.46642008678262775, 0.10070763600936483, 0.453947951641545, 0.507201020977021, 0.19314238718788954, 0.1431886368605783, 0.08586486286075727, -0.335763040456108, -0.16196440302482262, -0.2771246074981657, 0.03986545736464824, -0.22773823130307452, 0.06771452954420665, -0.01495193700031568, -0.005576002445392604, 0.3413511767913578, -0.11405802921052183, -0.371379524485259, 0.2536815729649371, -0.1799984631981418, 0.36749137472731846, 0.018441128567011158, 0.4286846002068975, -0.36558901050690984, -0.5270864040633996, 0.07956066247900595, 0.3698786492006213, -0.39696478982743, 0.34363836606632614, -0.3506539088768325, -0.22002768017282132, 0.021880601059603932, -0.05027219257242133, 0.1960611497286984, -0.25553973140477654, -0.40435687509228874, -0.376117426317233, 0.10841276520919561, -0.30236398337654186, -0.4592404901958225, -0.28323396028658304, 0.18859815529294094, 0.41080296639407177, 0.26416301866861497, 0.49448118163406996, -0.12513431383770135, 0.396479114678409, 0.15602600059414534, -0.05991073139719492, -0.07545189151617482, 0.3395750915685075, -0.27467054358768, 0.3321454041339619, -0.07741509602555531, 0.08457170227880141, 0.2683972658981691, -0.006238793022558969, 0.2261512441386191, -0.3055311509308396, 0.2516713374014509, -0.16440041644821635, 0.4935495772360037, 0.17008581755830607, -0.3915230638124878, -0.2620503309293476, 0.029492376797597124, 0.4531520911367104, -0.44766460127877583, -0.47098634431812275, -0.27689013403524726, -0.22536775623345587, -0.43626110081951697, 0.014000826685837079, 0.43442840526761917, -0.4578253469220165, -0.19211151511994629, -0.18802667996452183, -0.10649772334259777, 0.3018636193641935, -0.1297451498726424, 0.15204074098009396, 0.23045704334451397, -0.018544647079703144, -0.062047833615699086, 0.05927442172430939, -0.22613803909878608, -0.18613418255781605, 0.386413877164083, -0.35390994543299614, 0.31317055665449733, 0.4417451645139187, 0.5273842046754941, 0.005970258086971151, -0.2820732548670886, -0.12758405493497546, -0.09770669645224275, 0.3407307662429548, 0.07526228275430802, -0.3756754176948021, -0.201740579703745, 0.4283007762873615, -0.25370692083137925, -0.1532892415260323, -0.1324900616713559, 0.06486040336558896, -0.10698661529635424, -0.02964497598830276, 0.4385844562108161, 2.1642318114990154e-05, 0.06125029028721916, 0.2693521331247906, -0.3447821724094637, -0.21274115960319961, -0.23271520543517688, -0.39194723962186817, 0.14307285397828554, 0.3207161512571072, -0.4416166771217693, 0.2957492789485936, 0.05200387489771237, 0.3325621733796721, -0.34479798076546925, 0.375808915128504, -0.22783727182979838, -0.42319186579593576, 0.2166251638072066, -0.05812411933662894, 0.3560608460325895, 0.4272825515597834, 0.27832448649797104, 0.3570741034050946, -0.39658412934604936, 0.3774603638975794, -0.20229840033615495, -0.012525588433179089, 0.08875634776652873, 0.253487032241486, -0.16794521331845938, -0.22965754829081061, 0.06210139044478301, 0.1374555657577146, 0.1943303069171047, -0.2684034755377605, -0.567805085453265, -0.5038382719906778, 0.2963101274043866, 0.4520849064352757, 0.5260506661715129, -0.15575381851273806, 0.5675385189025564, 0.16964882858010594, -0.28984100551313824, -0.021982242675501584, -0.22697857163741572, 0.3871281040710104, -0.30693303288160334, 0.03051928238330578, 0.42333558586039544, -0.061199359360808, 0.2232473453380608, -0.10570720143073055, 0.057165142132463126, 0.2514280579104906, -0.2356131292507085, -0.43869923018226165, 0.04589338926388337, -0.2682471658915929, -0.0692690985149781, -0.34636646284008327, 0.1617635695650418, 0.06842077574582023, -0.4001248824525024, -0.08764807147339526, 0.1915074623895315, 0.02551855583686532, -0.09341745365016502, -0.10626108163580734, 0.19411590534352635, -0.39051211150845844, 0.30856705364027376, -0.05018872182863107, 0.25176602493784506, 0.11871600851318963, -0.25989437138664073, -0.08150401070967248, -0.26353968400257266, -0.1537981503830791, 0.06277514495115888, 0.3931481710550491, -0.0017231626693086004, 0.0504947341427581, -0.3634114052907292, -0.16502417261983757, -0.36661248943268177, -0.12630429855019498, 0.3001516382823711, 0.14679476188336674, -0.06888030755479536, -0.006214252997732147, -0.4631840301425907, 0.5021225541191489, 0.0592177071527597, 0.14493200590262917, 0.2663509322971956, -0.20043474598451802, 0.01042190898164548, 0.4703335125631047, 0.33396380808043397, 0.09675906935250714, 0.3061564291931423, 0.0914818505354842, -0.07713588876672534, 0.02011211475497421, -0.16482662045735474, 0.1297413350602915, 0.4555720463606473, 0.19468684673721057, -0.32890734817492606, 0.41225288313217145, -0.25943383443856405, -0.331483422912366, -0.475570928732352, 0.3464485662534482, -0.1277637699460231, -0.1507620300265126, -0.4225745763788743, 0.3744902144362477, -0.39633318068812134, 0.2964410793656545, 0.26256971099433846, -0.39498753107836077, 0.36877793909881246, -0.29991901171878155, 0.4703642619299677, -0.484341123183044, -0.41523703645529314, 0.21769896392867544, 0.20521952469264607, -0.4737467227357114, 0.13064739677383105, -0.050647556197621735, 0.23152608020461685, -0.1633886615993878, -0.2238315735542431, -0.29699563364401055, -0.4113049807100822, -0.4132982401669595, 0.12148189501468118, 0.43307299817507766, -0.11071551630926113, -0.5468316633686681, -0.1147915885874522, -0.09537993817615648, -0.18465774288968612, -0.1955470653627551, -0.0942695773964804, 0.03473253965790109, 0.2998714567270538, -0.2273435070457533, -0.12403583617885262, -0.35106150633082195, 0.1038048985242792, -0.4969091557691301, -0.5267178656417326, 0.04189642163259225, -0.2564023092576274, 0.1713701591455356, 0.493702204818451, -0.1337385457110423, -0.4218173791128159, -0.2441771893383119, 0.4804660795235559, -0.3467463776605052, 0.24924713809695226, -0.16817638210934652, 0.4346457365619434, -0.5535842465560862, 0.3654320944062118, 0.05426233095960891, -0.03329859454860955, -0.5061821241364457, -0.26964913695638837, 0.013833401239174073, 0.49316822156567264, 0.27690707634275735, 0.10456989601681138, -0.3645406990813246, 0.3766817520386482, -0.2944553044796574, -0.10565830287724234, 0.39987831574762517, -0.2896803507159157, -0.48677628779395576, 0.3617259600305143, 0.45914129707198886, 0.39550046920535475, 0.2592815743419669, 0.2890581154632077, 0.4627030641952814, -0.3326265650863274, 0.4460942312049476, -0.11474845704307399, -0.38499510083371247, 0.29523008000321577, -0.43599286240593776, -0.05136392290143071, -0.4876728094903511, 0.3512387887186755, -0.1935892137965217, -0.02769351227894826, 0.4128466664276463, 0.301907282872357, -0.03713387319607549, 0.23554113738697324, 0.4588838748458846, -0.3770013664936431, -0.31679251746995585, 0.23881534516494446, 0.11716338983213677, -0.24368575577880627, 0.4497527021169224, 0.2542489117670608, 0.09785593014242963, -0.34549577204841403, 0.42233138848398444, -0.0712436320833425, -0.4382606009679295, -0.4134561334395713, -0.13070074266914816, 0.30492142052490406, 0.1781710983857506, 0.07740369629469993, -0.47292478948451394, 0.3168128889360342, -0.5174155261681426, -0.2649597842060546, -0.13420524827121796, 0.053642650022499294, -0.44008258584835896, 0.058703399935863196, -0.08801906716342013, -0.18730628227942672, -0.20737267921208064, 0.11852482401971766, -0.2845073729496011, 0.3020413347855662, 0.29518919678173694, -0.15372098033478518, -0.35921166857206355, -0.057895198794028574, -0.06877060662925469, 0.22297961635950267, -0.12057093375450122, 0.10225373790237424, 0.3339004526088969, 0.007752789646495617, -0.23518970317321286, -0.20581853779809495, 0.3903777730718881, 0.08061063958478767, 0.45872577737530706, 0.34169056116955804, 0.37380198003601534, 0.3032458066598222, 0.20560522615277285, 0.43257830042662976, 0.15696849027132576, 0.18612249896494715, -0.27971033101331283, -0.1903640317728422, 0.1217644430679506, -0.2984555227848544, 0.1112917348062329, 0.4369326444455658, 0.2860692749734306, -0.31911105483123636, 0.3186482349377158, -0.4498449606899201, 0.3436883122652687, -0.11010442308826031, -0.3784998437610504, 0.2768013164168669, 0.3257232547592752, 0.2023164284052006, 0.34453135047756045, 0.28613558438510245, -0.18625668782081825, 0.004824894550776676, -0.401043881664673, 0.19685923534806773, 0.3321375857880892, -0.1141691257801027, -0.2614919686891085, 0.3960004003138984, -0.4529545271307614, -0.14174065872694677, 0.17571524116221462, 0.24475321078634046, -0.4413153052335322, 0.15348397921859494, -0.47245773908400307, 0.1808397353845752, -0.03210450405404911, -0.16091542611405354, 0.4769816462609719, 0.1765185580337301, 0.11794767224006919, -0.45111309754499856, 0.2690984097134278, 0.2585625802853857, 0.19169747878104493, 0.10370071396686786, -0.29261069448379473, -0.4577579077980284, 0.3236349025970793, -0.5021350819351087, -0.4611462780183697, 0.4106710613245146, -0.32429836924743427, -0.26466255918877296, 0.2175320657244559, 0.31976667098422673, 0.027949238430395065, -0.37313604164808933, 0.301797052485596, -0.38946424051221, -0.28757296453407794, 0.4105952059425389, -0.39940655325409546, -0.145985207280788, -0.27334472172495317, -0.09620778412191265, -0.2474559604604759, -0.299317312990517, 0.14599941071818962, -0.1966349154980951, 0.20186873307940084, -0.07418581693460446, 0.09819439027256538, 0.3632446646484345, -0.3394436424738567, 0.03916077078263791, 0.3888976647237802, 0.23211875385336772, 0.15446818855494213, -0.10812332087380053, -0.19051512804343948, -0.3727019978519633, -0.31229372326082405, 0.23176483763103475, 0.24454010906869456, -0.3813760691170924, 0.019942190713403488, 0.20226377208037194, 0.2733411560752916, -0.31859431553442685, -0.12289654384523327, -0.1757834532988053, 0.21924311087812562, -0.3907071984852075, -0.2543083772069819, 0.14605031764264365, -0.29393396036834707, -0.0705169960638079, 0.4653822724744555, -0.2607683887234157, -0.3391845262903074, -0.030511329436163415, 0.1468423039993323, -0.49135713454719776, -0.44337011274204685, 0.3640265733990738, -0.3779684918089845, 0.25432773062440567, 0.23920794409536922, 0.050927895292303994, -0.15569698182211952, 0.39619554986522093, -0.429550863575243, -0.28639762103156613, 0.2725931258589036, 0.284175865331903, -0.12599719568009327, -0.10568095618426836, 0.14463538586691543, -0.389602908119922, 0.34858701743094705, 0.2558568945663675, -0.0935105462224195, 0.04507865088906249, -0.4746703611699209, 0.32416168240179233, -0.39867105627599986, 0.11202912971123846], [0.24476903250758786, -0.49774397093442924, 0.40321477495471736, 0.17948499223996772, -0.35593090732738286, 0.4849296103732156, -0.30997163731102506, -0.36055291366094255, 0.09124468386564433, 0.39382175875274505, -0.2433715323008533, 0.3688379890213612, -0.39659372232354995, 0.354005721705309, 0.10821218546168843, 0.4456769597670791, 0.1180652707114942, 0.3276822257774983, 0.35645993535481735, 0.06318012413086593, 0.4665545030290954, -0.1494859136662895, 0.08726765498470346, 0.3787497815134162, -0.2854986184684346, 0.16800961990717667, -0.26305896466052225, -0.22819974027188217, -0.2768254539736881, -0.27130639945878166, 0.1335797222078109, -0.49643597673565376, -0.2375108775895789, -0.37914841732357274, -0.17066671736730854, 0.2457407523313796, 0.09917230761127652, -0.42377286866690766, 0.43088106442905943, -0.26658689490153836, -0.10999167257845048, 0.01760466810678294, 0.41147257823625166, -0.48820335644447954, 0.452767081645988, 0.16321856544224056, 0.3184897630855075, 0.2947606315921748, 0.15671156315729678, -0.44283802375759296, 0.24479660606903253, 0.10705881493907177, 0.09211970925523771, 0.4572579086825237, -0.10377125999908343, 0.3459603316811092, -0.42355363150532865, 0.17280866739425194, -0.12109545572632219, -0.4535110899971866, -0.0964618356561221, 0.45743761231818225, 0.19445445296917838, 0.32737082522049343, -0.11837198688262132, -0.32654587782891153, -0.49051105795309347, 0.41330075132209737, 0.2151860935440775, 0.2432404378962325, -0.3071667873846027, 0.20081668448641002, 0.47055641529869335, -0.27261844117026385, -0.323966798774082, 0.19781728029895757, 0.3400177993901045, -0.14161305633649582, -0.3964661079320502, -0.3253686092282072, -0.40951829726714606, -0.1879503289119833, -0.4552623161410182, -0.010796939314094423, -0.20055181838296954, -0.166760187925998, -0.2903172249085607, 0.039739193843457254, 0.47783383331445717, -0.43709388339636684, 0.009260221584206581, 0.3317232498371202, 0.2209847806575655, 0.029446820575918374, 0.07276913687310002, 0.031172142491760285, -0.5130484137320003, 0.19215556020718483, -0.5131488257663331, 0.19706747623416543, -0.5151672823440033, -0.27096428018352636, -0.5076364587051795, -0.49832377970035985, -0.40029654510049345, 0.2944493883003693, 0.47167328862808383, -0.08694645327360041, -0.07510244074601269, 0.4821444592741453, -0.0016915938110566575, -0.43258380564481236, 0.22296869897758265, 0.24070360950915337, 0.393397549432264, -0.1221510959425034, 0.1582835557165416, -0.1277080053320762, -0.3292339878107015, -0.2702043182706374, -0.41294594558708864, -0.3892041608874706, -0.5407056233696302, -0.1156317126057777, 0.07798545076131487, 0.08694886761860074, -0.002521854364910967, 0.023760121578430975, -0.17670764931260816, -0.16586994188637855, -0.40686239259728396, 0.2501580272539354, -0.25703379836668505, 0.4343152456000839, -0.37125623036786665, 0.24555196571012286, -0.28205340097198667, -0.21881149169798556, 0.10524259896474386, -0.1863058567844431, -0.04458532184468322, -0.28839586442238996, -0.17443236776914395, 0.30590313527239904, -0.003056208016328582, 0.20362205743200087, -0.1614160554626194, -0.45805407642276524, -0.30959602687586724, -0.05119489550204622, -0.5084000733695295, 0.20304447155056915, -0.23015816674095793, -0.589033644045027, 0.35428672271397876, -0.39692236348773796, 0.3651140810573633, 0.36528304930170874, -0.3334913017267469, 0.127461498477508, -0.18475072801646383, 0.3682653119180501, 0.24849398717808857, -0.3915251342772087, -0.15436959781101303, -0.2146735810606654, 0.41023920099197897, -0.21728268702094022, 0.366929914045641, -0.2722665953276755, 0.276920633806397, -0.11607393530778402, -0.19990722586969556, 0.39365828566877137, -0.5119443425063668, 0.11303307569777239, -0.30913740772392995, 0.1937496113333598, -0.19239405990867367, -0.04674212668910929, -0.10490359061491517, -0.18799223100606552, 0.3674968608381819, -0.06009152976039608, -0.09214508619377888, -0.1529826220915632, -0.31610730105435897, 0.46028005976818476, 0.06908214332247327, 0.41081473651745376, -0.42528437065573027, -0.4200510170453805, -0.061157550571788954, -0.25743670353334375, 0.21872149249350178, -0.20844878667575184, -0.16194922481595542, 0.48073554229642146, -0.2676122065292081, 0.07892415244962167, 0.24117514176952232, -0.5054502533772812, -0.1328174904420898, 0.26306232782500993, -0.36047633016331254, 0.3353150415227071, -0.3049872751685416, -0.31951559278583536, -0.15505408735104928, 0.15412652640528438, -0.14810704935860272, 0.5070963324034878, 0.02096198935803247, 0.23317076943173556, -0.0040257242945420865, -0.25448223379464374, 0.08395712320596796, 0.2124626481156622, -0.06833788545855712, -0.3263694525526014, -0.21523472536577654, -0.2784273522501789, -0.2743640876686089, -0.27630843758238055, 0.12432410627786439, -0.05907429090641425, 0.17839724996998604, -0.3609391390339892, -0.34072739288506154, -0.3844553304536767, 0.21714813300061367, 0.13412374885524103, -0.0027487457880295105, -0.350075854760076, 0.36043510738663614, 0.5795438432045594, 0.6006265295267721, -0.24662259217039445, 0.44981921961927407, -0.44782574469176073, 0.4607770052863199, -0.011321889366453399, -0.3187333671667089, -0.12923115104877483, -0.10659693891939423, 0.4093530665507188, 0.011205148224370916, 0.08571046970858556, 0.2589721705085958, 0.23844574330236304, -0.40377254092319376, -0.18568308939031564, 0.31335044053306915, 0.2931736637498642, -0.14737474523895353, 0.11255030659579893, -0.3684337210307608, 0.41589103460035026, 0.13154493563939818, 0.22709379473420688, -0.29141081670014907, -0.23555621214806027, -0.00017322963393872641, -0.07764990206696758, -0.20798223269711957, 0.4812121134418734, -0.20557945571745534, -0.2909675688585178, -0.08337256944184838, 0.28754915480628623, 0.053527199701346284, 0.07638359133772445, 0.26701314110501645, -0.40288521296494806, 0.2740091552334881, 0.40867157868976034, 0.12261758455745138, 0.059975032419248606, -0.23091195110483217, 0.337251548847706, 0.41820074520769057, -0.03469447372299453, 0.4233562776401336, -0.3151253336812031, 0.3805173551630022, 0.3356924094886714, -0.4023831394828872, 0.06277742049064178, -0.20190447404046896, 0.3559792577866759, 0.4005774708895898, 0.6133610627590823, 0.46846476579516055, 0.270013271632699, 0.04920478346981557, -0.40423678385629336, -0.3408207519206238, 0.043729671780330735, -0.12877489088455207, -0.2505876502661545, 0.3254725007650065, 0.5171799282678304, -0.09927210844846457, -0.05988231841213149, -0.31989880871758475, -0.18436629497021906, 0.16765787145972155, -0.4003630672157688, -0.25111789880280955, -0.12719785361871938, -0.022541072270457072, -0.49923826171928615, 0.11785682646973437, -0.3136532553816328, -0.2670151183709511, -0.06306966046211619, 0.4942793531569572, 0.30604252257161235, 0.3687616203363492, 0.07113818220222055, 0.6421990412271288, -0.43425357938588643, 0.33867818920047527, -0.0269793290639998, -0.13234316321738393, 0.01043516810703251, 0.4762436364136743, -0.22078140716803973, 0.2344555508385167, 0.459896581173, -0.35798314444769125, -0.36953641417750227, -0.43788684683009027, 0.23184544684345015, 0.40327024989637045, 0.10488196270219963, -0.22326700376472874, -0.01879491361942755, 0.08545663921206442, 0.1955207415433122, 0.43516923826618514, -0.007013355680139944, 0.5382910021396698, 0.4124975411287606, 0.09874215020456346, 0.2573600560056257, -0.014935357350225505, 0.16823276054728978, 0.4327600673397715, 0.3270036090117305, 0.1003644383266234, -0.45203681193103346, -0.5664173151087085, 0.22756235024177937, 0.03766854545848363, -0.4217606029066294, 0.1908843207036842, 0.08973072956993076, 0.3292519531751017, -0.15124026322471523, 0.013275344533419532, 0.2500145417667993, -0.4950076337417103, -0.0630379123179976, 0.2870818939659523, -0.29572619454622584, -0.031431033135936884, 0.02909852943667672, 0.4652206316708101, 0.16952650876764294, 0.3333493753958813, 0.6116020171996202, 0.40227920590616734, 0.18402995762520544, -0.08189008323773031, 0.15791228100843543, 0.27711660609623157, -0.13436563005173577, 0.33521376561307503, -0.10786605788456466, 0.06874399614609969, 0.21517107723711257, 0.043366857128142026, 0.23522261671211922, 0.016022484575315042, 0.2920062133645375, -0.3986115309058931, -0.03916057265471275, 0.16556792064170195, -0.4313870776653112, 0.45057621890749766, 0.42013036111248625, 0.10490171472071774, -0.43925919368385435, -0.17412420422181854, -0.1052747531613047, 0.4936464648984753, 0.23159953817738863, 0.3650780366225554, 0.2837262750104505, 0.6743795258864753, 0.4965497007656431, -0.18619538296170599, 0.5900853931623774, -0.25968370636147103, -0.36812704043353, -0.3960445252465215, 0.45454550457540527, -0.10901174835634343, 0.2176683168096255, 0.37683930431428175, -0.042091774587530426, 0.49010351966194476, 0.14359292373422927, 0.5500821781708742, -0.1398571436589944, 0.19017861664177246, 0.06531503947360029, -0.1996202269000247, 0.16609965753983102, 0.14412039286929512, 0.03818166977496307, 0.13087758597770394, -0.2743936923192547, 0.4363679387236807, 0.20409714668069756, 0.19332200183543546, 0.2653550421454101, 0.38468531515001714, -0.12069524376529649, -0.10979598423372905, -0.05071221873566616, 0.08684509153902895, -0.3272690718054882, -0.5882396703374076, 0.3810230845471947, 0.4884475927366373, -0.3828591799708327, 0.38842084698648527, 0.07737625048676212, 0.14808523956740605, 0.00468540183979451, 0.15777375405777955, 0.025079878122031125, -0.05559603474902078, 0.4665127560954446, 0.11763898197961026, 0.19606508335167683, -0.11261732727927287, -0.14676501179712456, -0.4882797889515635, -0.03729642529265969, 0.09731538752337508, 0.037550227669645164, -0.2584851722081202, -0.05548510833207032, -0.05869222505732883, 0.39611897792980144, 0.25294092165413357, -0.26034494998758734, 0.20704992574040268, 0.2684663291485444, 0.17535167798673051, 0.11598668492363239, 0.3824609756654723, -0.08749349763126783, -0.28846576241692573, 0.3659951020624981, 0.157932155549539, 0.17469380882587812, 0.17355824621585283, -0.2888334757038686, 0.13768335366588005, -0.00033492036624968905, 0.06355521048704349, -0.2054951192242408, 0.08269724083002106, -0.4444361396744, -0.3046301962339444, 0.4420318059003157, 0.24179131038153812, 0.10548062429825583, -0.005926778596255194, -0.2562756668714119, 0.22967665441967514, 0.1737547356594636, 0.1522640963938505, -0.12249736956038275, 0.35040720595087227, 0.18513311821479397, -0.27750776024357554, 0.05138529852020644, 0.29901437339270426, 0.08527867610330561, -0.19710818321595672, -0.3912644466790083, -0.06314643114627441, -0.026968639558004718, 0.016422065225917527, -0.1762394116450921, 0.17452825096296137, -0.18495767636065247, 0.09771600065314368, -0.34304510194059734, 0.2944523485398802, -0.42865681244732723, -0.014105182214476165, 0.3244352708669911, -0.5546315419572008, 0.09733587386338871, -0.12367466242384942, 0.148051907197215, -0.27602477904284867, -0.364019948065145, 0.42125052939702723, -0.12012101069061586, -0.4165556189244801, 0.1603652452284741, -0.3336414743598696, -0.15202368215748682, 0.04807522879718003, -0.3670014732142147, -0.2329555347513777, 0.1409357369394852, -0.16534441980570871, -0.5342707986454311, -0.16731391575360358, -0.46539496566210803, -0.062046223124749625, -0.396332782090843, -0.2246951276188719, 0.06880157169634693, 0.06054358646215885, -0.3974966039672263, -0.21332748302384513, 0.40620932575062163, 0.25012531666722293, -0.1986176265174434, 0.0033683374137192744, 0.4172808915918617, 0.09903992939320906, -0.08917873430125474, -0.2669898824087068, 0.06663666898178607, 0.40908289903806855, -0.27146801396703885, -0.015881613965867795, -0.0067842430660326365, -0.20824214424021412, 0.36723340057568393, 0.32197868666142326, 0.27931513482669396, -0.3842882387956359, -0.08981062942736984, 0.3145282843551326, -0.04295976501061161, -0.19638214029890141, 0.3746705904118459, -0.10262561913163257, -0.37342372068460905, -0.3033912172762041, -0.14490853092908618, 0.09201145351137931, 0.18321202165965536, -0.23375406787765027, -0.19321708082155048, -0.17774366307225495, 0.33202902802853856, -0.37798841427540236, -0.04749430451586354, 0.3568363532277281, 0.4147844279290629, 0.016384594705410822, -0.004627427554035563, 0.4302940771291217, -0.489719053821182, 0.313736284527023, 0.15209641661844484, 0.29215094425786786, 0.29741069556355193, -0.4503616772993547, -0.017699008930027748, 0.37388969858468185, 0.2881416067739728, 0.1239981143414733, 0.48006693058667865, 0.09784173590217923, 0.38388128673632926, -0.1361266248487072, -0.40303918759776214, -0.3003962833971943, -0.15992249272703898, -0.5755684310835378, 0.11586661610918858, -0.5196429757302501, 0.3336589384315587, -0.3592530803265129, 0.16359504421234475, 0.24931321947079751, -0.20715493923394243, 0.4512300583702368, -0.4639803843014482, 0.42138404471449165, 0.0157514405395606, -0.09223011527357636, -0.24321149777233395, 0.26880300169770255, 0.2742792169831207, -0.05784298506843003, 0.2866298033601564, 0.23823046337922402, -0.4405268099745068, -0.5091906830540109, -0.33077608003361214, 0.40626741052515714, 0.28370683797498664, -0.14970053695423557, 0.20252885316094182, -0.18509082530418822, -0.4091880049126044, -0.04377659492871817, 0.270220086641806, 0.4029482408540951, -0.02121243463144436, -0.0968430372595706, -0.29365282130201537, 0.34017412888424653, -0.30305953875205827, 0.33843224779596215, 0.5053800968751107, 0.4862199463531169, -0.14850525457741223, -0.16522402947580128, -0.33886080575585154, 0.35145062003724575, 0.3939834661372974, -0.42630149356431024, -0.10412015982456245, 0.1026376958461884, 0.12953679206915905, 0.37553248140359097, -0.21490510882438685, 0.016706370724633806, 0.222847637989265, -0.1257903786185196, -0.11330880001188581, -0.1885972771535651, -0.1290972295091922, -0.5322767861126415, 0.30606992374819575, -0.31676621866047544, 0.2867804144906078, -0.33998799118496936, -0.011906772368962523, -0.28002088559226657, -0.1549052919697823, 0.05913447708037743, -0.25627970415226464, -0.3227096725691186, 0.38391120968532216, 0.4862278256129191, 0.07867534655723823, 0.4259434190386363, -0.2057733485317334, -0.024613534969883402, -0.3380768440315425, 0.41826864483541343, -0.06609677148329307, -0.2969425212248885, -0.04181265697493422, -0.0706572651170296, 0.16633273012034333, 0.035995926755307606, -0.1820827581657325, -0.10079629813584379, 0.28257882941611373, -0.1948858013869304, 0.03032011781268783, 0.06308298665749433, -0.09645474754245828, 0.46285158281166094, 0.4855893487035557, 0.18214423296963075, 0.4055692948849824, -0.3725804983959727, -0.09713719528758252, 0.4573542770966006, 0.02531382990403393, 0.3976339482116695, -0.05552029752620496, 0.12606523027261904, 0.3454182041947055, -0.21056208324010833, 0.09214925147838358, 0.0798528769129927, -0.3121310437685831, -0.1121770707148329, -0.2693280841575562, -0.1401482957758455, 0.14710287443536563, -0.11890954820905064, -0.41077422855982715, -0.02945355657945599, -0.32879130573744697, -0.43815665122279335, -0.2732055957779558, -0.299860761621773, 0.4344580296549611, 0.050565398275402115, -0.04737360674180133, 0.22684043820985156, 0.18853245437487862, -0.3299417738446229, -0.0369930952861947, -0.15743736352368196, -0.24072399452970863, 0.07986350234896894, -0.46640798140370704, 0.038117617360426466, 0.4271496698047648, 0.3337788291853567, -0.4196791373073384, -0.428156008978285, -0.4298443877015162, -0.4675972979869806, 0.3387828571965442, 0.27345556358188117, 0.3644984971435621, -0.4490484882367439, 0.19189804817479528, 0.2760687789028088, -0.19395899848586995, 0.11937041196314037, -0.046634972239855924, -0.3025329520233816, 0.04878202395941426, 0.26331296850700125, -0.2852537933759228, 0.2863371791997128, -0.2309838319267201, -0.09665396831897614, -0.2558646729935291, 0.44048970439610347, 0.13243316110553452, -0.3209008818145024, -0.2078384141516253, -0.3561775677449782, 0.15119445134354606, -0.4739761750939352, 0.08289519120538746, -0.297483583918963, -0.11911929013433564, -0.2687035440421569, -0.20838729318306226, 0.14206337275422098, -0.4654606707231269, 0.3920603188703323, -0.4403175118162551, 0.2613461836160236, 0.4379410446596349, 0.44782269853020884, 0.25753186055102206, 0.04891171108563471, 0.04071043658058486, -0.39442572726556635, -0.48927419125776467, -0.2227312911677321, 0.32057772835250453, -0.49371909410699627, 0.4585895990794369, 0.3327966676945478, 0.15314811640651305, 0.37174385711939373, -0.2542901470480794, 0.4048337784975734, 0.4204157551141061, 0.4795222225911117, -0.373380576550705, -0.03705459722558824, -0.1724056693170849, 0.41773190798779336, 0.3159155998889289, -0.49923953920627584, 0.45437738556501517], [-0.01575865709533808, -0.4260605209747902, -0.3730421368543613, 0.4693306808771681, -0.3822410143319499, 0.22597324789023898, -0.3419899374697627, 0.29956495892713497, -0.21192393195781034, -0.2203213674890091, -0.31843822273343403, -0.4840446832106462, -0.4477265713173507, 0.053101855852126234, -0.35636319365160407, -0.17560609286502993, -0.11681709044355926, 0.4068529102941859, 0.2702694359722728, -0.4722865904479362, 0.13333294891360503, -0.3175168990042634, -0.2636423271024976, 0.08602646281459747, -0.43358741315236615, 0.3797176499072209, 0.2514558461537425, 0.19508058215191537, 0.04719754793658548, -0.13118797375762237, 0.3341032784260819, -0.16875864207310054, -0.0032495307180525623, -0.17947567049006496, -0.33198693707139526, 0.3333402396049011, 0.49505910800613173, -0.015003984576813217, 0.4242912932215371, 0.40720886868753503, 0.036377000950700934, -0.45648560393313836, -0.327194717576594, 0.4730735117322229, 0.08782230199552898, -0.25752060221325096, 0.08804276193644535, 0.13905807292079062, -0.36323722764133193, -0.10905863075026515, 0.046532844368289084, -0.0764621018062257, 0.48501180372627584, -0.2869363686586467, -0.2323599068099962, -0.2769556706982659, -0.4594763699452481, 0.15513065080793176, 0.21136561054739, -0.17472754102653654, 0.25305573215019284, 0.17525406337054827, -0.19054333684251892, 0.32521605949487825, 0.40984138364892336, -0.4847383126076334, 0.24879754288798092, -0.13363048554448542, -0.46088057599574817, 0.4318153324378071, 0.18932813683367103, 0.4653158220257426, -0.2574608704875334, -0.057245324116094266, 0.2142366843530958, -0.16073208739495987, -0.375249237089974, -0.049832762057759286, 0.028923420754234805, -0.16585625750878638, -0.2354483758895372, 0.2358809863468112, 0.0034510244340942853, -0.25731026999343454, 0.42699215141128644, 0.11166561659498286, 0.08768287721105572, 0.10107294281806523, 0.16928630900696284, -0.3288225310372968, 0.3830060314313354, 0.4795555526872727, 0.30404834165053424, 0.4114187801834522, -0.061311641816312816, -0.3310044949972839, -0.4655721846983287, -0.07840338950623017, -0.23558952808902955, 0.16288096173667693, 0.21691480259391785, -0.06495633366823018, 0.48912799984057437, -0.004205227751288196, -0.022367064069544255, -0.02533117777076593, 0.04027100726686796, 0.2074047864956071, 0.18188048188535616, -0.4029005575058539, 0.4961050010200353, -0.1303067756099826, 0.48202883994605406, 0.2887603862752356, -0.30920154436215286, -0.44888568086758096, 0.19455426507383258, -0.38888572963575896, 0.34737976115791, 0.08527213298604226, 0.2480779493093075, 0.14336727686369952, -0.35991617420276245, -0.034274995254465326, 0.21941610978671192, -0.09340018121433918, 0.058335710205488625, -0.25880282680793165, -0.2924654059682715, 0.07370889660483367, -0.433000208554264, -0.20907036092532288, -0.08286014355450186, 0.30818313646845485, -0.48914550996691236, 0.383929042268809, -0.06976530948524981, 0.4664507070719079, 0.3045588354609039, -0.1548414460597387, 0.29944928878459043, 0.42094920394951973, 0.29846086588350396, -0.043079051970138726, -0.2994252850734414, 0.44322045405794136, -0.3934523884171501, 0.03491107135351257, 0.34126740985758414, -0.3199658279091768, 0.17342954682768888, -0.14679928358616945, 0.3246193365384, 0.25436593763945003, -0.008801343705549042, 0.1991711616995733, -0.16564247289385164, -0.5162928366638793, 0.00037433772282147984, -0.23823895163409992, -0.24257342739810814, 0.24747035045817223, -0.3240291198732931, 0.05601479997605351, -0.18781225360442608, 0.16093966598743115, 0.3722080667783916, 0.291205817863884, -0.010846772103971336, 0.3409689059214144, -0.4069529109040194, -0.36201554296492316, 0.2270252993506404, -0.11745963561334698, -0.13038833337419425, 0.32639525131114316, -0.01946571558813823, 0.24626902905731254, 0.1748769140303825, 0.18105672802410505, 0.16781962855125168, 0.2241588409694592, -0.34355667041925336, -0.6662215264070092, -0.27908315275363305, -0.1542217637338878, -0.01673224518490664, -0.3080655216088191, 0.16865807486920498, -0.13610972227801424, 0.33250323425804207, 0.27511201769673627, 0.02046285538431358, -0.03890926322833676, -0.2857282566284893, -0.3851111514395116, 0.4723305473574442, -0.43833382514043984, 0.22438652470542236, 0.4756004968103179, 0.21134554381363763, -0.39423619861004694, -0.031689925827833886, 0.43558849516545256, 0.28634097559586635, 0.2833072815862653, -0.43493777999531913, -0.460055092859388, 0.2977289987133356, 0.23057037450233522, 0.04760012530226864, -0.587711579088444, 0.26392775720338946, 0.03312390709120369, 0.36823707159880265, 0.36304946013968503, 0.3802743283248755, 0.567124787121878, 0.09851778901546816, 0.5012799947571724, 0.4322999434677669, 0.22834478204441028, 0.18638327243856023, 0.4369844765198273, -0.30782030850645214, -0.28761024879056785, 0.37272337031134173, -0.2815020872384934, -0.3876185096783078, 0.4027846911786386, 0.23507714110135566, 0.13864377570141936, 0.046001895228214615, -0.35718784848302726, 0.17851804166790797, -0.3259356469904415, -0.18222581861546194, -0.34231796416780774, 0.11937253176217565, -0.5021434047138983, -0.3649135683202678, 0.00306150902490054, 0.34194264252276607, 0.33362041738432624, 0.4107030270180752, -0.0026266321436372968, 0.593003956489201, -0.17179489565051162, 0.04256602857644245, -0.30944449418271974, -0.011997974386107474, -0.1424202600319916, 0.39223370489632203, -0.28941994699344276, 0.397949975492639, -0.4487121604637177, 0.405788692912663, -0.13059358775378957, 0.4955234644597962, 0.10652756199244146, -0.09603696873671284, 0.10610400923462598, -0.01269783077162632, 0.13643960501596417, 0.12357859179540234, 0.03474642950082058, 0.011179114793521669, 0.29671581746894304, 0.4851124402383446, 0.09155106982240308, 0.13907118605667337, -0.3083566165221935, -0.31004116972831886, -0.04922304706324898, -0.01624270950436505, -0.27382556421895005, 0.4603987273380832, -0.43250369270313355, -0.23013059574532382, -0.4808835798810558, 0.4079933343664842, -0.08589540010631655, -0.2603759913386974, 0.46557511065685353, -0.22293942882035456, -0.10549117413333842, 0.38441022479741693, -0.3977196099482269, -0.022660291389883295, -0.3938826744236239, 0.4323579908381109, 0.08190859147215541, 0.56715117280415, 0.2819941497400521, 0.18471649668149046, -0.3533570776840261, -0.1572409188042634, -0.028385449728853034, 0.35722214720335527, 0.2796993668772443, 0.454086844437217, -0.05284610423363991, -0.2281151879489576, -0.263890521520374, -0.14444650657300065, 0.29870806042481607, -0.04433197696333524, -0.23697093989268614, -0.28337034928070115, -0.21617613358284313, 0.18809234481390258, -0.44942575808202045, -0.4716582314317076, -0.14347876335928114, -0.2156864660649019, -0.06207643363856043, 0.13853604730480218, 0.145058306449033, -0.49082503831180546, 0.3226214568832967, -0.3814745674026904, -0.22107325896659674, -0.16324101834276547, -0.3286767989745712, -0.11649836399787056, -0.25860288010183385, 0.15492751670986846, 0.058405640828456035, -0.04452117924048089, -0.5266303570436026, -0.11252542608713223, -0.3263141596768136, -0.03751870135914505, 0.22420899447845732, -0.2874113471204206, -0.31556448910325774, 0.3122502998388731, 0.0006346738337654835, 0.496035843964596, -0.02652306514945061, -0.2936246607552941, 0.010549033035176413, 0.389047603123504, -0.4194875949757889, -0.08186167910622337, -0.05280343825230822, 0.30878566582781536, -0.12654674038025293, 0.3742730848118103, 0.06264028922370991, -0.1716718467576896, -0.2645762232715644, 0.060685247880927495, 0.145875898348189, -0.470837943526121, -0.22760314241791, -0.16199223173719055, -0.18007963051225753, -0.5361066570917742, -0.25766016096066263, -0.07297559335336397, -0.3861019845014723, -0.009694943983831528, -0.3162966899243512, -0.25320026877971835, 0.30155100247288424, 0.22506619533921524, 0.2852364341306055, -0.17013079238890289, 0.2866129825302005, -0.12672838323759428, 0.2712728839415955, 0.1087760257843646, 0.057073162508255545, -0.3208492146227731, 0.06438158355733468, -0.42886371408836976, -0.12343198351976435, -0.42743523542685874, 0.17808468220122228, -0.24831580724603253, -0.27180876695049744, -0.03693662273664793, 0.3493386507274693, 0.0737342230244268, -0.17258259680953864, -0.47920904478911264, 0.07253830260213155, 0.006826803642738692, -0.026775364756761785, 0.1558442887261495, -0.3781911953946787, -0.3192553954458677, 0.05027294650566849, -0.4319558638809679, 0.44389459628519884, 0.4337664914777212, 0.20976633747374895, -0.3726470676146659, -0.09560394919769295, -0.09323842218347854, 0.08802898929879084, 0.44480899069058516, 0.27868514091761554, -0.11189882043394976, 0.04822507681257519, -0.301027003970818, -0.5072786441109798, -0.005626822190680242, 0.22704049900800866, 0.1643176728857628, 0.1918381808841852, 0.2818572172903717, 0.18783614789013828, -0.5013896360592005, 0.39444350389872124, 0.24292189344937604, -0.46555166235134543, 0.4141841336382708, 0.039635473447742764, 0.3979055504300797, -0.4328361886778054, 0.04942502990803521, 0.254687295843117, 0.06840870054376894, 0.21045439318736223, -0.09398832871935318, -0.19195151091311297, 0.37903797546984597, -0.08836738234288491, 0.30210853171374424, 0.16081986916329202, -0.4455544174628508, 0.31456451018903037, -0.14917085121772927, 0.24449477655190796, -0.35487911887109935, 0.18796939721071013, 0.43738123158422787, -0.389026785184273, -0.23189655152084113, -0.2256560389655291, 0.14499862254616583, -0.368274822376589, 0.2544800283202449, 0.02862585834087736, -0.1301325814471731, 0.16860651772221735, 0.009968225742831738, -0.08369392478466965, -0.1653638125256593, 0.45551436311997423, 0.16367889327808902, 0.021238794922046594, -0.2134612366530835, 0.4788570061223981, -0.24447937162235062, -0.11165388965968365, -0.1961328975797278, -0.2790147616498295, 0.2595321425377447, -0.270592946600976, -0.38108095481143844, 0.5514362967823021, -0.08222078776838569, 0.08796660714852407, -0.08271579892930822, 0.41047910557824696, -0.07771999557426659, -0.38239613569670294, -0.3302456407937255, 0.2890575775589866, -0.37797112167495406, -0.4142157460172389, 0.4845115811973505, 0.2404052951126695, 0.45498727514821646, -0.055218658046546465, -0.37920452242951225, -0.06918395992333196, 0.3946788387506821, -0.031390403679971826, 0.4700456703350147, -0.4076444825384855, -0.377502804254505, -0.374906602588702, -0.2735521877823627, 0.2385450640203845, 0.29169061691494536, -0.18711483629745657, 0.15908156028710269, 0.3537056101609584, 0.2250045105103405, 0.5463177544744972, -0.3278520148312897, -0.34036486561888035, 0.37674289743945055, 0.30307393633925933, 0.45646534778450565, 0.4608783879159738, -0.02014387709640991, 0.2490282589604057, -0.09527377088745881, 0.4317256244138553, -0.25870369041403285, 0.48395405494966814, -0.09052244986898342, 0.12806900839390886, -0.030659306037513764, 0.2278949710606773, 0.14158817327252046, 0.28708663389292494, 0.340253114810351, 0.17077728107332096, -0.33134478396128497, 0.0978700770265217, -0.3343415347642571, 0.43720772479481795, -0.29489015954391234, 0.5927708991249435, 0.4887289514134842, 0.2891594020767091, -0.2062504498393243, -0.3463094235914487, -0.2363214982125743, -0.1482516658351717, -0.22326929311490193, 0.008128844366688846, 0.021032626864975076, 0.11007061948995697, -0.0024647432882181075, 0.1660114143925443, 0.40988912720576987, -0.357809693006898, -0.3977085959365257, -0.4981377391773534, -0.04405159631146846, -0.1906715419623275, 0.041983541845384574, -0.07009015527983241, -0.017242206534535755, -0.4066467263903209, 0.0395858209779811, -0.3927795054971688, 0.26140313991530856, -0.054913572132657726, 0.482752912722847, -0.2750532748925296, 0.05137333525258219, 0.4764377414333683, 0.2120847277988962, 0.06703094693116007, 0.3272157804777644, 0.11798810150483768, -0.049423181590939634, 0.2683579494176039, -0.004498774418741361, 0.47574472708095483, -0.1705880679117319, -0.09840799563483549, -0.25829925609895776, -0.4521787654487034, 0.23669244548611418, -0.16785179128825028, -0.11659249324508764, -0.1468494764256774, -0.14523803260577559, 0.24355124443047743, 0.05727516880870872, 0.4598582417718173, 0.06263594723779638, -0.10154085660533468, 0.1788447217164754, -0.25348107641282774, 0.3951648825580838, -0.05567439673148203, 0.2619358578778148, 0.08740742782932727, 0.1517249937241097, -0.061460202994211864, -0.5389443784771835, -0.4881822259281918, 0.16274528882430217, 0.11125812394266503, 0.4450625453442799, 0.30502941229448205, 0.052278001450708586, 0.3073465325788416, -0.3975824131055018, 0.15862493862274707, 0.12639296322988705, 0.08429842041236114, 0.07552620739908938, -0.15997051465218126, 0.4292113916205138, 0.2778445475098002, 0.3659400819941333, 0.33784341082053276, -0.24996113022219854, -0.4597289032735755, 0.08513730911194885, -0.03868849649366658, -0.2879432644375856, -0.22446270224992798, -0.3018388276033447, -0.2575845928809853, -0.2933712131215547, 0.3335494642038803, 0.2697499413350986, -0.3345592875341092, -0.3745616976015379, -0.17214667062150185, -0.33298180574512887, 0.23667896569756772, 0.32687204316140056, 0.36957498442711456, -0.2993365608312484, -0.03695115601779686, 0.045603207606835894, -0.25894546202339863, 0.43555992373420155, -0.2263154563478904, -0.16660139189564652, -0.14159675987654383, 0.00807764046170917, 0.0607049557437579, -0.11354892118760042, -0.5073747115250659, 0.2508146248754013, -0.4412047388190476, 0.3593131714154565, -0.44405741994345355, -0.18771502369510504, -0.42736775488716466, 0.4072796548690179, 0.06774710145119772, 0.16865958280449198, -0.47503866587643634, 0.34680535806075186, 0.40890553429572896, -0.4199578762990315, -0.28619949400554184, -0.018291567374905546, -0.22422300674949136, 0.3445570227149708, -0.3324947438419009, -0.20400470149301364, 0.006122493075889679, 0.012385578189861843, -0.4903928165941288, 0.3121050381387433, -0.2938493698320305, -0.4845675617091678, -0.30211949263613325, -0.02034800320752774, 0.2623013021429036, 0.23282054754556278, 0.18614785293993344, -0.35005948059196584, 0.30165864795052966, 0.14402961400271433, 0.2764472566420935, 0.22024989416602578, -0.279392672008073, -0.17065311249436058, 0.4205992567514709, 0.29117179164648166, -0.27042105009584827, -0.46860808418916733, 0.41614664351075437, -0.2389440556318917, 0.42382147289467176, 0.46089088207088813, -0.11787788676334199, -0.06495923854992136, 0.24823135181203676, -0.38662877001819734, -0.4917204997037307, 0.4268658061516897, -0.33989366062564136, -0.17282626035708248, -0.019708951778311348, 0.13749315716136393, 0.04238347473512888, -0.20863035969990174, -0.13716036135737075, -0.41348427062785964, 0.31119857929595546, -0.3168166105193235, 0.27577438391497133, -0.4037444196866902, 0.27288187648750745, 0.2932997194901965, 0.20626605287140734, 0.3862256821064079, -0.16039774604408266, 0.07144419456296602, -0.029361082098838365, -0.45784899895607767, 0.32231337760528433, -0.19333455983907533, -0.17886393361641284, -0.45323221703518635, 0.4341574119895314, 0.3085071699851485, 0.31092774542081897, 0.40719756831202414, 0.14763086528506655, -0.0601055087842135, 0.18072641920414023, 0.011091393654031325, -0.264358881722886, 0.20418870632775907, -0.4806315570607763, 0.3529493831530643, -0.03492916007925985, 0.21390060540959951, 0.0632288675740069, -0.46150312579735875, 0.3502466690525625, -0.2691569850277758, -0.3656442882962003, 0.12724989401829986, -0.2602995111832775, 0.005465088650270622, 0.18356335687196856, 0.4132133974991642, -0.2381081581039547, 0.46594275378153205, -0.4254799737145035, 0.3888364075949795, -0.03354122799478143, 0.34201689932251045, -0.22247550310349554, 0.07773313721604735, 0.3805558287158518, -0.42159938700524774, 0.04242468247548181, 0.2127345154103956, 0.5118684950254143, -0.47286306926490146, 0.2732117981561032, -0.22622063823839206, 0.348010141075368, -0.21357579469742888, -0.46954768261036467, -0.2615502841221615, 0.368927791861965, -0.11148833527539202, 0.48941417478299193, 0.3048430787201392, -0.4762327202037765, -0.014799498643829123, -0.39595444530563906, 0.12366133397418322, 0.031725013317119966, 0.487067879499685, 0.03359475730465389, -0.3618864081203067, 0.10426368655160778, 0.10271251026135364, 0.3673213019907037, 0.02496289326484546, -0.23928049513834426, 0.17141382646584066, -0.1132586369720296, -0.4168599757966849, -0.06495012370946113, 0.2332339200102594, 0.09232362056797022, 0.3991388759771601, 0.4797930125598524, -0.05022887730436602, -0.1575754904319223, 0.15841596347385895, 0.05527245430963367, -0.39596818875676, 0.028409332596573078, 0.4273334402991822, -0.3465267890787809, -0.413275468070214, 0.14835358594292902, 0.23166448724339817, 0.057768455826539], [0.26587318002708027, -0.1832808318908491, 0.223117177604793, 0.49379912333291276, 0.011032382231530247, -0.19142057095643483, 0.3231614115653869, 0.4992817442759139, 0.3329673888382534, 0.18142633351406645, 0.32394239738828057, 0.39820226983789, 0.01576638611238612, 0.4252650863935937, -0.08336802746632266, 0.3899286244451178, 0.2727446470388556, 0.07492795370211769, 0.31798280167026893, 0.20563020096411677, 0.4631292068802162, -0.06061073936731021, -0.43397750651948497, 0.3490553333935663, -0.059987381031620046, -0.46947509982625457, 0.22420285627519698, -0.31676668857206636, 0.24272628675293828, -0.23243625554622138, 0.20963401610564192, 0.200624142943562, -0.15127972331224515, 0.4063446103501883, 0.2375602475190849, -0.47519699642363133, -0.23589174940367785, -0.31958654125298136, -0.051357351315383104, -0.1676539778747178, 0.11204817716412958, 0.021002624298055866, 0.0018039888320451618, -0.3131824770568822, -0.02057467329141105, -0.0841240771413784, 0.16848392614289315, -0.05970905585717892, -0.19687440847253773, -0.04924402207819765, -0.47302408087394654, 0.2319139265625889, 0.3249341029517778, 0.45867015768429253, -0.01947853517526088, 0.3187619162755392, -0.36766554462577195, -0.40566440895028244, 0.04306874305527553, -0.08532358217925684, -0.3444039301614733, -0.1786599837249343, -0.04854628059063504, -0.17159874657165888, 0.02634245850756937, -0.020943269012100224, 0.12941251670001078, 0.015443105696893127, -0.2869905925975303, 0.08839235449530862, -0.2124618528144979, 0.05182903799523399, -0.14760342829748505, -0.3406525827266149, -0.4282403471325229, -0.07219209660045615, -0.3920883655466576, 0.3844079440671157, 0.4990837327843754, -0.19160250607189583, 0.1985107202160506, -0.2611856504413186, -0.29888689593359574, -0.09446251431915242, 0.19539639971186062, -0.23937633035790773, 0.4455484779982706, 0.44480168846537615, 0.10344152988206679, -0.45379348120307106, -0.4729109181130362, -0.3556954667617893, 0.021423481976711848, 0.34601143118757705, -0.4952072218925519, -0.20795159248736939, 0.10422080464414192, -0.01648968707398196, 0.02928466710164849, 0.06320673674058692, 0.39447427086275816, 0.2911520287178253, 0.009286415681641631, 0.48009403084763536, 0.45443611906439413, -0.49053931623320934, -0.37689289300065554, 0.017673673793818515, 0.16490880078398026, -0.02757110414881936, 0.22871365830361645, -0.21866733440331365, 0.10847513114894647, -0.2042907116581113, -0.11683879624710547, -0.35984092135715984, 0.35219014676670946, -0.17140836540806997, -0.48489792630867745, -0.32339453090600623, -0.4304743548256375, 0.27738090197514786, 0.16872351035066735, -0.4462157283937721, -0.09973761451290948, 0.19125715029101253, 0.1753619719579013, -0.2469773925599083, -0.11084647843847517, -0.14830996559642176, -0.026586422525006415, 0.30381806846813975, 0.15793655758933534, 0.10972729880510228, 0.07234125671651849, 0.42739723950717695, -0.08842090192546768, -0.01590256947690468, -0.18860276167082812, -0.42777020397959453, -0.20019472284223472, 0.38087239219467717, -0.4962248701264398, -0.49297763136041645, 0.11661730105547598, 0.2909203694734524, -0.11908271134307714, -0.18179147405440943, 0.45500270471836984, -0.3763366950315297, 0.20206059148462777, 0.40219008523496746, -0.311330549139428, 0.5861080871024135, -0.19734587103156412, 0.22692293727338386, 0.32142869638820093, -0.13892965201427634, 0.33162337411680787, 0.12113372655311556, 0.38822090498738754, -0.2898140450140072, 0.3332237394497911, 0.36926743741651374, 0.4494905453595489, 0.07321287503355105, 0.0605399427451071, -0.39324013161158855, -0.46786717553341084, -0.4163327369535557, -0.31065803174828194, -0.2853319124657745, 0.14875306499703864, 0.014844951893825845, 0.2170872499848698, -0.15431973933331747, 0.2569638589079784, 0.26296870640762743, -0.2179582966091014, -0.08554224487155151, -0.17253154256144188, 0.3683284866336559, -0.1685334658439114, 0.33844992544050323, 0.21206723862310295, 0.09860275664676295, 0.0018657929876045327, -0.014519025160568069, 0.024613039383991047, 0.3344546268770212, 0.2801368805896093, -0.33651460271346484, -0.13023668954986428, -0.4618840619534646, -0.3418438853553524, -0.4481042748762767, 0.17428289440183153, -0.09022639757618735, 0.3533125918967086, -0.22759124836301245, 0.21212354654883, -0.05716818133336469, 0.15446383614541764, 0.3555429626483416, 0.013869231986242457, -0.44449681157568616, 0.3559640054390862, -0.3076905660041431, -0.008638779299021144, -0.07376501405316832, 0.0072754712130038675, -0.24079736843917512, 0.3472103689917639, 0.40812645096163436, 0.17204281433625246, -0.2623950357050621, -0.38822162584414577, 0.4025949111546816, 0.036616605771276234, 0.13142234129407593, -0.26850925220545113, 0.33868187317115006, 0.40803727425220265, 0.12763097922614453, -0.18041634695016417, 0.4195669550351707, 0.4156766723721254, 0.18367042759428964, 0.05177719126528255, 0.4539039888680405, 0.19839659618355665, -0.2975645967517004, 0.10874748762709775, -0.2308171384655532, -0.39083579253433415, -0.24203620749863333, -0.361656968275865, -0.4044235244574712, 0.22601153426147788, -0.5510881946930172, -0.2502409471960801, 0.13513311349386112, -0.3045651881808816, -0.17499770724746302, 0.29470377600794045, 0.07943047580540578, 0.3042233074205311, 0.09571974675120025, -0.0988149513662977, -0.300825305111075, 0.30415852118691855, -0.2967314158180549, 0.25268341722869003, 0.10972261067535714, 0.3201842760401593, 0.10708627535343186, -0.3796417447538816, -0.4597574709220771, -0.40401937086009926, -0.09894506883773889, 0.22262379151831213, 0.2404785003649507, -0.04088749386465207, -0.2952829928576412, 0.36619719011858015, -0.5971179682761835, -0.10766738583840434, -0.43481409589138875, -0.04674554081703381, 0.23807520243902786, 0.2289868133566645, -0.27367054193672813, -0.01671707769188185, -0.407700902169923, 0.18436252848171694, -0.26566024389775633, 0.18638229021778355, 0.3826454491590443, -0.31658903416191303, 0.310520099063752, -0.49739661914647726, -0.26001619880757554, -0.28389269544374485, -0.20405197896924807, -0.31609504491141477, 0.35128067725772416, -0.15720815527159565, -0.13624388392306455, 0.3041608418603774, -0.46572918950934006, 0.12104803939516816, 0.1743042861200239, 0.02274385858970951, 0.08330139415209291, -0.40647750495980783, -0.5213852066274517, 0.301274498552336, -0.24622966515402447, -0.21644255450718566, 0.17814468894888497, 0.08253772512613433, 0.29222760336955744, 0.1415770152281151, 0.2994800121326166, -0.07927325728454655, 0.020108411731956904, -0.4246927320377215, 0.14762354875407566, -0.2479180724020723, -0.40451754068288026, -0.364468943590169, -0.20280261397774185, -0.37701917902766, 0.0972458232742198, -0.07341418278958424, 0.4025984451147405, -0.3184136207103209, 0.04120996929726209, -0.4452935065605822, 0.43460351393499735, -0.10978629670335253, -0.038022225856993545, -0.12236225526344072, -0.12340354312778341, 0.3220888364718601, 0.4612612189960606, -0.15266597864838893, 0.021049548469885073, 0.06702693203410642, -0.11707268201885904, 0.20088003417214048, 0.03612165833953902, -0.4874570624950579, 0.2742342422750969, 0.2781137032719917, 0.13939520127846716, -0.345588559529696, 0.3872241638391605, 0.07942957011775707, -0.39504690833139705, -0.011884716308853424, -0.21282249965784744, 0.5946458048761347, -0.29708674015500147, 0.5117046905312396, 0.46884710111173167, 0.5030042230465399, -0.044177988818743436, 0.0068176308580133365, 0.1939980655979857, 0.025110918354030502, -0.2564072955626113, 0.4579685989129716, 0.6865304735495704, -0.009294724359167407, 0.003857124175864868, -0.34387086900230535, -0.4883804769215472, 0.1472223225166931, 0.036979156762777556, -0.5104725936689053, 0.448572869099733, -0.09363723074828459, 0.4388827766822232, 0.2691523493367901, 0.45380343727533445, -0.4179631441847664, -0.06261457339623845, -0.374835234153051, -0.27438201553625313, 0.23722604834492753, -0.3315889622190529, 0.1702247828730876, -0.1269933734709805, -0.1870283890135805, -0.2721848687704424, 0.5969561634393006, 0.3487831407983829, 0.08707899624246516, 0.4443343996497165, 0.009703884009002219, 0.6308966660461214, 0.3229891819105126, 0.17824805449120246, 0.28621352504897224, -0.10706575053539517, 0.06265213960242855, -0.2531059148723007, 0.06749942185984478, -0.4520561102759009, 0.08219773024203175, -0.4066877756222884, 0.034961464927420804, 0.20633378544505032, 0.4471660036964064, -0.1620117925860467, -0.2158980169374634, 0.014109257752331485, -0.04692037799812972, -0.05240766990717373, -0.09575984432572099, 0.40334002837448235, 0.40315565640220263, 0.43348209467131876, 0.6314562242983882, 0.34653120713871854, 0.5265475503391097, 0.491036725165697, 0.1779770695321163, 0.4046550413924848, 0.4509909743189983, -0.4453881130788177, 0.23081159102464485, 0.37300489133985754, 0.051817419633724576, -0.4871588906273357, -0.24082433212061724, -0.11868856781059987, -0.2800020093980033, -0.12848859288249104, -0.19658105424842143, 0.40003720787682095, 0.42591903375750684, -0.15953304781256122, 0.36597902481670125, 0.24419025359421584, 0.25897943361843967, 0.08513765637809728, 0.09022460992736908, 0.15563542991274984, 0.551216214578238, 0.3612806455586727, -0.09053783085251217, -0.20910227205315884, 0.5016568929987297, 0.030066492639241382, 0.4538822691718103, 0.2838496667296159, 0.3113695359254878, 0.12787285415267263, -0.12394186866350422, -0.04315365182497038, -0.38965954289144866, 0.16048918996034858, -0.17313713470308206, -0.16612081579560584, 0.06126421235995427, 0.43106521061821357, -0.3699702227392647, 0.14331444332944104, 0.4724203213125236, -0.05024003651531888, -0.47602838457920915, 0.11510628548428442, -0.3262843610525108, 0.5276909981594292, 0.36033446631526767, 0.48909391214531905, -0.32187849067595264, 0.31216094700394864, -0.15959737892350642, 0.020142996570963863, 0.25690716813541614, 0.5955590434866284, 0.13917558407345537, 0.4343505033714911, -0.36391270652422975, 0.3008103905209262, -0.23761618649882152, 0.11829697675327168, -0.4314424565714432, -0.13292663581954992, -0.3075616297545036, -0.4302862297014344, 0.08054825789295503, 0.3107710144752076, 0.061712059293444255, -0.07016279413879012, -0.1480929590643911, -0.1939998500960531, -0.1709373804683286, -0.012187075197215062, 0.2550238423817506, 0.04011417546611963, -0.09672823884819069, -0.11672099425655401, 0.05922899314334278, -0.3799826808373342, -0.34432784176982906, 0.399558726187302, -0.0688318958000196, -0.13099264788493745, -0.0601233531682518, 0.10726036084879276, 0.21042001752281436, 0.34415467240416864, -0.18328616364702355, -0.19929568286520732, -0.22736871168478331, -0.37149428426607084, 0.4525235852637601, 0.41136980610842544, -0.18867942656315484, 0.45649159309347365, -0.024705597655867884, 0.16090082316573595, 0.025125185008208924, -0.1557361400415615, -0.09578342857499192, -0.4201359903192478, 0.15124917071205052, -0.12062628356318031, 0.2459008024451608, -0.03119392962445436, -0.4171461317965695, 0.2495105806266758, 0.113451517976789, 0.028907597251643904, 0.046505827560303435, 0.4325447050615993, 0.48083566393333316, 0.10008234399223767, -0.1642968084361112, -0.3517611625918847, 0.2874054607099165, 0.4666200151940126, -0.32377152111394597, -0.22753884705953223, 0.43895948358272086, 0.11145880208190453, 0.023761676660712716, -0.2117285986660714, -0.2446063890299912, 0.27099550125433314, -0.4049502774511473, -0.34869300367677997, 0.07305504016856995, -0.06254197046373089, 0.3184240893013295, 0.2654475468963555, -0.17054878852854555, 0.02122618060013635, -0.32781726300201325, -0.5458519922925018, -0.3624837842026462, -0.22996419312452093, -0.0830115653023613, 0.05268972363073815, -0.15563651370091353, 0.42696246303266283, -0.07836623767244458, -0.18666128741112833, -0.05068232484932592, 0.40982280841781243, -0.3058517146259062, 0.07486019183701424, -0.4255870124631142, -0.23785461083612003, 0.22950161901917557, -0.4578184771007564, -0.16982018583244407, -0.054365909984974925, 0.05990755879228032, -0.4454281797413564, 0.44125372630010395, 0.4742170084580184, -0.07625948201942925, -0.2928388414596023, -0.4833679507947943, -0.4204632520457324, -0.26826741053266817, -0.42097675174040217, 0.25298735400157396, -0.26790821034334744, -0.47957428786331946, -0.133345156634115, -0.03536343750511299, 0.07410574432288854, 0.0408438542389658, -0.08311267230413409, 0.20842045766636558, 0.3661308506785714, -0.2684036807323347, 0.41658684295194653, 0.13473509982531848, 0.12575695076587823, 0.4463961772966601, 0.02981833843465076, 0.06512533825176081, -0.2313701142238992, 0.323798999133086, -0.04817429701280666, -0.2940330074955322, -0.12884970761446535, -0.33970848704173, 0.027424789371463518, -0.47313964991612695, 0.33441986823373415, -0.31541056534846945, -0.13400900706027405, -0.44704965999623464, -0.39010135967723897, 0.20194977888214505, -0.011189746786290429, 0.0951865766313241, 0.04240363764997158, 0.3035531154862109, -0.2472678218904945, 0.4412534676926752, 0.20071453744908085, -0.08825041804555694, -0.4719076891784719, 0.07151481157870845, 0.4758030801444738, -0.37246984509759157, 0.20829168562129496, -0.44946592001282015, 0.3371234524201888, 0.48120340366778896, -0.23034422014844808, -0.12768465659696415, 0.4298153900544037, -0.42393445241032796, 0.19677149553322856, -0.270415724046142, -0.5013925233010997, -0.11225752739236895, -0.2259424503409492, 0.32143036781859996, -0.3658589630298532, 0.29196489334570974, -0.4652426583249238, 0.1814436732912612, 0.20096218919005332, -0.26733410916536, -0.3137779357787199, 0.09150385439022611, 0.3332479773697691, 0.33648966067944414, -0.25904634659278103, -0.42287714468802406, -0.3868380224642196, -0.3145375783744108, -0.40646611827652457, 0.419941578716977, 0.16402412184388604, -0.2686171733102031, 0.1390759015779283, -0.06251955024704782, -0.09834206744886048, 0.26686965913509914, -0.151535727141281, 0.18129340031866253, 0.09078713204050344, 0.29372410635420265, 0.2542544976451852, 0.29542900944136796, 0.4386285049729941, 0.05856006038881357, -0.0832522141092062, 0.11813101589490364, 0.10205409791102313, -0.023392355156638886, 0.27200847756848195, 0.4988970307940778, -0.3482583693213323, -0.48111129594787244, 0.06360215734884835, 0.033627135521109984, 0.4445167872579752, 0.44494365367851946, 0.384005293974385, 0.2720956865626253, -0.41304980323149265, -0.3013480252484322, -0.16854217393841853, 0.3688550795893742, 0.28654776092800477, 0.026921629114084116, -0.2821865447754013, -0.2596740471988395, 0.19687066896001928, 0.027968078803312653, -0.2544694602241368, -0.3714915199045095, -0.08003792691202191, -0.36189820800313743, -0.10766846144247444, 0.29913016699712525, 0.08246059667763131, -0.1465480221291982, 0.18705219244433546, 0.5541215214056049, 0.16394918654960347, -0.1377785856880679, -0.43299330839463007, -0.408627248700497, -0.10527987130508226, -0.07944719414977494, 0.3224839261188148, 0.17279470898382865, -0.4728322417381918, -0.3874756244547468, -0.3455310928170352, -0.26743831473031754, 0.08450057802873569, -0.34229465290671646, 0.4072032230756824, -0.09229744755782178, 0.2274199812847412, -0.18717218936416458, -0.07619791574795094, 0.23788319610580716, 0.09773347076131726, -0.45328669590632986, -0.2699688514934827, -0.3253061311976051, -0.3668411554147002, 0.1418636769657599, 0.12467031638360125, 0.311099913520357, -0.46408897596355836, 0.4357153651695673, -0.14242607007595906, 0.45042282886449453, -0.31566777081396374, -0.4268670783458548, 0.4145240170529143, 0.04549819987295145, -0.35976318597220514, -0.12109505339663895, 0.3460893406394904, 0.043726441494126043, 0.1397723034532199, -0.04709394812697995, 0.3411878975971491, -0.04889051751000925, -0.3024186666115794, 0.25220865886355, -0.4507679178932511, 0.03305010617632584, 0.24173518206444203, 0.05467310763520018, -0.29321462169942514, -0.049322539874582925, 0.3739055489528518, 0.3493210241840873, -0.13539282402078393, -0.34874386199329255, -0.18005278499034252, -0.07788414335093725, 0.083489551702573, -0.3569336943306064, 0.0066334523577377125, -0.13678738132243884, -0.0024653556255883613, 0.0553488184419233, -0.08930021730763893, 0.1820188771290594, -0.14042325156701785, 0.4826721063742292, 0.3363414778340934, -0.14669909979777582, -0.03512245761496885, 0.4653574479554833, 0.18693573278144726, -0.1342350029049691, -0.4794095421433533, 0.3312267993039811, -0.4744240001290759, 0.4472916938155878, 0.3497738144074461, -0.39706040565118556, -0.3034590121750829, -0.07702605394051253, -0.17029921325070085, 0.4510067976611042, -0.15602596161039295, -0.2818013181831779, 0.1202257855062503, 0.27601452496348, -0.23927320272543595, -0.1777203510152625, -0.21660789469715291], [-0.1412647591674493, -0.021808496683319967, -0.23554453437095224, -0.1613508859698607, -0.09885707453232495, -0.33579982503591266, -0.28089626623411956, 0.44119572399508744, 0.45795526119401697, 0.4235807601440471, 0.17737079294322455, -0.10704409351773825, -0.15663281983448074, -0.4138483960141356, 0.002762382291171206, -0.22420089758788286, -0.2538735221639472, 0.30179203248491093, -0.13891304198296706, -0.23421867613946812, 0.04055647251024097, -0.281430335527035, 0.4217421371247475, 0.08826039246727257, 0.30789146133260537, 0.1280188081682494, 0.3444059016960309, -0.2158771472556238, 0.170558828249889, -0.17495196438464578, 0.17222887235297146, 0.32424107061390983, 0.38978062860423845, -0.2323664153222753, -0.3426814983807509, 0.17265376494703613, 0.47627080614822964, 0.18484434987538778, 0.2125090930407261, -0.40381699434795515, -0.3022711756876256, -0.03541827262577594, 0.19512993784807953, 0.3620149779907794, 0.2724581145120132, 0.30752305053189277, 0.08084391336680838, 0.418974842612819, -0.22611049630064708, 0.27182441277714164, -0.33019205004669105, 0.17152572515611353, -0.10655353725475891, -0.17687034036600935, 0.3846500776984907, 0.22532170964191467, 0.3959225110508392, -0.1807121216193316, 0.028688091063256094, -0.4380989204582989, -0.1688295988184505, -0.3002387750349905, 0.08817933609422843, -0.06644779903018776, -0.3876251749207556, -0.32603337105588087, 0.49000598538584555, 0.030539927093099422, 0.4010268631330746, -0.4275024497763509, 0.4848821758993609, 0.06483541398598723, -0.32259673808374556, 0.11807893179808833, 0.1563237652793319, -0.14578219678442497, -0.2417947852297871, -0.15040367529706097, 0.24112526582934835, 0.4402792506969189, 0.3171850928460096, 0.1534441329811544, 0.43911541362579065, -0.32724148267449504, -0.0882300501644101, 0.4031038492916359, 0.003882660314672659, 0.24793363801734702, -0.21711372504184545, -0.33692003193309333, -0.21465133269045092, 0.1568252798958547, -0.04394196437702793, -0.1780143274974661, 0.23639228799018466, -0.286502316461261, 0.4459939955917977, 0.08709501600399648, 0.05301178896582426, -0.275306928781598, -0.4223651474866716, 0.5531007550029264, 0.4096936466144443, -0.23748455061821713, 0.20501074701980218, 0.34807891577713884, -0.4165387453917402, 0.3054617000142083, 0.011312913078556617, -0.1525175668034779, 0.3100400907623003, -0.20296993915125217, 0.12735029329303416, 0.10090118481457078, -0.359718955467465, 0.49326631994664494, -0.40541850479707703, -0.18803801182912466, 0.057126881407686944, -0.17300902887228328, -0.11598562963788404, -0.05525555222621322, 0.3036552691311142, -0.3834242808518318, -0.35107937692636837, 0.0998961739154828, 0.09883340007058934, 0.08060278188079056, 0.28290504405965006, 0.02801224982611824, 0.4494254512268664, 0.255118523442103, 0.010404107580071266, -0.37343036001444385, -0.031132990218384036, 0.03791794889777059, -0.4077107802159008, 0.04528092814142145, -0.11403518081209096, 0.20804952716110126, 0.087477135728532, 0.32265403667181636, 0.20095139134530504, -0.09587848429600292, 0.22106512922362456, -0.4209915702863268, -0.07280131084808325, -0.17479415336459986, -0.026945963406163027, 0.2453281271671406, 0.31711875654233956, -0.02833603668524275, -0.14306496733367388, 0.007656334300751577, -0.013975257518273186, 0.39956031483821597, 0.2121262959141793, -0.32914375274859425, -0.31022364460880314, 0.06986351830278503, -0.3204647402305778, 0.3374730039272438, -0.47722175957321633, -0.1395757996059629, 0.44613945226373397, 0.033223806392075214, -0.3713136998105463, -0.3645014254117911, 0.24434009648266852, 0.16892563908223235, 0.36999266687094534, -0.45522744978454704, 0.306138038067317, 0.22071469559265466, 0.229605219144086, 0.4219192022905769, 0.14759383686147814, -0.2802494880823041, 0.2951324692732089, 0.5114292162365076, -0.14839525836875372, 0.12310625775947803, -0.30263988967545086, -0.3767872168139852, -0.0479196527674821, -0.2558966144692351, -0.0520019724325589, 0.058350668321741274, 0.18930451339290344, -0.12735986007569278, 0.07674131006852507, -0.3644768880650751, 0.3293130164332542, -0.2176252378749971, 0.2582845626471282, -0.10346453367719366, 0.0002874963245431683, 0.49603238258339666, 0.37697164974922376, -0.46606335455006137, 0.17036082408977266, 0.02705629159496779, 0.248766524719159, 0.44998680944535624, 0.36250770552093714, 0.38469620359594686, 0.49900681678874054, 0.15467371482354839, -0.2594772965427539, 0.22524144655740297, -0.3071401035394038, 0.46195975076997997, -0.4719464184377154, 0.056019478947405, -0.4060866970070979, -0.09324237962150773, 0.12297462312167541, -0.1480952449887803, -0.016489797318023903, -0.06062032116404086, 0.3731752663485012, 0.08778190010186024, 0.3417759828445048, -0.4228706981967387, -0.4940723692440744, -0.025231828150886648, -0.2753982154659297, 0.3223147769262835, -0.04430071536080721, -0.1684426202268743, -0.269374765606292, 0.10767278455732517, -0.09420399893767085, -0.16033882546195294, -0.2235944180698957, 0.4913183644802687, 0.22967723055287784, 0.4190154387966223, -0.32932977209714726, -0.4340296746811563, 0.04177446109119892, -0.49317067308694296, 0.18889936797619886, -0.29763578333072155, 0.11136666367794953, 0.023312309729132192, -0.3173171070919573, 0.04620618673026125, 0.31363391308713406, 0.00852555685893481, -0.32779921860781414, -0.48087525158124894, 0.25379139120547944, 0.22031064214179624, -0.04966944996147456, 0.310313723027222, 0.03785303884744338, -0.3052445085855532, 0.3014645171632521, -0.0992493012037389, 0.369016993722128, -0.16302040845234664, -0.2848940388726935, 0.20663628853524585, -0.1924991064347545, 0.163164790006604, -0.1549579915155258, 0.2553765133032249, -0.2202285004302642, -0.5231375220013325, -0.2824277451487886, 0.055338375728420354, -0.545228991993479, -0.14608389343470676, 0.25971539717658265, -0.05443915398143805, 0.14249014285321257, 0.3166030413052264, 0.39517267362256275, -0.1082941098866078, -0.00037302780576853323, -0.26324007881911643, 0.11177571090114813, 0.2765490002708364, 0.3360162136580124, 0.40279159515360413, -0.13597062370673232, -0.21296247682793829, 0.31553588153128387, -0.32544240744182595, 0.34483063752660675, 0.13872843166670443, 0.13750056588353438, -0.057596220607708866, -0.11508949925882052, -0.10495577703492569, 0.17524861851101814, 0.39850257260937766, -0.42871830538702804, -0.3779042935430037, -0.3704362034014313, -0.3562725167531492, -0.14719618607449497, -0.38822512300571543, 0.1400827041800309, 0.45492560893865674, -0.2223057009837946, 0.37798620151312534, 0.36731570544263004, 0.2335041420512648, -0.2672076959950787, 0.06872789778444974, -0.21311726726119687, -0.48990853682511804, 0.04011389137925715, -0.07886538006717413, 0.23478918582896877, -0.38819104669515164, 0.20826386785472156, -0.1369308114479579, -0.3018590577363479, -0.16016311284068446, -0.425880618400949, 0.31341056706449116, 0.0057405840883806595, 0.10583632030681428, -0.01971149956047155, -0.08210421440147572, -0.27289452161464317, -0.1674430323116786, -0.4364702674277484, 0.38721130216875577, 0.44695488077168666, -0.17346426483344268, 0.3748810547805861, -0.13284887765541986, -0.2413545666600948, -0.08349778873595248, -0.07036324001254722, -0.1658512654019576, -0.22115156956951473, -0.2419920293044933, -0.3158088711411219, -0.22819429208309727, -0.40989011941796977, 0.4002732902764811, 0.1879621584632543, 0.28727777587116876, 0.3380879285919199, -0.00921661998199669, 0.3007387620811176, -0.4406932656052637, -0.272332619724217, 0.3046405653638471, 0.39245663932582114, 0.18174010862278106, -0.17874753908149507, 0.23366814739162436, -0.0229252976257027, 0.45050484553266723, -0.041915320890097814, 0.2858023642424631, 0.3616627183695351, 0.23518581568369323, -0.07427249146761472, -0.1355783693178355, 0.3928965706682234, 0.1079648107611013, -0.49262496688849144, 0.4681642292746286, 0.40185533825251996, -0.018105437228790856, 0.20945404237654747, -0.3057184143707386, 0.1626947727305029, -0.13425010550384117, -0.3125435511661659, -0.431455419419081, -0.04898567169947662, -0.23794989964374244, 0.5565864231743605, -0.17494588472420847, 0.4058141035979651, 0.15911231941328277, 0.4829493621199072, -0.31108674378997986, -0.09692309339755581, -0.08589021629375787, -0.1767547147708821, 0.49964587748545886, 0.2846868288047851, 0.3182536536619478, -0.10084130348763187, 0.21778552641562887, -0.3779447898872695, -0.4552522799648728, -0.030003562944547233, 0.04343540373484236, -0.07681649898720264, 0.3425009244044796, -0.4137676582959535, -0.2140648584341632, -0.36599276745541515, -0.2501300498993649, 0.28100459880990364, -0.24220568686965124, 0.11385429954369686, -0.24042286936977952, 0.3869136202420393, 0.5053161922099304, 0.0023325213295023657, -0.08158922200502954, -0.2322252211435417, 0.3813788838745607, 0.3081146659600925, 0.14481355696042286, -0.07009262246653608, 0.18950075906840141, 0.10833690021843206, 0.040720481753312554, 0.34226249751981797, -0.1675696375281167, 0.05665100636606246, 0.10076723178376976, -0.11631836094469357, -0.05805723194372954, 0.04750196912958077, 0.07465744734269739, -0.34463763701428557, 0.5096490344936144, 0.5439113938726108, 0.31648130083872705, 0.3184443404514999, -0.16471655065435795, -0.041159986614139714, 0.36311230808917094, -0.06848357933414095, -0.2308541140245097, 0.2257276196252729, 0.4647992805466901, 0.05427264321793251, 0.4025825939297432, -0.4022595848720208, 0.16180583602294793, -0.32737503458169925, -0.10613974743822553, 0.09131461240464452, 0.4764317260654132, -0.42256495600025745, -0.1516760955711305, 0.06532964471943674, 0.08410321189923282, 0.4513442512706471, 0.034124386557266004, -0.3115876434852216, 0.11581047319052151, 0.010157028340058685, 0.15085640833909778, 0.5855311065580092, -0.12995159834305817, 0.3553630722005286, -0.18925185941791814, 0.5282232171582245, -0.1154651136121067, -0.2572279698293583, 0.0012074796903508006, 0.12736122146277765, -0.27818435625508703, 0.535611348256736, 0.4204333697894375, -0.13037576896545353, 0.14931507858477236, -0.34323461214354595, 0.20068050489272485, -0.49294425479781767, 0.34568550899062167, -0.1835386609487889, -0.3688198911180448, 0.09491863576891572, -0.13071478212725557, 0.24714260051518477, -0.07491385322764847, 0.2683535034408901, 0.4715071019631261, -0.26965871854369683, -0.22170979378161476, 0.1543689503403461, 0.298196209780428, 0.23930074308788027, -0.16021117600845186, 0.5007628482909909, 0.39671158399375755, 0.13872613457038413, -0.024175786515511288, 0.46022813388014666, -0.31057742210777045, 0.06933533045121293, 0.3156242212937865, -0.1265221839717637, -0.2021686025132587, 0.01367373073023829, 0.25851655863088957, -0.37327982292717266, -0.26738113722033263, -0.1396519025653461, -0.4546510546403154, 0.46730506839116875, -0.40530508872520715, 0.2783407358807456, 0.05764482421502982, -0.35142379199608315, -0.2140848203780272, 0.19627253066452427, 0.016226467110085532, 0.020691087465499487, 0.3140175771448213, 0.09137543821179629, -0.009898812037492447, 0.41968440337347235, 0.19542390716933486, 0.4091407636267501, -0.0017300765257903916, 0.18097914115862138, 0.2175755013442775, 0.14472572090564054, -0.17231723674908844, -0.1290481668954061, -0.22666864496669606, 0.11896526435425755, -0.3015453496814817, 0.014820594765056705, -0.20821207163955857, -0.016516703981947822, 0.04351147636208941, -0.29234001299245566, -0.5124405210007937, -0.22238674367832817, 0.03528245805781093, -0.09523630542402252, 0.4413922313474112, -0.013373392309623637, -0.31271478095546695, 0.541931513555377, 0.15067312777944664, 0.10334794839939893, 0.0600866308339347, 0.05712998093512783, 0.03183701598811489, 0.3309166647332556, 0.3866711948851166, -0.3302662182350968, -0.25556501448745284, -0.05407240444751845, 0.5714570265469293, -0.18097560023800807, -0.18378957300514562, 0.16465287305731408, 0.48909691238000663, -0.47535915303383985, -0.042080266221797835, 0.013721010704228043, -0.4107173428070946, 0.46853125093245, 0.296946326863773, 0.3834114848449091, -0.23345407453297237, 0.4265974724436295, 0.26562434821682906, -0.25327859799446945, 0.3149905319645857, 0.4788665505588215, 0.013188828256187718, 0.47564629705845646, 0.1955936939264959, 0.5234314328705932, -0.1797126462805592, 0.2801654774219774, 0.31146936199530645, -0.05127671963283487, 0.29230123478417647, 0.3742630843801581, 0.22909809430675787, -0.13921350180539646, 0.4826781290924652, 0.30119452558077514, -0.21558874292407343, -0.17627847566119817, -0.16107026446485906, -0.47070695302333376, 0.20466073566505516, 0.1585943108382286, -0.0814154062026603, 0.18238169852453864, -0.2195084625493687, -0.17975697442862817, -0.17731327291434468, -0.09768535765077942, -0.42358810959218485, -0.4423896534982957, 0.272531400131073, -0.09995060066569493, -0.4162388989593053, 0.31352453179177076, -0.052927692586979616, -0.25854281900759574, 0.04500409365964618, 0.09752485988593247, 0.3353469282677612, 0.29296895315860233, -0.09988219348906012, 0.16727016621232096, -0.10169170930401018, -0.09204042692478746, -0.45403484359646273, -0.1428944113820692, -0.41456395328434903, -0.43378578295970593, -0.08734288857378747, 0.08003119647196755, 0.0008059096785234969, -0.31676401472161136, -0.3833709210624702, -0.12230943563848416, -0.48953685484023135, 0.3813008885101132, -0.5639513292479956, 0.20916899081251095, -0.2615940297301981, -0.1922961040535372, -0.044377915017822255, -0.1265055425623958, -0.282005969163887, -0.5003891506890565, 0.30052832427301807, -0.22318295298837146, -0.0739353382704622, 0.10298962579107904, -0.2429648607179725, -0.21361975359823152, -0.14499566317933574, 0.4952311814002222, 0.31855584030474493, 0.08156144069500061, 0.46029497686080223, 0.14211907267360602, 0.381447281535635, -0.013503057406463848, -0.3322261820711465, -0.36629108905257085, -0.3152327055110075, 0.41599022381533696, -0.43728414148018663, 0.16282023792371347, -0.10153932550899832, 0.025816636056032096, -0.30619599719315843, -0.3912173628571018, -0.4108886042401215, -0.03656241665492002, -0.5164642900831891, -0.3853774951502958, -0.40621530245806037, 0.24586054037826807, -0.35406947469267136, 0.13571641597034179, 0.2531203573852037, 0.3980834217909617, -0.21092114095666403, 0.331756359050883, -0.3160730297433103, 0.24978589263286208, 0.1534203892128273, -0.03359534784757212, -0.11864014625915886, -0.09924141922733654, 0.4028531925285119, -0.2264474999479428, 0.017941938111601403, -0.29493884851725777, 0.06690912306770433, 0.3651511931015159, -0.279602701989598, 0.20666112281480484, -0.25851407177052627, -0.30760029074545964, -0.5465049109516288, 0.3693739661925167, 0.15802308825275602, -0.00410135202447047, -0.28457406152758324, -0.1356691701250572, 0.19591699083619532, -0.4560267412347357, -0.21057509163340765, 0.2805139149292605, 0.4235566730842414, 0.42607411282089286, 0.21638989639180406, 0.14689539091358209, 0.4360734833272545, 0.3638740773783411, 0.419177566397279, 0.2069551944164183, 0.4086622871037052, 0.22991509884995315, -0.19953050339180042, 0.13101994849567974, 0.4404488780261942, 0.13061621236834772, -0.25223258085746064, 0.29241816158506895, -0.024915316250001315, 0.017540728706332925, 0.14552540072523001, -0.024945031416858526, -0.30131618225087686, -0.09747176036705676, 0.23079499383298435, 0.3305046016063171, 0.10124330755735199, 0.049308320719785845, -0.3403727725648755, 0.1601878263807094, 0.12251384194457934, 0.27693234182916643, -0.4950852856942427, 0.2848544490929443, 0.24000100806542313, 0.3446186294047614, -0.3788337061055055, -0.08035027901992564, 0.2575072089839797, -0.4579109857619163, 0.39552093423407503, -0.30658386158690115, -0.2089952739855801, -0.3293241128566797, -0.074865455202998, -0.23160028947323646, -0.15582875902943907, 0.3581891250492245, -0.4914094824956148, 0.1832723336008529, 0.09902753064041378, -0.25960011182821763, 0.27312074839091527, -0.04305291847166541, -0.2701724439125685, -0.23969922327473575, 0.22516876224288415, -0.27369377414874224, -0.48282226142852014, -0.25565066866632347, -0.4815946483323549, -0.3579802648028795, 0.26447428006273466, -0.26779428199261945, 0.46512460041792614, 0.1313513698693699, -0.44571027049262524, -0.4088309160765644, 0.10947662821033388, -0.01055458388218124, -0.07912521428334224, 0.18414740759194814, -0.45925379973493824, -0.08115862477562287, -0.12903400179035002, 0.025983071425871168, 0.097775611134071, -0.3209584861393848, 0.16120433543237309, -0.3534964567476048, 0.21679989198805982, -0.30994682620974773, -0.010685543828204223, 0.1106384963903367, 0.2169585167836917, -0.36394240673377076, 0.20268805001970736, 0.23937990132267628, -0.454073879760574, -0.33842485861049076, -0.28167907159407846], [-0.2061158985866216, 0.3995402881034914, 0.35669352527936715, 0.235382780379632, -0.49092012187061296, 0.41282908142107566, 0.41270264942521706, -0.18742307041051687, -0.047137422922812644, -0.4432146472393377, -0.1972316483569564, 0.21518152973863836, 0.49637147437955587, 0.19072249567332022, -0.46346406524611494, 0.4966303160718385, 0.21563892180106548, -0.44901980147991094, -0.18876359761337835, -0.16864560295459619, 0.08952119212950171, -0.18113757212328463, 